tree
version=v4
num_class=1
num_tree_per_iteration=1
label_index=0
max_feature_idx=66
objective=binary sigmoid:1
feature_names=Fraction_inspired_oxygen_mean Fraction_inspired_oxygen_min Fraction_inspired_oxygen_max Glucose_mean Glucose_min Glucose_max Heart_Rate_mean Heart_Rate_min Heart_Rate_max Mean_blood_pressure_mean Mean_blood_pressure_min Mean_blood_pressure_max Diastolic_blood_pressure_mean Diastolic_blood_pressure_min Diastolic_blood_pressure_max Systolic_blood_pressure_mean Systolic_blood_pressure_min Systolic_blood_pressure_max Oxygen_saturation_mean Oxygen_saturation_min Oxygen_saturation_max Respiratory_rate_mean Respiratory_rate_min Respiratory_rate_max Temperature_mean Temperature_min Temperature_max Weight_mean Weight_min Weight_max pH_mean pH_min pH_max Fraction_inspired_oxygen_range Glucose_range Heart_Rate_range Mean_blood_pressure_range Diastolic_blood_pressure_range Systolic_blood_pressure_range Oxygen_saturation_range Respiratory_rate_range Temperature_range Weight_range pH_range Fraction_inspired_oxygen_min_to_mean Fraction_inspired_oxygen_max_to_mean Glucose_min_to_mean Glucose_max_to_mean Heart_Rate_min_to_mean Heart_Rate_max_to_mean Mean_blood_pressure_min_to_mean Mean_blood_pressure_max_to_mean Diastolic_blood_pressure_min_to_mean Diastolic_blood_pressure_max_to_mean Systolic_blood_pressure_min_to_mean Systolic_blood_pressure_max_to_mean Oxygen_saturation_min_to_mean Oxygen_saturation_max_to_mean Respiratory_rate_min_to_mean Respiratory_rate_max_to_mean Temperature_min_to_mean Temperature_max_to_mean Weight_min_to_mean Weight_max_to_mean pH_min_to_mean pH_max_to_mean is_outlier
feature_infos=[-5.1993375826055752:5.1993375827034196] [-5.1993375826055752:5.1993375827034196] [-5.1993375826055752:5.1993375827034196] [-5.1993375826055752:5.1993375827034196] [-5.1993375826055752:5.1993375827034196] [-5.1993375826055752:5.1993375827034196] [-5.1993375826055752:5.1993375827034196] [-5.1993375826055752:5.1993375827034196] [-5.1993375826055752:5.1993375827034196] [-5.1993375826055752:5.1993375827034196] [-5.1993375826055752:5.1993375827034196] [-5.1993375826055752:5.1993375827034196] [-5.1993375826055752:5.1993375827034196] [-5.1993375826055752:5.1993375827034196] [-5.1993375826055752:5.1993375827034196] [-5.1993375826055752:5.1993375827034196] [-5.1993375826055752:5.1993375827034196] [-5.1993375826055752:5.1993375827034196] [-5.1993375826055752:5.1993375827034196] [-5.1993375826055752:5.1993375827034196] [-5.1993375826055752:5.1993375827034196] [-5.1993375826055752:5.1993375827034196] [-5.1993375826055752:5.1993375827034196] [-5.1993375826055752:5.1993375827034196] [-5.1993375826055752:5.1993375827034196] [-5.1993375826055752:5.1993375827034196] [-5.1993375826055752:5.1993375827034196] [-5.1993375826055752:5.1993375827034196] [-5.1993375826055752:5.1993375827034196] [-5.1993375826055752:5.1993375827034196] [-5.1993375826055752:5.1993375827034196] [-5.1993375826055752:5.1993375827034196] [-5.1993375826055752:5.1993375827034196] [-5.1993375826055752:5.1993375827034196] [-5.1993375826055752:5.1993375827034196] [-5.1993375826055752:5.1993375827034196] [-5.1993375826055752:5.1993375827034196] [-5.1993375826055752:5.1993375827034196] [-5.1993375826055752:5.1993375827034196] [-5.1993375826055752:5.1993375827034196] [-5.1993375826055752:5.1993375827034196] [-5.1993375826055752:5.1993375827034196] [-5.1993375826055752:5.1993375827034196] [-5.1993375826055752:5.1993375827034196] [-5.1993375826055752:5.1993375827034196] [-5.1993375826055752:5.1993375827034196] [-5.1993375826055752:5.1993375827034196] [-5.1993375826055752:5.1993375827034196] [-5.1993375826055752:5.1993375827034196] [-5.1993375826055752:5.1993375827034196] [-5.1993375826055752:5.1993375827034196] [-5.1993375826055752:5.1993375827034196] [-5.1993375826055752:5.1993375827034196] [-5.1993375826055752:5.1993375827034196] [-5.1993375826055752:5.1993375827034196] [-5.1993375826055752:5.1993375827034196] [-5.1993375826055752:5.1993375827034196] [-5.1993375826055752:5.1993375827034196] [-5.1993375826055752:5.1993375827034196] [-5.1993375826055752:5.1993375827034196] [-5.1993375826055752:5.1993375827034196] [-5.1993375826055752:5.1993375827034196] [-5.1993375826055752:5.1993375827034196] [-5.1993375826055752:5.1993375827034196] [-5.1993375826055752:5.1993375827034196] [-5.1993375826055752:5.1993375827034196] [-1:1]
tree_sizes=1003 981 975 956 980 959 982 979 957 954 980 979 963 981 979 971 978 980 981 1005 963 978 982 974 999 979 977 960 966 1004 988 988 935 957 968 972 989 960 985 969 1006 982 1005 991 940 1014 979 962 1008 972 968 990 1000 968 969 991 1002 978 1013 965 1017 947 962 997 989 992 993 1008 992 948 968 978 1014 978 966 993 975 1005 1005 1005 998 994 1018 971 971 1017 965 1016 1002 999 974 977 991 971 992 982 998 1010 1021 986 962 1016 998 984 1017 993 981 971 993 967 1025 992 963 1024 993 991 977 995 1000 984 990 1013 1006 1001 977 993 986 963 983 969 976 967 977 977 956 992 990 969 983 990 1003 995 995 995 982 993 973 994 987 1011 981 947 951 983 955 1014 1024 970 949 996 951 998 1001 1017 967 965 1008 1013 962 982 950 965 950 985 1020 978 975 938 979 971 959 1019 980 1018 984 988 964 995 1015 1015 1020 949 997 981 973 968 1009 990 1000 995 950 960 995 966 988 977 990 958 972 1018 996 992 980 999 947 953 948 985 991 964 948 984 1016 984 995 964 996 986 994 1019 994 996 957 1013 995 1004 983 955 1015 967 1017 1001 1016 1015 988 950 1007 999 987 1014 1006 983 977 976 943 1011 981 1008 997 991 951 1009 962 973 1013 983 953 968 994 982 992 968 968 1017 954 948 963 989 973 996 1019 993 988 941 988 1020 984 975 944 1003 996 952 1007 975 972 986 995 976 963 991 976 972 984 995 1008 1024 982 974 983 1009 995 966 1015 967 1020 993 985 963 953 950 999 1004 970 1005 978 978 977 972 1005 1019 1006 992 1016 992 962 979 992 969 971 971 970 979 955 970 989 966 960 978 981 964 970 954 966 969 984 948 949 1000 954 976 972 980 957 951 988 967 975 945 967 1020 983 969 998 970 950 988 981 961 976 1000 1006 1017 989 969 996 927 1005 988 981 964 1006 991 985 993 1007 920 931 1012 994 1007 993 999 960 972 972 953 995 937 947 1012 976 934 980 997 993 963 816 972 955 983 919 938 962 989 986 1011 1007 1004 1005 971 927 990 975 963 1012 847 953 977 951 1019 938 989 969 935 1000 993 992 1007 963 963 956 1002 1006 1011 979 977 959 937 983 995 984 957 994 974 1010 943 970 960 983 970 963 999 979 1011 1000 1010 996 942 961 983 958 940 961 991 819 988 957 945 983 935 998 1013 982 949 950 975 940 946 973 982 942 961 953 967 974 819 994 986 826 965 967 995 998 997 971 984 971 985 977 967 988 964 988 986 955 970 961 951 939 992 967 934 988 980 996 986 992 997 959 969 974 958 983 1004 964 966 936 944 1004 1020 1013 976 960 971 979 940 963 947 969 962 948 994 955 941 999 841 964 986 993 1020 988 939 948 960 962 991 958 998 972 995 842 952 843 929 942 951 961 968 906 997 829 814 997 977 968 1014 940 961 939 964 1016 979 936 966 989 971 996 975 986 996 959 1000 1021 947 978 994 995 952 981 963 987 824 952 964 970 974 964 1001 1004 843 979 918 960 989 982 940 977 991 963 967 978 952 943 1018 1007 991 1000 944 954 824 1015 967 953 1010 968 929 944 958 946 823 956 958 1005 943 1008 960 1012 955 993 1012 964 1004 818 1001 945 997 984 950 975 970 1008 960 967 1022 999 996 955 847 1012 991 940 963 950 973 1011 966 938 969 976 995 940 951 989 843 974 965 993 791 945 931 921 947 953 1009 997 976 928 950 988 1018 952 977 991 996 947 986 982 996 992 935 1019 980 947 967 970 969 1021 975 982 907 800 952 999 963 981 1000 967 973 973 980 976 994 960 986 961 944 979 944 981 966 961 837 1003 946 969 1021 976 994 957 1012 971 939 987 956 937 936 827 1012 995 994 973 965 1005 961 972 962 997 982 979 979 980 956 963 983 1004 1017 957 964 930 939 976 991 994 997 956 960 934 946 1016 928 967 1012 988 959 962 940 963 954 1015 1002 981 993 956 958 1011 944 999 978 982 1007 949 931 994 994 993 956 990 996 968 960 824 995 965 975 954 1002 975 944 952 931 959 933 942 1001 995 960 972 941 974 841 956 985 966 1019 982 915 946 993 992 976 1000 966 983 985 1000 999 1000 949 986 965 952 952 985 842 993 975 996 987 939 982 985 995 975 958 955 1013 1022 979 925 962 957 973 981 982 962 940 817 988 979 938 982 990 972 995 987 993 848 954 979 991 941 1020 951 955 969 995 1012 970 995 940 971 954 1011 974 941 1012 939 1004 965 969 966 968 987 994 973 965 955 984 945 848 966 983 980 820 983 936 992 934 963 975 963 946 986 981 1016 982 963 942 980 981 943 920 976 1018 1006 944 954 955 937 844 921 988 966 999 965 964 845 965 964 986 972 1002 973 942 982 937 961 978 989 969

Tree=0
num_leaves=8
num_cat=0
split_feature=16 56 64 62 23 8 4
split_gain=236.159 86.3115 71.2262 86.6932 49.893 34.0038 24.9774
threshold=-0.3251627478699432 -0.49893174325007822 0.98997550575020032 -0.7399364574324564 -0.53971286606292657 -0.88527517502858322 -0.030120273792675331
decision_type=2 2 2 2 2 2 2
left_child=1 4 3 -2 -1 -3 -4
right_child=2 5 6 -5 -6 -7 -8
leaf_value=-0.062521108779891005 -0.063434244947942406 -0.063538846875079075 -0.064004924097551763 -0.061737662388166616 -0.05959995291545838 -0.061382653121579242 -0.062921232628953133
leaf_weight=48.192359462380409 149.70427192747593 48.960761591792107 76.188213482499123 587.62522482872009 237.9483083486557 315.89561834931374 124.9180566072464
leaf_count=177 624 201 344 2090 642 1075 494
internal_value=-0.0640049 -0.0608487 -0.0623166 -0.062052 -0.0599954 -0.0616139 -0.0633969
internal_weight=0 650.997 938.436 737.329 286.141 364.856 201.106
internal_count=5647 2095 3552 2714 819 1276 838
is_linear=0
shrinkage=0.0584229


Tree=1
num_leaves=8
num_cat=0
split_feature=21 16 30 42 65 25 32
split_gain=302.645 102.099 89.9837 82.5654 52.3637 42.1047 13.594
threshold=0.14012247106919593 -0.3251627478699432 -0.1524547772277596 0.46979043874958293 -0.85389249303111026 1.0000000180025095e-35 -4.0575054610283949
decision_type=2 2 2 2 2 2 2
left_child=2 6 5 -4 -3 -1 -2
right_child=1 4 3 -5 -6 -7 -8
leaf_value=0.0027529299457295766 0 0.0008733245582108716 0.0013603786840443175 -0.00010472286871078104 0.0026741230359961913 0.0011617315312136944 0.0038751424241517882
leaf_weight=197.76266093552113 2.5015727728605262 105.70445699989796 312.97340299189091 159.33608227968216 335.06803180277348 157.52568154036999 348.4450676292181
leaf_count=640 11 421 1188 708 1106 605 968
internal_value=0 0.00302752 0.00141912 0.000833739 0.00229756 0.0021243 0.00384599
internal_weight=0 791.719 827.598 472.309 440.772 355.288 350.947
internal_count=5647 2506 3141 1896 1527 1245 979
is_linear=0
shrinkage=0.00177102


Tree=2
num_leaves=8
num_cat=0
split_feature=21 24 62 15 31 3 25
split_gain=269.453 105.374 104.243 43.239 41.7932 30.8989 20.7573
threshold=0.33316135122043183 -1.0841111684642486 -0.7399364574324564 -0.19362172615585979 0.40522765980011272 0.14205192106996559 1.7564451904209337
decision_type=2 2 2 2 2 2 2
left_child=1 4 -3 6 -1 -5 -2
right_child=3 2 -4 5 -6 -7 -8
leaf_value=0.0037315769795542796 0.0041601510819547008 -4.1433427670332695e-05 0.0016532883381809209 0.0015504557994177742 0.00051017355568728215 0.0032725834154825441 0
leaf_weight=131.02677963674068 328.29635447263718 158.46937124431133 634.40541489422321 151.58011054992676 37.644931882619858 195.21392817795277 10.834336906671522
leaf_count=379 893 694 2341 553 148 598 41
internal_value=0 0.0016568 0.00129171 0.00338513 0.00316505 0.00261177 0.00406467
internal_weight=0 961.546 792.875 685.925 168.672 346.794 339.131
internal_count=5647 3562 3035 2085 527 1151 934
is_linear=0
shrinkage=0.00200055


Tree=3
num_leaves=8
num_cat=0
split_feature=21 16 24 29 65 31 28
split_gain=244.358 82.2806 73.1192 84.6954 45.534 33.233 24.9464
threshold=0.14012247106919593 -0.3251627478699432 -0.99819495327010277 0.44906364820707878 -0.70194716024018311 0.017789222259157789 1.7864943304573317
decision_type=2 2 2 2 2 2 2
left_child=2 6 5 -4 -3 -1 -2
right_child=1 4 3 -5 -6 -7 -8
leaf_value=0.0031031140956739658 0.0034684542672752585 0.00088072885683265485 0.0013454056786136037 0 0.0024272013183324801 0.00092279136529672815 0
leaf_weight=100.67319892346859 360.8702335357666 129.32790517807007 489.37046970427036 187.24749545753002 328.19032099843025 69.112667217850685 8.9318869411945325
leaf_count=280 945 494 1805 797 1033 259 34
internal_value=0 0.00268729 0.00128285 0.000967909 0.00204285 0.00237036 0.0033974
internal_weight=0 827.32 846.404 676.618 457.518 169.786 369.802
internal_count=5647 2506 3141 2602 1527 539 979
is_linear=0
shrinkage=0.00174084


Tree=4
num_leaves=8
num_cat=0
split_feature=21 8 16 18 65 29 25
split_gain=219.153 72.1158 70.9515 44.421 40.4181 39.4407 15.9669
threshold=0.14012247106919593 0.069071909868374304 -0.3251627478699432 0.90902428775276245 -0.85389249303111026 0.86733078767208771 0.45860500756630035
decision_type=2 2 2 2 2 2 2
left_child=1 3 6 -1 -4 -3 -2
right_child=2 5 4 -5 -6 -7 -8
leaf_value=0.0003323790001490721 0.0033053425510591291 0.0019203081719391917 0.00066525427091456075 0.0015483010349466423 0.0021000519940883983 0 0.0017540593660896624
leaf_weight=372.64737223088741 281.45804379880428 316.46896904706955 109.26813992857933 119.17411969602108 355.31462861597538 46.314025640487671 97.487899303436279
leaf_count=1496 683 1047 421 409 1106 189 296
internal_value=0 0.00114246 0.00236841 0.00067288 0.00180822 0.00171629 0.00297831
internal_weight=0 854.604 843.529 491.821 464.583 362.783 378.946
internal_count=5647 3141 2506 1905 1527 1236 979
is_linear=0
shrinkage=0.00161135


Tree=5
num_leaves=8
num_cat=0
split_feature=21 30 62 25 25 30 8
split_gain=200.19 93.1038 74.922 48.9867 29.8259 25.3266 23.4555
threshold=0.33316135122043183 -0.1524547772277596 -0.80988232068209876 -0.62269332660692711 0.27451431836665235 -1.9275923758492384 -0.77263284657858067
decision_type=2 2 2 2 2 2 2
left_child=1 3 -3 -1 5 -2 -6
right_child=4 2 -4 -5 6 -7 -8
leaf_value=0.0028084532730682102 0 -0.00034720376816048908 0.0010598526052184251 0.0013029631143348596 0 0.0028871384297616326 0.0018981342771133424
leaf_weight=141.58966019749641 7.4066241383552542 120.71661987900734 442.47776110470295 288.48816618323326 22.656545653939247 465.04992540180683 232.29145596921444
leaf_count=390 31 535 1617 1020 89 1246 719
internal_value=0 0.00124529 0.000728115 0.00186623 0.00249192 0.00283777 0.0017403
internal_weight=0 993.272 563.194 430.078 727.405 472.457 254.948
internal_count=5647 3562 2152 1410 2085 1277 808
is_linear=0
shrinkage=0.00170139


Tree=6
num_leaves=8
num_cat=0
split_feature=21 62 43 43 30 25 31
split_gain=180.653 71.9955 66.4166 49.8982 45.8949 24.876 23.1793
threshold=0.14012247106919593 -0.7399364574324564 -1.1696384551335508 -0.26917062359452154 -0.02743550213808588 0.63009829027979081 -0.64002797312323068
decision_type=2 2 2 2 2 2 2
left_child=1 4 -3 6 -1 -5 -2
right_child=3 2 -4 5 -6 -7 -8
leaf_value=0.0011282395348366533 0 0.00019561491482938506 0.0017741629156269299 0.0032007500348339287 -0.00063874585012980902 0.0016574421808175672 0.0018864336751708017
leaf_weight=83.011116802692413 36.183529794216156 141.60168160498142 544.8618031591177 403.36467120051384 100.87551902234554 123.15987806022167 309.38525405526161
leaf_count=294 139 561 1823 1017 463 385 965
internal_value=0 0.00120486 0.00147901 0.00246473 7.20246e-05 0.00289466 0.00172302
internal_weight=0 870.35 686.463 872.093 183.887 526.525 345.569
internal_count=5647 3141 2384 2506 757 1402 1104
is_linear=0
shrinkage=0.00183757


Tree=7
num_leaves=8
num_cat=0
split_feature=21 16 24 29 65 31 28
split_gain=223.7 73.6253 69.2807 78.9431 41.1358 30.4714 21.4216
threshold=0.14012247106919593 -0.3251627478699432 -0.99819495327010277 -0.21387941306908384 -0.85389249303111026 0.017789222259157789 1.7864943304573317
decision_type=2 2 2 2 2 2 2
left_child=2 6 5 -4 -3 -1 -2
right_child=1 4 3 -5 -6 -7 -8
leaf_value=0.0026687494992413494 0.0029546462717935686 0.00064469465679058515 0.00144440324197117 0.00031048543698739282 0.0020366352819023189 0.00079564057339007329 0
leaf_weight=102.33056078851223 368.36915765702724 109.14549748599529 296.17409119009972 385.22378145158291 354.3530091792345 69.597766220569611 8.8501155227422696
leaf_count=280 945 421 1037 1565 1106 259 34
internal_value=0 0.00229984 0.00110675 0.000833301 0.00175297 0.00204493 0.00289712
internal_weight=0 840.718 853.326 681.398 463.499 171.928 377.219
internal_count=5647 2506 3141 2602 1527 539 979
is_linear=0
shrinkage=0.00155127


Tree=8
num_leaves=8
num_cat=0
split_feature=21 64 62 16 30 12 32
split_gain=175.059 89.5465 79.2961 39.1487 35.4694 18.3661 5.43783
threshold=0.33316135122043183 -0.52224814400049724 -0.80988232068209876 -0.3251627478699432 -1.334403666842592 2.0911726623009361 -1.9874207743321826
decision_type=2 2 2 2 2 2 2
left_child=1 4 -3 6 -1 -5 -2
right_child=3 2 -4 5 -6 -7 -8
leaf_value=0.00020921609962292449 0 -0.00027217809953375161 0.0010138227694614734 0.0017472276484860739 0.0021854923398067112 0 0.0027416250278345356
leaf_weight=47.636694937944412 4.6253976970911017 129.05352655053139 599.07618340849876 396.67393833398819 230.9892039000988 8.9432619363069517 334.38052678108215
leaf_count=177 16 564 2134 1224 687 37 808
internal_value=0 0.00110647 0.000763895 0.00219701 0.00191403 0.00169466 0.00271571
internal_weight=0 1006.76 728.13 744.623 278.626 405.617 339.006
internal_count=5647 3562 2698 2085 864 1261 824
is_linear=0
shrinkage=0.00160095


Tree=9
num_leaves=8
num_cat=0
split_feature=21 24 62 16 31 12 15
split_gain=158.922 84.8552 81.7947 34.4008 30.4768 17.1746 6.39027
threshold=0.33316135122043183 -1.0841111684642486 -0.7399364574324564 -0.3251627478699432 0.40522765980011272 2.0911726623009361 1.2236489426532329
decision_type=2 2 2 2 2 2 2
left_child=1 4 -3 6 -1 -5 -2
right_child=3 2 -4 5 -6 -7 -8
leaf_value=0.0024562974333131901 0.0025915405864206024 -0.00012236444907797885 0.0010496757727388828 0.0016633101849793186 0.00027374437739859846 0 0
leaf_weight=142.32383835315704 342.7845119535923 162.78908917307854 671.09041491150856 401.86880284547806 39.160500973463058 8.9432619363069517 2.1700356602668753
leaf_count=379 816 694 2341 1224 148 37 8
internal_value=0 0.00105847 0.000802736 0.00208803 0.00209151 0.00161329 0.00257455
internal_weight=0 1015.36 833.88 755.767 181.484 410.812 344.955
internal_count=5647 3562 3035 2085 527 1261 824
is_linear=0
shrinkage=0.00159115


Tree=10
num_leaves=8
num_cat=0
split_feature=21 30 3 25 15 3 32
split_gain=176.359 89.5008 68.1751 49.3708 32.6422 33.5959 19.6558
threshold=0.33316135122043183 -0.1524547772277596 0.70948335382149519 -0.62269332660692711 -0.19362172615585979 0.14205192106996559 -4.0575054610283949
decision_type=2 2 2 2 2 2 2
left_child=1 3 -3 -1 6 -6 -2
right_child=4 2 -4 -5 5 -7 -8
leaf_value=0.0022336066387817709 0 0.00024908508202515036 0.0014622438962948634 0.0010110521324743886 0.00078924566498288532 0.0019041729164593691 0.0023558629257323322
leaf_weight=143.70492328703403 2.6396383792161933 442.53053739666939 127.36411666870117 292.84670467674732 163.07913458347321 210.30128762125969 367.83923445641994
leaf_count=390 13 1740 412 1020 553 598 921
internal_value=0 0.000970693 0.000555659 0.0014675 0.00192962 0.00147227 0.00232557
internal_weight=0 1006.45 569.895 436.552 743.859 373.38 370.479
internal_count=5647 3562 2152 1410 2085 1151 934
is_linear=0
shrinkage=0.00140247


Tree=11
num_leaves=8
num_cat=0
split_feature=21 62 43 15 30 3 32
split_gain=217.517 77.7767 67.65 54.7506 49.1658 40.7433 16.9927
threshold=0.14012247106919593 -0.7399364574324564 -1.1696384551335508 -0.44683348633982539 -0.02743550213808588 0.14205192106996559 -1.9874207743321826
decision_type=2 2 2 2 2 2 2
left_child=1 4 -3 6 -1 -5 -2
right_child=3 2 -4 5 -6 -7 -8
leaf_value=0.00071321167346804863 0 0.00015970110925156666 0.0011132333080553013 0.00079237933724848929 -0.00036519191372073829 0.001595882092854188 0.0020282605369640891
leaf_weight=81.646381184458733 3.2426091730594626 139.03472797572613 534.24941931664944 228.6769997626543 100.27920882403851 279.93786378204823 332.83566318452358
leaf_count=294 14 561 1823 801 463 828 863
internal_value=0 0.000764665 0.000935004 0.00158427 6.81063e-05 0.0012677 0.00200414
internal_weight=0 855.21 673.284 844.693 181.926 508.615 336.078
internal_count=5647 3141 2384 2506 757 1629 877
is_linear=0
shrinkage=0.00108165


Tree=12
num_leaves=8
num_cat=0
split_feature=56 43 30 3 27 7 28
split_gain=144.388 74.2265 78.9895 34.6482 45.7017 18.7443 7.71551
threshold=-0.49893174325007822 -0.87170768266554943 1.0000000180025095e-35 0.48672751888165794 0.91483715128981058 -0.098694388571663599 1.7864943304573317
decision_type=2 2 2 2 2 2 2
left_child=3 5 -3 4 -1 -2 -5
right_child=1 2 -4 6 -6 -7 -8
leaf_value=0.0020810381602089016 -0.00010353001069849658 0.0020120210938550332 0.00083901043344883591 0.0031550456981025155 0 0.0007385431142012442 0
leaf_weight=336.79274235665798 108.23813138902187 485.31040854752064 410.75738705694675 231.58767595887184 41.648740977048874 150.27194201946259 8.6573622673749906
leaf_count=992 444 1454 1465 567 156 540 29
internal_value=0 0.00125629 0.00150203 0.00239082 0.00186828 0.00032474 0.00308315
internal_weight=0 1154.58 896.068 618.687 378.441 258.51 240.245
internal_count=5647 3903 2919 1744 1148 984 596
is_linear=0
shrinkage=0.00176377


Tree=13
num_leaves=8
num_cat=0
split_feature=21 30 16 42 65 24 1
split_gain=208.069 77.3084 76.6024 69.6083 43.9917 33.668 8.25914
threshold=0.14012247106919593 -0.1524547772277596 -0.3251627478699432 0.46979043874958293 -0.70194716024018311 -0.4293256578841777 -1.8925883954927429
decision_type=2 2 2 2 2 2 2
left_child=1 5 6 -3 -4 -1 -2
right_child=2 3 4 -5 -6 -7 -8
leaf_value=0.00170337093236593 0 0.00075621533054844232 0.00050621405431479718 -0.00011160164390684321 0.0014891809210105505 0.00077683992968757094 0.0021231973716198797
leaf_weight=154.50720481574535 7.3510943353176108 326.02981190383434 132.83670906722546 162.35950480401516 338.22453324496746 218.0268619209528 374.87623730301857
leaf_count=457 25 1188 494 708 1033 788 954
internal_value=0 0.000795803 0.00165053 0.000446394 0.00124504 0.00121047 0.00209617
internal_weight=0 860.923 853.289 488.389 471.061 372.534 382.227
internal_count=5647 3141 2506 1896 1527 1245 979
is_linear=0
shrinkage=0.00115735


Tree=14
num_leaves=8
num_cat=0
split_feature=8 30 30 15 24 5 1
split_gain=142.798 94.2112 48.6899 48.443 40.8922 34.3423 10.0046
threshold=0.13670677168511902 1.0000000180025095e-35 1.0319393874334055 -0.67114354041877244 -0.71819716094474717 0.099906553734043543 -1.7702416425871863
decision_type=2 2 2 2 2 2 2
left_child=1 4 -3 6 -1 -5 -2
right_child=3 2 -4 5 -6 -7 -8
leaf_value=0.0023422018861076017 0 2.8120301515908793e-05 0.0012543661270986006 0.0010679278359319187 0.001077756147656911 0.0021068975079172169 0.0027549041311453015
leaf_weight=156.66158938407898 3.8921620994806281 318.09358587861061 132.20329594612122 279.44094577431679 315.64805196225643 302.15621529519558 272.94972763955593
leaf_count=419 14 1244 441 938 1058 857 676
internal_value=0 0.00103041 0.000434501 0.00202826 0.00155308 0.00164992 0.00271839
internal_weight=0 922.607 450.297 858.439 472.31 581.597 276.842
internal_count=5647 3162 1685 2485 1477 1795 690
is_linear=0
shrinkage=0.00163888


Tree=15
num_leaves=8
num_cat=0
split_feature=21 62 43 16 30 3 44
split_gain=157.033 65.8762 57.3828 53.817 39.5311 33.6928 7.9809
threshold=0.14012247106919593 -0.7399364574324564 -1.1696384551335508 -0.70601371449989025 -0.02743550213808588 0.047514651853010036 -1.9688595926242074
decision_type=2 2 2 2 2 2 2
left_child=1 4 -3 6 -1 -5 -2
right_child=3 2 -4 5 -6 -7 -8
leaf_value=0.00076087814853091607 0 9.5199218486456542e-05 0.0012452790015384315 0.00089663850705483741 -0.00053616829952035617 0.0017811545488355999 0.0024073103561332238
leaf_weight=85.784425154328346 3.5916443467140189 144.14531481266022 563.3066234588623 277.73243892192841 102.09900830686092 345.59515789151192 276.4702173024416
leaf_count=294 12 561 1823 902 463 961 631
internal_value=0 0.000831155 0.00103373 0.00174668 0 0.00142118 0.00237971
internal_weight=0 895.335 707.452 903.389 187.883 623.328 280.062
internal_count=5647 3141 2384 2506 757 1863 643
is_linear=0
shrinkage=0.00145528


Tree=16
num_leaves=8
num_cat=0
split_feature=21 24 29 16 30 12 10
split_gain=144.597 80.3045 71.8457 29.0666 23.812 15.9477 7.76318
threshold=0.33316135122043183 -1.0841111684642486 -0.17056506712937938 -0.3251627478699432 0.28008386185980622 2.0911726623009361 -0.091846730086279943
decision_type=2 2 2 2 2 2 2
left_child=1 4 -3 6 -1 -5 -2
right_child=3 2 -4 5 -6 -7 -8
leaf_value=0.0028785661849129035 0.0031594964953574256 0.0014815016568301056 0.00028048048649177666 0.001862547955207228 0.00065585905747830744 0 0.001432711692574481
leaf_weight=131.51661014556885 282.45614525675774 388.02991706132889 464.78348104655743 411.85599513351917 54.849266797304153 9.116801977157591 72.594262793660164
leaf_count=332 625 1275 1760 1224 195 37 199
internal_value=0 0.00115504 0.000855397 0.00234066 0.00236234 0.00180361 0.00288699
internal_weight=0 1039.18 852.813 776.023 186.366 420.973 355.05
internal_count=5647 3562 3035 2085 527 1261 824
is_linear=0
shrinkage=0.00194787


Tree=17
num_leaves=8
num_cat=0
split_feature=21 30 65 3 27 25 56
split_gain=133.462 58.4945 49.73 49.2004 36.9846 25.8034 23.8217
threshold=0.14012247106919593 -0.1524547772277596 -0.85389249303111026 0.70948335382149519 0.84470155401028657 0.27451431836665235 -0.49893174325007822
decision_type=2 2 2 2 2 2 2
left_child=1 4 6 -3 -1 -4 -2
right_child=2 3 5 -5 -6 -7 -8
leaf_value=0.0018214749663130222 0.0018521381404463712 0.00014601568485414693 0.0027020319245929895 0.0016259177212820954 0 0.0015953103738327319 0.00022685139228933689
leaf_weight=335.33896966278553 73.423528388142586 399.73489773273468 474.68849292397499 110.09303247928619 61.86892306804657 261.02619327604771 114.1560432612896
leaf_count=1015 201 1547 1149 349 230 753 403
internal_value=0 0.00100654 0.00210185 0.000515898 0.00157407 0.00234935 0.000994795
internal_weight=0 907.036 923.294 509.828 397.208 735.715 187.58
internal_count=5647 3141 2506 1896 1245 1902 604
is_linear=0
shrinkage=0.00189619


Tree=18
num_leaves=8
num_cat=0
split_feature=16 21 57 21 62 12 4
split_gain=125.393 56.1755 57.2199 51.7888 19.6726 14.6218 14.4403
threshold=-0.3251627478699432 0.33316135122043183 -0.93960141217393456 -0.34019262422979774 -0.37448455932611852 2.0911726623009361 -1.393085798857068
decision_type=2 2 2 2 2 2 2
left_child=3 2 -2 4 -1 -3 -5
right_child=1 5 -4 6 -6 -7 -8
leaf_value=0.00013669654009680515 0.0015646309811419915 0.0016050718009583017 0.00024787472927692767 0.0036051573657373392 0.0015373073323559491 0 0.0021010424612812688
leaf_weight=84.852882191538811 159.9870088994503 420.28981670737267 481.82656392455101 80.115948706865311 141.81386636197567 9.2192009091377241 466.28296414017677
leaf_count=317 500 1224 1791 145 433 37 1200
internal_value=0 0.00101323 0.000614474 0.00204568 0.00110652 0.00155233 0.00238773
internal_weight=0 1071.32 641.814 773.066 226.667 429.509 546.399
internal_count=5647 3552 2291 2095 750 1261 1345
is_linear=0
shrinkage=0.00182466


Tree=19
num_leaves=8
num_cat=0
split_feature=8 31 62 25 16 25 19
split_gain=117.108 58.8165 64.2417 44.0473 42.8127 25.4497 8.34605
threshold=0.13670677168511902 -0.18661850385760823 -0.7399364574324564 -0.17850514659019631 -0.3251627478699432 -1.1947695075503957 -0.40409977550860759
decision_type=2 2 2 2 2 2 2
left_child=1 3 -3 -1 6 -6 -2
right_child=4 2 -4 -5 5 -7 -8
leaf_value=0.0018357627449945542 0.0025663020814409446 -0.00062631738209585218 0.0007141203251163317 0.00059429118866658674 0.0024926049861623348 0.0010084359618298157 0.0015433545993288056
leaf_weight=223.99608089029789 232.36724533140659 107.54844731092453 421.73530660569668 204.51051618158817 55.248144671320915 409.70363815128803 202.53402391076088
leaf_count=599 504 463 1419 681 125 1303 553
internal_value=0 0.00082695 0.000407654 0.00129569 0.00171221 0.00124621 0.00215186
internal_weight=0 957.79 529.284 428.507 899.853 464.952 434.901
internal_count=5647 3162 1882 1280 2485 1428 1057
is_linear=0
shrinkage=0.00164245


Tree=20
num_leaves=8
num_cat=0
split_feature=21 8 16 57 29 64 1
split_gain=161.528 65.1242 55.3022 47.1412 37.7004 34.6322 8.44417
threshold=0.14012247106919593 0.069071909868374304 -0.3251627478699432 -0.93960141217393456 0.86733078767208771 0.98997550575020032 -1.8925883954927429
decision_type=2 2 2 2 2 2 2
left_child=1 3 6 -1 -3 -4 -2
right_child=2 4 5 -5 -6 -7 -8
leaf_value=0.00098347709729577557 0 0.001170603888549656 0.0012122794392659356 0.00013746448875462625 0 0.00027825825919203419 0.0017765813907283756
leaf_weight=119.33828300237656 7.7313349395990363 330.58003894984722 391.05466216802597 389.67007058858871 48.136440023779869 99.544606521725655 396.79264234006405
leaf_count=392 25 1047 1162 1513 189 365 954
internal_value=0 0.000669098 0.00138862 0.000365756 0.00103687 0.00105034 0.00175237
internal_weight=0 887.725 895.123 509.008 378.716 490.599 404.524
internal_count=5647 3141 2506 1905 1236 1527 979
is_linear=0
shrinkage=0.00112182


Tree=21
num_leaves=8
num_cat=0
split_feature=56 43 30 16 29 19 30
split_gain=117.263 63.6794 61.3868 49.8998 25.9688 18.6063 6.32531
threshold=-0.49893174325007822 -0.87170768266554943 1.0000000180025095e-35 1.0151793940430702 0.86733078767208771 1.3625738875628215 0.78734403380141871
decision_type=2 2 2 2 2 2 2
left_child=3 5 -3 4 -1 -2 -5
right_child=1 2 -4 6 -6 -7 -8
leaf_value=0.0018492867823374738 0 0.0013142072868243372 0.00050474653612162196 -0.000117114912976841 0.00066960893226787849 0.00098457678230682785 0.00078222687091027815
leaf_weight=511.12558680772781 231.57708519697189 512.31651078164577 426.74653638899326 35.589683160185814 92.267460212111473 36.881305262446404 14.286793023347853
leaf_count=1285 872 1454 1465 139 282 112 38
internal_value=0 0.000790792 0.000966229 0.00158696 0.00169952 0.000118903 0
internal_weight=0 1207.52 939.063 653.27 603.393 268.458 49.8765
internal_count=5647 3903 2919 1744 1567 984 177
is_linear=0
shrinkage=0.00141293


Tree=22
num_leaves=8
num_cat=0
split_feature=16 3 6 28 31 44 8
split_gain=109.914 60.039 39.4334 31.1345 24.166 23.9489 15.2359
threshold=-0.70601371449989025 0.33465762813097399 0.18802757712309506 0.73236228644558599 -0.13101294812380115 -1.9688595926242074 -0.46413805747616682
decision_type=2 2 2 2 2 2 2
left_child=4 2 -2 -3 5 -1 -6
right_child=1 3 -4 -5 6 -7 -8
leaf_value=0 0.00022785282704879429 0.0015419400974277487 0.00098390310404578929 0.00042042213284354481 8.7362313880118479e-05 0.0021947065208769538 0.0014053782579989689
leaf_weight=3.8495502769947043 462.80123434960842 408.89132006466389 347.96148671209812 125.15717379748821 56.047803312540054 313.89517989754677 155.03855247795582
leaf_count=17 1651 1150 1080 412 198 715 424
internal_value=0 0.000884738 0.000575693 0.00131469 0.00178456 0.00213989 0.00113791
internal_weight=0 1344.81 810.763 534.048 528.831 317.745 211.086
internal_count=5647 4293 2731 1562 1354 732 622
is_linear=0
shrinkage=0.00155956


Tree=23
num_leaves=8
num_cat=0
split_feature=21 62 8 15 3 15 30
split_gain=113.357 56.7701 42.74 37.5458 35.1001 33.8234 10.4758
threshold=0.14012247106919593 -0.7399364574324564 1.0000000180025095e-35 -0.44683348633982539 0.14205192106996559 -0.048240337833775973 -1.6427564922222342
decision_type=2 2 2 2 2 2 2
left_child=1 5 -3 6 -5 -1 -2
right_child=3 2 -4 4 -6 -7 -8
leaf_value=0.00042846680151043269 0 0.00043901178163713496 0.0012446915900043911 0.00056670667985081555 0.0014584910660268824 -0.00078894918425793188 0.0018957661724397397
leaf_weight=117.53736938536167 9.9264792650938016 398.07188482582569 340.6079166829586 254.74111324548721 315.81043396890163 76.659033700823784 372.01945406198502
leaf_count=416 31 1377 1007 801 828 341 846
internal_value=0 0.000650567 0.00083658 0.00142397 0.00109487 0 0.00185551
internal_weight=0 932.876 738.68 952.497 570.552 194.196 381.946
internal_count=5647 3141 2384 2506 1629 757 877
is_linear=0
shrinkage=0.00147585


Tree=24
num_leaves=8
num_cat=0
split_feature=56 43 62 16 27 18 60
split_gain=103.776 58.7985 59.0449 44.2116 24.7392 16.7456 3.32117
threshold=-0.49893174325007822 -0.87170768266554943 -0.80988232068209876 1.0151793940430702 0.91483715128981058 1.1413863388567049 -0.19165556342957155
decision_type=2 2 2 2 2 2 2
left_child=3 5 -3 4 -1 -2 -5
right_child=1 2 -4 6 -6 -7 -8
leaf_value=0.0014831152991077346 -2.9167791357621746e-05 6.3109856503926128e-05 0.00091907994251791479 0.00041856145885998827 0.00046878091838801973 0.00077022407494986502 -0.00011658897081266771
leaf_weight=529.2482924759388 232.83312548696995 188.38403810560703 767.8716347515583 21.337233781814575 87.794966802000999 39.495463445782661 29.135447531938553
leaf_count=1302 865 679 2240 63 265 119 114
internal_value=0 0.000618297 0.00076463 0.00127238 0.00136402 5.50048e-05 0
internal_weight=0 1228.58 956.256 667.516 617.043 272.329 50.4727
internal_count=5647 3903 2919 1744 1567 984 177
is_linear=0
shrinkage=0.00124641


Tree=25
num_leaves=8
num_cat=0
split_feature=24 8 61 16 16 27 13
split_gain=100.561 88.1653 44.355 27.2083 26.4839 14.8611 6.43826
threshold=-1.0841111684642486 0.19382541935605638 -0.86373032528678262 0.69392099145390962 -0.24283651864088041 -1.7184174219287331 -0.33397100960457499
decision_type=2 2 2 2 2 2 2
left_child=3 2 -2 5 -3 -1 -5
right_child=1 4 -4 6 -6 -7 -8
leaf_value=0 -0.00018787419594785539 0.0020336607237885751 0.00084486068682052939 -0.00030264411582974128 0.0010695020691014034 0.0027339146396300898 0.00085435116984521639
leaf_weight=11.708690851926802 181.42496713995934 389.1824855953455 641.89569339156151 8.0545485168695432 380.3185298293829 265.10230408608913 28.967741221189499
leaf_count=37 673 962 2074 37 1169 611 84
internal_value=0 0.00109287 0.000593644 0.00241062 0.00159354 0.00263716 0.00012945
internal_weight=0 1592.82 823.321 313.833 769.501 276.811 37.0223
internal_count=5647 4878 2747 769 2131 648 121
is_linear=0
shrinkage=0.0019953


Tree=26
num_leaves=8
num_cat=0
split_feature=56 18 8 16 23 1 31
split_gain=94.2164 54.6096 68.2294 39.7635 22.1099 12.6924 3.12332
threshold=-0.49893174325007822 0.71556195518893806 -0.43697044585345118 1.0151793940430702 -0.53971286606292657 -1.8925883954927429 0.89646874213517902
decision_type=2 2 2 2 2 2 2
left_child=3 2 -2 4 -1 -3 -5
right_child=1 5 -4 6 -6 -7 -8
leaf_value=0.00072571816929520099 -0.00013829778074878307 0 0.00081251290890872773 -0.00011850301548177698 0.0018781295009864109 0.0013531787156881728 0.00060980991097755349
leaf_weight=116.56132426857948 273.27583873271942 4.1684462130069724 590.9670046120882 34.653922408819199 508.7109999358654 372.15343560278416 16.054983094334602
leaf_count=358 1007 19 1807 132 1209 1070 45
internal_value=0 0.000759801 0.000493985 0.00158339 0.00169745 0.00131151 0
internal_weight=0 1240.56 864.243 675.981 625.272 376.322 50.7089
internal_count=5647 3903 2814 1744 1567 1089 177
is_linear=0
shrinkage=0.00165482


Tree=27
num_leaves=8
num_cat=0
split_feature=16 24 3 31 65 6 23
split_gain=132.045 65.4817 55.2616 40.4247 32.2978 32.1278 16.9475
threshold=-0.70601371449989025 -1.0841111684642486 0.70948335382149519 -0.13101294812380115 0.39780664670888188 0.53943822394072216 0.70969307525232961
decision_type=2 2 2 2 2 2 2
left_child=3 4 -3 5 -2 -1 -5
right_child=1 2 -4 6 -6 -7 -8
leaf_value=0 -0.00042325691290030521 -0.0010081992978972804 -0.00030478482747622117 -0.00062874830026182034 0.00062834876139784704 0.00079496356846096156 0
leaf_weight=178.39339323341846 132.10494332015514 950.21505011618137 324.50561057031155 157.70556101202965 73.909222558140755 137.93956425786018 67.933095484972
leaf_count=451 369 2898 873 458 153 281 164
internal_value=0 -0.000730384 -0.000841394 5.22759e-06 0 0.000329507 -0.00038989
internal_weight=0 1480.73 1274.72 541.972 206.014 316.333 225.639
internal_count=5647 4293 3771 1354 522 732 622
is_linear=0
shrinkage=0.00131635


Tree=28
num_leaves=8
num_cat=0
split_feature=21 64 62 25 25 49 30
split_gain=109.081 65.9148 48.8134 33.8001 30.287 30.3464 15.5043
threshold=0.33316135122043183 -0.52224814400049724 -0.80988232068209876 -0.62269332660692711 0.27451431836665235 -0.047837957654930832 -1.9275923758492384
decision_type=2 2 2 2 2 2 2
left_child=1 3 -3 -1 6 -6 -2
right_child=4 2 -4 -5 5 -7 -8
leaf_value=0.0015802306181474802 0 -0.00065192191668307945 0.00026950413388125634 0.00041625630627453486 0 0.0010095304908540742 0.0013273212350287775
leaf_weight=116.49623873829842 8.6354942172765714 145.71654431521893 686.04195575416088 205.76794598996639 142.08475263416767 155.7654722481966 544.08790755271912
leaf_count=259 31 564 2134 605 424 384 1246
internal_value=0 0.000330483 8.72479e-05 0.00090133 0.00106111 0.000565793 0.00129345
internal_weight=0 1154.02 831.759 322.264 850.574 297.85 552.723
internal_count=5647 3562 2698 864 2085 808 1277
is_linear=0
shrinkage=0.00148806


Tree=29
num_leaves=8
num_cat=0
split_feature=21 24 29 15 3 30 56
split_gain=102.004 68.5686 56.5403 28.3203 30.235 23.5132 14.0707
threshold=0.33316135122043183 -1.0841111684642486 -0.17056506712937938 -0.19362172615585979 0.14205192106996559 0.28008386185980622 0.23606459109504915
decision_type=2 2 2 2 2 2 2
left_child=1 5 -3 6 -5 -1 -2
right_child=3 2 -4 4 -6 -7 -8
leaf_value=0.0014538428651399223 0.0015786731459486493 0.00054448554165497916 -0.00018430630958386963 0.00011926800515907774 0.0010420182053337257 3.7586020181999432e-05 0.00058086094511412899
leaf_weight=145.98661406338215 316.35094112157822 432.65393432974815 515.5645317286253 186.20865677297115 243.24395175278187 61.164839714765549 106.99638409912586
leaf_count=332 658 1275 1760 553 598 195 276
internal_value=0 0.000327564 0.000133614 0.00104929 0.000683098 0.00111829 0.00137223
internal_weight=0 1155.37 948.218 852.8 429.453 207.151 423.347
internal_count=5647 3562 3035 2085 1151 527 934
is_linear=0
shrinkage=0.00151953


Tree=30
num_leaves=8
num_cat=0
split_feature=21 64 29 6 64 12 4
split_gain=117.568 50.1865 45.9352 37.8136 28.6537 20.472 16.9807
threshold=0.14012247106919593 0.036977418932098112 -0.21387941306908384 0.18802757712309506 0.93751868105904335 -0.24202473624505474 -0.95170353312616796
decision_type=2 2 2 2 2 2 2
left_child=2 6 4 -4 -1 -3 -2
right_child=1 5 3 -5 -6 -7 -8
leaf_value=0.00091381594794607028 0.0020316335828070228 0.0010876820854889349 -0.00017605547508341176 0.00057568912788561973 0 0.00034355905545280777 0.0011438022736005218
leaf_weight=336.34836973249912 139.68464447557926 179.37477359175682 350.92201669514179 198.09115816652775 97.794952258467674 275.43717855215073 393.76539218425751
leaf_count=955 268 451 1253 601 332 820 967
internal_value=0 0.00109796 0.000375399 7.28522e-05 0.000720441 0.000676904 0.00142046
internal_weight=0 988.262 983.156 549.013 434.143 454.812 533.45
internal_count=5647 2506 3141 1854 1287 1271 1235
is_linear=0
shrinkage=0.00141353


Tree=31
num_leaves=8
num_cat=0
split_feature=21 3 30 43 12 27 30
split_gain=98.5001 50.1201 49.0541 40.4906 23.0297 21.9418 19.2366
threshold=0.14012247106919593 0.70948335382149519 -0.11958179904978292 -0.26917062359452154 -0.24202473624505474 0.84470155401028657 1.0000000180025095e-35
decision_type=2 2 2 2 2 2 2
left_child=1 2 -1 4 -2 -3 -5
right_child=3 5 -4 6 -6 -7 -8
leaf_value=0.00050929711674119508 0.00098995720395754364 0.0011055224551626175 -0.00024116749756583473 0.0014410367111842358 0.0001532259756913142 0 0.0005997433453327482
leaf_weight=339.2909117937088 154.72291499376297 189.57632681727409 428.10188391804695 439.655582934618 243.67138735949993 44.841894760727882 167.00417670607567
leaf_count=990 381 495 1507 962 723 149 440
internal_value=0 0.000281817 7.25981e-05 0.000976004 0.000524041 0.000887414 0.00124117
internal_weight=0 1001.81 767.393 1005.05 398.394 234.418 606.66
internal_count=5647 3141 2497 2506 1104 644 1402
is_linear=0
shrinkage=0.00150126


Tree=32
num_leaves=8
num_cat=0
split_feature=16 40 57 3 8 27 28
split_gain=97.7303 51.1461 37.8572 34.3153 42.4777 23.8795 12.0143
threshold=-0.3251627478699432 1.0000000180025095e-35 -0.93960141217393456 0.70948335382149519 -0.63345690431168111 0.71803583214960176 1.7864943304573317
decision_type=2 2 2 2 2 2 2
left_child=3 2 -2 4 -1 -3 -5
right_child=1 5 -4 6 -6 -7 -8
leaf_value=0 0.00089591073445643087 0.00096948157478794804 -0.00021826216140468946 0.0019641027938696273 0.0011660278022346874 0 0
leaf_weight=121.30772675573826 121.89647617936134 445.52110765874386 478.33701486885548 233.11624719202518 477.90783523023129 126.86624872684479 5.1007062643766394
leaf_count=387 336 1224 1593 494 1197 399 17
internal_value=0 0.00038612 0 0.00123406 0.000924351 0.000772532 0.001901
internal_weight=0 1172.62 600.233 837.433 599.216 572.387 238.217
internal_count=5647 3552 1929 2095 1584 1623 511
is_linear=0
shrinkage=0.0018189


Tree=33
num_leaves=8
num_cat=0
split_feature=15 35 24 19 24 28 54
split_gain=92.9661 65.5656 42.5798 25.3391 22.0828 19.31 9.59766
threshold=-0.73273264908908564 1.104935547350004 -0.71819716094474717 -0.40409977550860759 -0.17910183194868254 1.1132962522203926 2.0872301751558768
decision_type=2 2 2 2 2 2 2
left_child=3 2 -2 6 -5 -3 -1
right_child=1 5 -4 4 -6 -7 -8
leaf_value=0.0016941267716103941 0.00077889357038481426 0.0013580512301143957 6.482956750799974e-05 0.0011977631627508208 0.00013963707744523492 0 0
leaf_weight=251.40245884656906 296.55635370314121 207.08697402477264 950.26674261689186 146.62652304768562 136.59459027647972 21.600082695484161 3.3895103335380545
leaf_count=527 805 492 2973 365 404 69 12
internal_value=0 0.000413335 0.000249995 0.00122246 0.000754697 0.00120958 0.00165478
internal_weight=0 1475.51 1246.82 538.013 283.221 228.687 254.792
internal_count=5647 4339 3778 1308 769 561 539
is_linear=0
shrinkage=0.00159969


Tree=34
num_leaves=8
num_cat=0
split_feature=21 8 16 18 65 65 28
split_gain=145.31 56.8669 54.1241 40.6169 36.1315 28.2362 13.2611
threshold=0.14012247106919593 0.069071909868374304 -0.70601371449989025 0.90902428775276245 -0.85389249303111026 -1.2946522702671215 1.7864943304573317
decision_type=2 2 2 2 2 2 2
left_child=1 3 6 -1 -4 -3 -2
right_child=2 5 4 -5 -6 -7 -8
leaf_value=-4.1368711794442358e-05 0.0010516191600583383 0 0.00013682180445074953 0.00044337249056300237 0.00065485404954584102 0.0005607095962675753 0
leaf_weight=419.30997887253761 292.73407649993896 59.446295380592346 157.12236997485161 135.14120721817017 513.06232494115829 356.12598843872547 6.1583722084760657
leaf_count=1496 623 210 503 409 1360 1026 20
internal_value=0 0.000251591 0.00070839 6.5764e-05 0.000547224 0.000476624 0.00102747
internal_weight=0 970.023 969.077 554.451 670.185 415.572 298.892
internal_count=5647 3141 2506 1905 1863 1236 643
is_linear=0
shrinkage=0.000799142


Tree=35
num_leaves=8
num_cat=0
split_feature=21 24 16 35 31 25 19
split_gain=161.52 92.0511 66.9191 65.6544 30.6873 28.1823 18.8315
threshold=0.33316135122043183 -1.0841111684642486 -0.3251627478699432 1.104935547350004 -0.30456491325549034 0.092422544371504226 -1.229249516953663
decision_type=2 2 2 2 2 2 2
left_child=1 4 5 -3 -1 -2 -4
right_child=2 3 6 -5 -6 -7 -8
leaf_value=0.00060103437956903773 0.00070197444173129581 -0.00092186362352234008 0.00023505343882998032 0 -0.00029926939124326669 0 -0.00035792893502769029
leaf_weight=92.522312209010124 231.97924241423607 863.54660673439503 70.597102284431458 147.73867745697498 119.73401074111462 136.67264924943447 401.72168099880219
leaf_count=194 482 2656 161 379 333 342 1100
internal_value=0 -0.000638756 4.62461e-05 -0.00079317 4.24084e-05 0.000446435 -0.00024213
internal_weight=0 1223.54 840.971 1011.29 212.256 368.652 472.319
internal_count=5647 3562 2085 3035 527 824 1261
is_linear=0
shrinkage=0.00122704


Tree=36
num_leaves=8
num_cat=0
split_feature=21 64 8 57 42 4 17
split_gain=99.8154 45.5278 45.2262 37.1687 25.6995 20.5857 16.34
threshold=0.14012247106919593 0.036977418932098112 0.069071909868374304 -0.93960141217393456 0.36264444876111784 -0.95170353312616796 -0.24914571174544506
decision_type=2 2 2 2 2 2 2
left_child=2 5 3 -1 -4 -2 -3
right_child=1 6 4 -5 -6 -7 -8
leaf_value=0.00068973111742665397 0.0022511013913310723 0.00096676203637918008 0.00097558476970847745 -0.00039409338427872796 0 0.0011226700506386342 0.00014659564713571932
leaf_weight=137.49820384383202 142.58335141837597 213.88615058362484 301.9855493158102 443.87728644907475 135.76351645588875 403.30643208324909 253.60540978610516
leaf_count=392 268 535 806 1513 430 967 736
internal_value=0 0.00107787 0.000215093 -0.000101903 0.000674355 0.00147058 0.000568149
internal_weight=0 1013.38 1019.12 581.375 437.749 545.89 467.492
internal_count=5647 2506 3141 1905 1236 1235 1271
is_linear=0
shrinkage=0.00188225


Tree=37
num_leaves=8
num_cat=0
split_feature=21 24 29 24 3 15 41
split_gain=94.598 66.025 51.6343 28.4803 25.8471 23.7291 14.7083
threshold=0.33316135122043183 -1.0841111684642486 -0.17056506712937938 -0.277311236087593 0.14205192106996559 0.2830772109192044 -1.3607001952387636
decision_type=2 2 2 2 2 2 2
left_child=1 5 -3 6 -5 -1 -2
right_child=3 2 -4 4 -6 -7 -8
leaf_value=0.0013575734307969473 0 0.00045768685454011435 -0.00029729466871793994 0.00020126505254195162 0.0010299417559190734 0 0.0015378307850199072
leaf_weight=159.86778688430786 38.375383779406548 439.8441304564476 523.87090650200844 257.50498189032078 273.69414073228836 50.20357184112072 290.85617433488369
leaf_count=374 102 1275 1760 716 650 153 617
internal_value=0 0.000232525 3.10993e-05 0.000974007 0.000664705 0.00105688 0.00140546
internal_weight=0 1173.79 963.715 860.431 531.199 210.071 329.232
internal_count=5647 3562 3035 2085 1366 527 719
is_linear=0
shrinkage=0.00164144


Tree=38
num_leaves=8
num_cat=0
split_feature=16 3 30 35 8 3 24
split_gain=94.2494 52.6067 47.9824 33.6338 23.5878 19.3293 15.729
threshold=-0.70601371449989025 0.33465762813097399 -0.19666098049248554 0.73823311478629849 -0.46413805747616682 0.70948335382149519 -0.78162594534045893
decision_type=2 2 2 2 2 2 2
left_child=4 2 -2 -3 5 -1 -6
right_child=1 3 -4 -5 6 -7 -8
leaf_value=0 0.0004800714817155901 0.00038135400610857581 -0.00027394063348147135 0.0013631869958190838 0.0019330895219755607 0.0012548099228759889 0.00095109230514049659
leaf_weight=93.293044313788414 378.49022215604782 428.80854813754559 508.39390322566032 153.42168073356152 129.33398929238319 33.987633392214775 310.05071951448917
leaf_count=291 1054 1213 1677 349 240 72 751
internal_value=0 0.000299618 3.07621e-05 0.000677683 0.00110362 0.000290889 0.00129642
internal_weight=0 1469.11 886.884 582.23 566.665 127.281 439.385
internal_count=5647 4293 2731 1562 1354 363 991
is_linear=0
shrinkage=0.00162175


Tree=39
num_leaves=8
num_cat=0
split_feature=21 24 29 16 64 30 28
split_gain=155.262 64.2973 68.5786 56.4774 35.4556 26.0704 18.2785
threshold=0.14012247106919593 -1.0841111684642486 -0.21387941306908384 -0.3251627478699432 0.98997550575020032 0.18354253867267209 1.7864943304573317
decision_type=2 2 2 2 2 2 2
left_child=1 5 -3 6 -5 -1 -2
right_child=3 2 -4 4 -6 -7 -8
leaf_value=0.0009892255051119985 0.0010663878334997311 0.00041161883358308015 -0.00011639807650619979 0.00064066397665962468 0 5.5798166458372798e-05 0
leaf_weight=117.54780992865562 428.95514379441738 353.96618524193764 455.87766420841217 430.03234589099884 110.04973314702511 60.879491850733757 10.415921062231062
leaf_count=279 945 1068 1597 1162 365 197 34
internal_value=0 0.000230195 0.000104366 0.000766791 0.000521948 0.000731573 0.00103713
internal_weight=0 988.271 809.844 979.453 540.082 178.427 439.371
internal_count=5647 3141 2665 2506 1527 476 979
is_linear=0
shrinkage=0.000921723


Tree=40
num_leaves=8
num_cat=0
split_feature=16 39 64 3 23 6 65
split_gain=151.913 70.2717 55.8305 42.7234 42.5453 33.5925 18.5765
threshold=-0.3251627478699432 0.35592679093318186 -1.0293722453735079 0.70948335382149519 -0.53971286606292657 0.8995125744131296 1.3863926372977777
decision_type=2 2 2 2 2 2 2
left_child=1 5 6 -4 -3 -1 -2
right_child=2 4 3 -5 -6 -7 -8
leaf_value=-0.00026580731974281649 0.00023070404107107946 -0.00019468996053311125 -0.00055716536732980273 -0.00012675631206912226 0.00045983056254512289 0.00023784574858251237 -0.00028949550362050594
leaf_weight=364.22570343315601 117.04373301565647 62.574436128139496 780.02653247117996 268.77588830888271 320.15396463871002 98.808675542473793 68.040811523795128
leaf_count=1016 268 177 2367 720 679 223 197
internal_value=0 6.43888e-05 -0.000382149 -0.000455866 0.000330462 -0.000139311 0
internal_weight=0 845.763 1233.89 1048.8 382.728 463.034 185.085
internal_count=5647 2095 3552 3087 856 1239 465
is_linear=0
shrinkage=0.00082606


Tree=41
num_leaves=8
num_cat=0
split_feature=21 24 65 28 24 30 0
split_gain=95.7193 48.1485 45.3797 42.9918 34.7229 20.964 20.286
threshold=0.14012247106919593 -1.0841111684642486 -0.85389249303111026 -0.29730323033404815 -0.71819716094474717 0.18354253867267209 1.3859719138223217
decision_type=2 2 2 2 2 2 2
left_child=1 5 6 -3 -4 -1 -2
right_child=2 3 4 -5 -6 -7 -8
leaf_value=0.0012227827520331341 -6.1308032625576723e-05 0.0003923591337285978 0.0016748959302439605 -0.00033809170086235795 0.00076093942026547734 0 0.0011853092158340089
leaf_weight=123.12223257124424 177.00508147478104 337.6186041533947 194.60730262100697 502.9630791246891 613.56872354447842 63.40821997821331 32.165229544043541
leaf_count=279 536 983 381 1682 1521 197 68
internal_value=0 0.000121741 0.000836305 -2.52656e-05 0.00101029 0.000849063 8.13995e-05
internal_weight=0 1027.11 1017.35 840.582 808.176 186.53 209.17
internal_count=5647 3141 2506 2665 1902 476 604
is_linear=0
shrinkage=0.00160236


Tree=42
num_leaves=8
num_cat=0
split_feature=21 30 16 62 65 25 25
split_gain=143.203 63.4516 59.1529 42.653 40.2874 34.846 20.9406
threshold=0.14012247106919593 -0.1524547772277596 -0.3251627478699432 -0.48756903360304299 -0.70194716024018311 1.0000000180025095e-35 0.45860500756630035
decision_type=2 2 2 2 2 2 2
left_child=1 5 6 -3 -4 -1 -2
right_child=2 3 4 -5 -6 -7 -8
leaf_value=0.00072243756306222275 0.0011697567389904033 -0.00038528229879647983 1.960439849730908e-06 0.00017196823163620595 0.00064493390094108735 0.00010364288338364225 0.00046416011429013207
leaf_weight=243.37469670176506 329.77618983387947 180.16971278190613 154.05476529896259 384.34276494383812 393.21646831929684 189.98354947566986 113.38070566952229
leaf_count=640 683 681 494 1215 1033 605 296
internal_value=0 0.000204349 0.000736233 0 0.000482933 0.000477459 0.00101822
internal_weight=0 997.871 990.428 564.512 547.271 433.358 443.157
internal_count=5647 3141 2506 1896 1527 1245 979
is_linear=0
shrinkage=0.000957174


Tree=43
num_leaves=8
num_cat=0
split_feature=16 21 21 18 56 6 52
split_gain=93.4133 49.7347 41.5416 40.5943 24.9642 16.8359 15.6911
threshold=-0.3251627478699432 -0.34019262422979774 0.33316135122043183 0.90902428775276245 -0.49893174325007822 -0.095954441282677577 -0.61146012385251325
decision_type=2 2 2 2 2 2 2
left_child=1 5 3 -2 -3 -1 -4
right_child=2 4 6 -5 -6 -7 -8
leaf_value=-8.2335941925135522e-05 -0.00035136485631206916 0.001945018648262471 0 0.0007075154464550198 0.00089506284606603002 0.00082640721093168459 0.00086090133625418928
leaf_weight=135.20277915894985 533.74785567820072 283.8016120493412 92.550956323742867 185.74533630907536 308.32550120353699 120.24118931591511 383.27323372662067
leaf_count=431 1772 573 271 519 772 319 990
internal_value=0 0.00112007 0.000229528 -4.75042e-05 0.00144446 0.000278011 0.000685278
internal_weight=0 847.571 1195.32 719.493 592.127 255.444 475.824
internal_count=5647 2095 3552 2291 1345 750 1261
is_linear=0
shrinkage=0.0019892


Tree=44
num_leaves=8
num_cat=0
split_feature=15 35 21 39 28 6 16
split_gain=89.5365 62.0126 47.7617 26.7998 17.5249 14.8804 9.71132
threshold=-0.73273264908908564 1.104935547350004 0.33316135122043183 0.35592679093318186 1.1132962522203926 -0.047235773993882908 0.18116993226284131
decision_type=2 2 2 2 2 2 2
left_child=3 2 -2 5 -3 -1 -5
right_child=1 4 -4 6 -6 -7 -8
leaf_value=0 -0.00012271366873689121 0.0010958057697359907 0.0004656686624051221 0.0014465848790421831 0 0.00082469313579395143 0
leaf_weight=110.19767484068871 768.75210970640182 210.11373215913773 498.97737100720406 241.29074610769749 21.944162800908089 184.94257706403732 7.5665710866451255
leaf_count=329 2468 492 1310 497 69 459 23
internal_value=0 0.000244412 9.81018e-05 0.00098097 0.000960085 0.000563922 0.00139404
internal_weight=0 1499.79 1267.73 543.998 232.058 295.14 248.857
internal_count=5647 4339 3778 1308 561 788 520
is_linear=0
shrinkage=0.00150919


Tree=45
num_leaves=8
num_cat=0
split_feature=16 56 24 57 65 8 8
split_gain=139.382 73.8534 57.8785 52.5599 35.6563 32.583 24.9301
threshold=-0.3251627478699432 -0.49893174325007822 -1.0841111684642486 -0.93960141217393456 0.39780664670888188 1.099252827635578 -0.43697044585345118
decision_type=2 2 2 2 2 2 2
left_child=1 6 4 -4 -2 -3 -1
right_child=2 5 3 -5 -6 -7 -8
leaf_value=-1.6584813161884691e-06 -0.00023464227381438037 -0.00030458057386187576 -5.0709981115574165e-05 -0.00059998428895269621 0.00059208129524901138 0.00024813042307465387 0.00046580660687350894
leaf_weight=78.662459269165993 103.90464533865452 387.64710077643394 209.61399327218533 859.66151168942451 58.55562786757946 86.38501800596714 287.46652847528458
leaf_count=206 291 1082 550 2598 113 194 613
internal_value=0 3.6062e-05 -0.00042563 -0.000501352 2.00828e-05 -0.000183711 0.000342974
internal_weight=0 840.161 1231.74 1069.28 162.46 474.032 366.129
internal_count=5647 2095 3552 3148 404 1276 819
is_linear=0
shrinkage=0.000892202


Tree=46
num_leaves=8
num_cat=0
split_feature=16 3 64 21 23 56 63
split_gain=89.4693 52.3508 43.3073 35.934 18.7769 14.5793 14.3045
threshold=-0.70601371449989025 0.70948335382149519 -1.0293722453735079 -0.34019262422979774 -0.53971286606292657 0.23606459109504915 0.30651408975876121
decision_type=2 2 2 2 2 2 2
left_child=3 2 -2 6 -3 -5 -1
right_child=1 4 -4 5 -6 -7 -8
leaf_value=0.00052985899024726745 0.00062031287398646938 0 -0.00010216753272317319 0.0011844142380930825 0.00073862357217599939 0.00030914170211068131 -0.00014418918097629252
leaf_weight=97.650312796235085 167.94410310685635 93.446186766028404 927.55534511804581 307.53795649111271 295.19908359646797 93.200330123305321 71.331311911344528
leaf_count=251 425 278 2865 633 725 238 232
internal_value=0 0.000160662 0 0.000796172 0.000576266 0.00102019 0.000174057
internal_weight=0 1484.14 1095.5 569.72 388.645 400.738 168.982
internal_count=5647 4293 3290 1354 1003 871 483
is_linear=0
shrinkage=0.00132866


Tree=47
num_leaves=8
num_cat=0
split_feature=21 24 35 15 3 64 64
split_gain=147.998 78.9286 58.2791 48.6411 31.203 29.1618 17.7139
threshold=0.33316135122043183 -1.0841111684642486 1.104935547350004 -0.55546185799288594 0.33465762813097399 -0.40798672678439174 0.68772863955204433
decision_type=2 2 2 2 2 2 2
left_child=1 5 -3 6 -5 -1 -2
right_child=3 2 -4 4 -6 -7 -8
leaf_value=0.00054515277832198686 0.00050244398380641772 -0.00076725810482164143 0 -0.00040028641648972609 6.9684777107981093e-05 -0.00024210440918324399 0
leaf_weight=72.135989367961884 222.27589532732964 864.45576821267605 147.23411832749844 285.78579676151276 254.41889937222004 138.34946841001511 72.862909629940987
leaf_count=147 475 2656 379 803 620 380 187
internal_value=0 -0.00054451 -0.000664542 1.06071e-05 -0.000161548 0 0.000357257
internal_weight=0 1222.18 1011.69 835.344 540.205 210.485 295.139
internal_count=5647 3562 3035 2085 1423 527 662
is_linear=0
shrinkage=0.00103899


Tree=48
num_leaves=8
num_cat=0
split_feature=16 56 57 8 23 8 3
split_gain=141.041 79.3041 54.9989 56.2289 44.039 31.6036 9.78173
threshold=-0.3251627478699432 -0.49893174325007822 -0.93960141217393456 0.069071909868374304 -0.53971286606292657 1.099252827635578 0.70948335382149519
decision_type=2 2 2 2 2 2 2
left_child=1 4 6 -4 -1 -3 -2
right_child=2 5 3 -5 -6 -7 -8
leaf_value=-0.00019817603948364519 -0.00014224233414387454 -0.00028916964760717002 -0.00071360937266392492 -0.00023892448588256344 0.00052839838857674903 0.00026174622411230796 0.00023107156575552558
leaf_weight=62.927043154835701 176.21989046037197 388.75318995118141 523.84604813158512 460.59313677251339 305.87067377567291 86.586359679698944 74.321134433150291
leaf_count=177 479 1082 1637 1267 642 194 169
internal_value=0 6.13268e-05 -0.000407441 -0.00050308 0.000379453 -0.000168394 0
internal_weight=0 844.137 1234.98 984.439 368.798 475.34 250.541
internal_count=5647 2095 3552 2904 819 1276 648
is_linear=0
shrinkage=0.000900592


Tree=49
num_leaves=8
num_cat=0
split_feature=30 62 43 8 24 7 9
split_gain=128.623 106.736 82.6663 54.9014 42.4585 29.1565 24.0446
threshold=-0.068688125098240349 -0.7399364574324564 -0.61414974630662955 -0.21690728158469499 -0.59427254497639925 0.24725278406534537 -1.4243165921750591
decision_type=2 2 2 2 2 2 2
left_child=2 5 6 -3 -4 -2 -1
right_child=1 3 4 -5 -6 -7 -8
leaf_value=0.00061668961320452494 -0.00057107294831571485 0 0.00094911316380083056 0.00042187866258470253 0.00048723331322074931 0 -3.9742905868493383e-05
leaf_weight=34.120318546891212 134.21910032629967 305.26317027211189 260.98191201686859 492.20526964962482 556.732570707798 64.216563284397125 170.51083299517632
leaf_count=76 511 967 555 1332 1460 199 547
internal_value=0 0.000126504 0.000537054 0.00026075 0.000649427 -0.000367259 4.56389e-05
internal_weight=0 995.904 1022.35 797.468 817.714 198.436 204.631
internal_count=5647 3009 2638 2299 2015 710 623
is_linear=0
shrinkage=0.000786724


Tree=50
num_leaves=8
num_cat=0
split_feature=21 64 62 25 16 10 3
split_gain=97.2436 58.9555 47.0651 34.9498 32.8269 21.3676 20.3362
threshold=0.33316135122043183 -0.52224814400049724 -0.80988232068209876 -0.62269332660692711 -0.3251627478699432 -0.091846730086279943 0.14205192106996559
decision_type=2 2 2 2 2 2 2
left_child=1 3 -3 -1 5 -2 -6
right_child=4 2 -4 -5 6 -7 -8
leaf_value=0.0013752974828813806 0.0013957583861365116 -0.0010567672081074563 0 0.00011581644392207163 0 0.00011063598051030774 0.00074972655769581123
leaf_weight=119.73918536305428 306.40555110573769 154.65397596359253 715.40627667307854 213.565284460783 229.64404983818531 79.238065913319588 251.29867325723171
leaf_count=259 625 564 2134 605 648 199 613
internal_value=0 1.03186e-05 -0.000211352 0.000633576 0.000780833 0.00118065 0.000415472
internal_weight=0 1203.36 870.06 333.304 866.586 385.644 480.943
internal_count=5647 3562 2698 864 2085 824 1261
is_linear=0
shrinkage=0.00172266


Tree=51
num_leaves=8
num_cat=0
split_feature=56 18 6 16 25 23 3
split_gain=92.1678 51.2907 45.5532 41.4761 30.47 28.8391 24.7858
threshold=-0.49893174325007822 0.71556195518893806 0.18802757712309506 -0.24283651864088041 0.27451431836665235 -0.53971286606292657 0.54048621959115162
decision_type=2 2 2 2 2 2 2
left_child=3 2 -2 5 -3 -1 -5
right_child=1 4 -4 6 -6 -7 -8
leaf_value=0 -0.00046520711492050083 0.00079960693573428196 0.00021168101345209471 -4.3102746628037443e-06 -2.0967362489433544e-05 0.0013015973671652715 0.00082406688612320816
leaf_weight=67.563461199402809 512.14040718972683 287.15209674835205 429.73515121638775 200.5582654774189 123.78338664770126 330.33356903493404 117.91092471778393
leaf_count=188 1637 718 1177 591 371 685 280
internal_value=0 4.92948e-05 -0.000140435 0.000760129 0.000517851 0.00111052 0.000262821
internal_weight=0 1352.81 941.876 716.366 410.935 397.897 318.469
internal_count=5647 3903 2814 1744 1089 873 871
is_linear=0
shrinkage=0.0015738


Tree=52
num_leaves=8
num_cat=0
split_feature=16 19 30 3 24 23 8
split_gain=120.624 56.0047 47.4624 43.661 40.5508 38.1888 25.2733
threshold=-0.3251627478699432 -0.40409977550860759 -0.23917632517226906 0.33465762813097399 -0.37723795258882947 -0.53971286606292657 1.0168546404141441
decision_type=2 2 2 2 2 2 2
left_child=1 5 4 -4 -2 -1 -3
right_child=2 6 3 -5 -6 -7 -8
leaf_value=4.4045609826648735e-05 0.00067097135760209379 0.0001693526873070969 -0.00017256615509424585 0.00024749793115867974 0.00011547251132536425 0.00091478515785724983 0.00071279020366570717
leaf_weight=63.155373513698578 170.31310375034809 343.41487035155296 429.18415507674217 285.90115687251091 304.9031535834074 340.0216226875782 97.031753718852997
leaf_count=184 413 986 1430 811 898 708 217
internal_value=0 0.000560815 0.000133137 0 0.000337238 0.000801193 0.000314998
internal_weight=0 843.624 1190.3 715.085 475.216 403.177 440.447
internal_count=5647 2095 3552 2241 1311 892 1203
is_linear=0
shrinkage=0.000839739


Tree=53
num_leaves=8
num_cat=0
split_feature=24 8 62 64 19 5 30
split_gain=91.041 82.4386 52.2267 28.128 23.3421 13.1737 7.00362
threshold=-1.0841111684642486 1.099252827635578 -0.7399364574324564 -0.40798672678439174 -0.87281992096787142 0.099906553734043543 -1.334403666842592
decision_type=2 2 2 2 2 2 2
left_child=3 2 -2 6 -5 -3 -1
right_child=1 5 -4 4 -6 -7 -8
leaf_value=0 -0.00061216193304958872 0.00034861018341779247 0.00013732018178075637 0.0013844806772936675 9.7044260221379114e-05 0.0012389709358380779 0.0017545549617198378
leaf_weight=9.4466804265975934 266.21489349007607 141.62045651674271 1167.5239828377962 54.768577322363853 150.28415286540985 156.42626076936722 121.68063235282898
leaf_count=24 884 368 3295 106 419 331 220
internal_value=0 0.000150743 0 0.00103992 0.000540427 0.000880113 0.00165645
internal_weight=0 1731.79 1433.74 336.18 205.053 298.047 131.127
internal_count=5647 4878 4179 769 525 699 244
is_linear=0
shrinkage=0.00154034


Tree=54
num_leaves=8
num_cat=0
split_feature=21 64 62 25 25 35 43
split_gain=91.9569 54.6254 43.3653 31.6332 31.0314 18.4721 17.0074
threshold=0.33316135122043183 -0.52224814400049724 -0.80988232068209876 0.27451431836665235 -0.62269332660692711 0.73823311478629849 -0.054559791206205653
decision_type=2 2 2 2 2 2 2
left_child=1 4 -3 6 -1 -5 -2
right_child=3 2 -4 5 -6 -7 -8
leaf_value=0.0015578117660699294 0.00064231749158829286 -0.0012120983890888844 0 0 0.00013684392346797195 0.0010459771289461901 0.0015886443670261442
leaf_weight=119.85440368950367 255.61115057766438 153.57097925245762 715.22592164576054 218.50380490720272 213.46161931753159 86.755966365337372 304.79649789631367
leaf_count=259 641 564 2134 612 605 196 636
internal_value=0 1.06048e-05 -0.000242866 0.00090267 0.000724638 0.000273952 0.00120327
internal_weight=0 1202.11 868.797 865.667 333.316 305.26 560.408
internal_count=5647 3562 2698 2085 864 808 1277
is_linear=0
shrinkage=0.00204885


Tree=55
num_leaves=8
num_cat=0
split_feature=8 30 15 25 30 3 19
split_gain=122.1 73.9449 55.0536 43.5485 42.8791 39.5281 14.4751
threshold=0.13670677168511902 1.0000000180025095e-35 -0.67114354041877244 -0.061631636261346552 1.0319393874334055 0.5948229746005802 1.0718497615072304
decision_type=2 2 2 2 2 2 2
left_child=1 3 6 -1 -3 -4 -2
right_child=2 4 5 -5 -6 -7 -8
leaf_value=0.00060109306753646137 0.00097614192681129864 -0.00030896710709732683 0.00019406981160722414 3.0544935841825641e-05 0.00025096010014634212 0.00071453720319540788 0
leaf_weight=288.33745777606964 293.70023682713509 366.06164574623108 427.45353822410107 251.78897321224213 152.04103311896324 237.7128334492445 19.310344204306602
leaf_count=718 634 1244 1228 759 441 567 56
internal_value=0 0.000111322 0.000580305 0.000354993 -0.000126123 0.000398116 0.00092509
internal_weight=0 1058.23 978.177 540.126 518.103 665.166 313.011
internal_count=5647 3162 2485 1477 1685 1795 690
is_linear=0
shrinkage=0.000929582


Tree=56
num_leaves=8
num_cat=0
split_feature=21 65 8 15 25 43 2
split_gain=90.1688 46.2958 39.0839 30.582 28.9208 27.367 18.4172
threshold=0.14012247106919593 -0.85389249303111026 0.069071909868374304 -0.44683348633982539 -1.1947695075503957 0.99381874688677785 0.2182658280337206
decision_type=2 2 2 2 2 2 2
left_child=2 6 5 -3 -4 -1 -2
right_child=1 3 4 -5 -6 -7 -8
leaf_value=-0.00051068536726383597 -0.0003525630377399369 0.0014555868316566856 0.0014833405994942156 0.00059022687149393302 0.00012793018065156598 0.00054574932017417113 0.00084685842542161246
leaf_weight=514.53740344941616 154.65000711381435 324.47511459887028 70.417848318815231 485.68821278214455 377.04206681251526 82.515450701117516 57.014614477753639
leaf_count=1689 470 678 150 1224 1086 216 134
internal_value=0 0.000764297 -2.66622e-07 0.000967009 0.000397552 -0.000330192 0
internal_weight=0 1021.83 1044.51 810.163 447.46 597.053 211.665
internal_count=5647 2506 3141 1902 1236 1905 604
is_linear=0
shrinkage=0.00187405


Tree=57
num_leaves=8
num_cat=0
split_feature=16 56 24 57 6 65 6
split_gain=131.108 62.5268 53.9674 51.8915 34.6503 31.1548 21.7696
threshold=-0.3251627478699432 -0.49893174325007822 -1.0841111684642486 -0.93960141217393456 0.53943822394072216 0.39780664670888188 -0.14387308309038407
decision_type=2 2 2 2 2 2 2
left_child=1 6 5 -4 -3 -2 -1
right_child=2 4 3 -5 -6 -7 -8
leaf_value=0 -0.00024530088803363464 -0.00036304433857950718 -6.9829709348088079e-05 -0.00058637415771068812 7.6383997187105584e-05 0.00049251225715825028 0.00041849365210245621
leaf_weight=131.70761816203594 103.3231637775898 308.86860446631908 208.61591947078705 855.84279705584049 162.23304662108421 57.504544273018837 227.90958513319492
leaf_count=333 291 885 550 2598 391 113 486
internal_value=0 0 -0.000425739 -0.000493774 -0.000195139 0 0.000264954
internal_weight=0 830.719 1225.29 1064.46 471.102 160.828 359.617
internal_count=5647 2095 3552 3148 1276 404 819
is_linear=0
shrinkage=0.000836696


Tree=58
num_leaves=8
num_cat=0
split_feature=21 24 29 65 24 2 64
split_gain=170.662 58.4263 60.912 57.5809 37.1506 22.9966 14.3763
threshold=0.14012247106919593 -1.0841111684642486 -0.21387941306908384 -0.85389249303111026 -0.71819716094474717 0.2182658280337206 -0.52224814400049724
decision_type=2 2 2 2 2 2 2
left_child=1 6 -3 5 -5 -2 -1
right_child=3 2 -4 4 -6 -7 -8
leaf_value=0.00093139532223742469 -2.196662566767868e-05 0.00022409285089044814 -0.00024895966809112071 0.001084221700090107 0.00054387779919778652 0.00057804693768805993 0.0002274499775858296
leaf_weight=55.522046163678169 151.71115405857563 370.20495702326298 476.66235238313675 193.22716967761517 606.69696202874184 56.061938136816025 130.83583562076092
leaf_count=110 470 1068 1597 381 1521 134 366
internal_value=0 5.84648e-05 -3.17268e-05 0.000581575 0.000691765 0.000109239 0.000503518
internal_weight=0 1033.23 846.867 1007.7 799.924 207.773 186.358
internal_count=5647 3141 2665 2506 1902 604 476
is_linear=0
shrinkage=0.000886653


Tree=59
num_leaves=8
num_cat=0
split_feature=16 3 30 30 62 23 30
split_gain=90.1875 47.791 43.3311 27.5609 30.7183 18.751 18.1381
threshold=-0.70601371449989025 0.70948335382149519 -0.1524547772277596 -0.068688125098240349 -0.54705331422543246 -0.16107164756732956 -1.334403666842592
decision_type=2 2 2 2 2 2 2
left_child=3 2 -2 6 -5 -3 -1
right_child=1 5 -4 4 -6 -7 -8
leaf_value=0 0.00024127369015723276 0 -0.00039644160134890208 -0.00047403936642407657 0.00070410307803026853 0.00082212307792228203 0.0012716029071117812
leaf_weight=30.369498044252396 481.79385782778263 146.0894820690155 627.09874254465103 67.971222117543221 170.07168684899807 245.91007003188133 302.30714246630669
leaf_count=83 1314 418 1976 220 413 585 638
internal_value=0 5.64868e-05 -0.000104993 0.000830544 0.000298045 0.000549263 0.00115271
internal_weight=0 1500.89 1108.89 570.72 238.043 392 332.677
internal_count=5647 4293 3290 1354 633 1003 721
is_linear=0
shrinkage=0.00163258


Tree=60
num_leaves=8
num_cat=0
split_feature=16 39 24 57 8 23 43
split_gain=126.855 60.7944 53.7214 50.1021 37.8898 36.8445 32.9223
threshold=-0.3251627478699432 0.35592679093318186 -1.0841111684642486 -0.93960141217393456 1.0168546404141441 -0.53971286606292657 0.16322798954275236
decision_type=2 2 2 2 2 2 2
left_child=1 4 6 -4 -1 -3 -2
right_child=2 5 3 -5 -6 -7 -8
leaf_value=-0.00031856873817197659 -0.00027674411966247225 -0.00022821950520208393 -5.40244063350878e-05 -0.00056225031621035372 0.00022087571901198685 0.00039750345925254426 0.00045634891776888528
leaf_weight=358.92056757211685 90.602884396910667 62.169422522187233 209.32251335680485 859.5006492882967 100.32483747601509 313.58973829448223 71.158472657203674
leaf_count=1012 259 177 550 2598 227 679 145
internal_value=0 1.22769e-05 -0.000402818 -0.00047127 -0.000181542 0.000270285 1.23929e-07
internal_weight=0 835.005 1230.58 1068.82 459.245 375.759 161.761
internal_count=5647 2095 3552 3148 1239 856 404
is_linear=0
shrinkage=0.000841358


Tree=61
num_leaves=8
num_cat=0
split_feature=21 24 29 12 65 30 24
split_gain=91.2011 59.2397 50.8471 32.4789 25.2654 24.7334 12.7901
threshold=0.33316135122043183 -1.0841111684642486 -0.17056506712937938 -0.24202473624505474 0.14274072776724633 0.18354253867267209 1.2294584645079374
decision_type=2 2 2 2 2 2 2
left_child=1 5 -3 6 -5 -1 -2
right_child=3 2 -4 4 -6 -7 -8
leaf_value=0.0011257878711961496 0.0011752069775492597 0.00015331992812709581 -0.00058522416131563703 0 0.00072963178849153162 0 0
leaf_weight=141.18791863322258 317.55789461731911 453.02225330471992 543.15929892659187 277.39668044447899 233.62791475653648 73.092234671115875 36.981694534420967
leaf_count=310 682 1275 1760 766 540 217 97
internal_value=0 -4.75699e-05 -0.000233674 0.000654963 0.000328491 0.000725966 0.00106706
internal_weight=0 1210.46 996.182 865.564 511.025 214.28 354.54
internal_count=5647 3562 3035 2085 1306 527 779
is_linear=0
shrinkage=0.00168269


Tree=62
num_leaves=8
num_cat=0
split_feature=16 24 29 30 31 30 50
split_gain=86.0575 63.8328 61.6038 30.6481 26.0969 17.7236 13.4588
threshold=-1.1275354295782718 -1.0841111684642486 0.31408107287795822 -0.11958179904978292 0.15789099117237329 -1.334403666842592 -0.7985015368595324
decision_type=2 2 2 2 2 2 2
left_child=3 4 -3 5 -2 -1 -5
right_child=1 2 -4 6 -6 -7 -8
leaf_value=0 0.0013695088802979886 0.00020365719847277811 -0.00060414250892319818 0.00073442425553205018 0 0.0017812677238810291 -0.00034947343144571026
leaf_weight=12.608978196978567 170.72076296806335 976.37021291255951 507.73341135680676 88.118156224489212 89.337877213954926 186.47367373108864 43.44780907034874
leaf_count=37 364 2699 1588 209 254 360 136
internal_value=0 8.02008e-05 -6.12313e-05 0.0011469 0.000943133 0.00163229 0.000239096
internal_weight=0 1744.16 1484.1 330.649 260.059 199.083 131.566
internal_count=5647 4905 4287 742 618 397 345
is_linear=0
shrinkage=0.0019002


Tree=63
num_leaves=8
num_cat=0
split_feature=21 64 30 42 25 24 12
split_gain=135.919 60.251 58.654 48.2583 37.5187 32.1185 23.6238
threshold=0.14012247106919593 0.036977418932098112 -0.1524547772277596 0.46979043874958293 1.0000000180025095e-35 -0.71819716094474717 -0.24202473624505474
decision_type=2 2 2 2 2 2 2
left_child=2 5 4 -4 -1 -2 -3
right_child=1 6 3 -5 -6 -7 -8
leaf_value=0.00046994715107457865 0.0010561481134913129 0.00045179500171354462 3.1344159789507821e-05 -0.00043834026133043435 0 0.00049322325865106811 4.5295996226292764e-05
leaf_weight=250.9748318195343 136.12742361426353 185.15427084267139 391.71017289161682 195.84589996933937 197.30707924067974 410.04317538440228 285.69978132843971
leaf_count=640 247 451 1188 708 605 988 820
internal_value=0 0.000467225 4.34478e-05 -0.000114305 0.000266734 0.000657045 0.000225267
internal_weight=0 1017.02 1035.84 587.556 448.282 546.171 470.854
internal_count=5647 2506 3141 1896 1245 1235 1271
is_linear=0
shrinkage=0.000805562


Tree=64
num_leaves=8
num_cat=0
split_feature=21 24 27 15 3 8 43
split_gain=166.379 62.9175 60.017 54.8744 42.3155 30.7064 16.0634
threshold=0.14012247106919593 -1.0841111684642486 -0.2658760639462352 -0.44683348633982539 0.14205192106996559 -0.46413805747616682 -0.76116722108025947
decision_type=2 2 2 2 2 2 2
left_child=1 5 -3 6 -5 -1 -2
right_child=3 2 -4 4 -6 -7 -8
leaf_value=0 0.00023451384506474403 0.00017071289624899939 -0.00019290753326524335 5.10785041427808e-05 0.00044584442250070503 0.00064220996244798093 0.00073670021535996453
leaf_weight=84.233897462487221 88.875709697604179 350.3001466691494 499.62304709851742 274.29914739727974 336.23746007680893 101.91366808116436 311.1382971405983
leaf_count=248 229 1010 1655 801 828 228 648
internal_value=0 3.74155e-05 -3.49619e-05 0.000435382 0.000281533 0.000394977 0.000646522
internal_weight=0 1036.07 849.923 1010.55 610.537 186.148 400.014
internal_count=5647 3141 2665 2506 1629 476 877
is_linear=0
shrinkage=0.00068445


Tree=65
num_leaves=8
num_cat=0
split_feature=21 3 30 15 25 3 56
split_gain=89.7832 55.3813 52.5034 31.4835 29.0702 27.2527 17.8405
threshold=0.33316135122043183 0.70948335382149519 -0.11958179904978292 -0.19362172615585979 1.0000000180025095e-35 0.14205192106996559 0.23606459109504915
decision_type=2 2 2 2 2 2 2
left_child=1 2 -1 6 -3 -5 -2
right_child=3 4 -4 5 -6 -7 -8
leaf_value=0.00021372399118176126 0.0014888981160484512 0.0012698102454409236 -0.00073856313615039079 -0.00014072064065473434 0 0.00080522553066363317 0.0002437409026535649
leaf_weight=401.11864160001278 315.65231178700924 162.50698353350163 515.97862666845322 192.31832475960255 128.92222009599209 248.65877652168274 108.81926628947258
leaf_count=1110 658 378 1698 553 376 598 276
internal_value=0 -3.87469e-05 -0.000301252 0.000807197 0.000709375 0.000350534 0.001224
internal_weight=0 1208.53 917.097 865.449 291.429 440.977 424.472
internal_count=5647 3562 2808 2085 754 1151 934
is_linear=0
shrinkage=0.00204358


Tree=66
num_leaves=8
num_cat=0
split_feature=8 25 9 31 62 25 43
split_gain=85.8441 45.2297 41.9471 40.2302 43.333 36.227 9.03842
threshold=0.13670677168511902 -1.1947695075503957 0.046513012557995032 -0.18661850385760823 -0.7399364574324564 -0.17850514659019631 -0.87170768266554943
decision_type=2 2 2 2 2 2 2
left_child=3 6 -3 5 -5 -1 -2
right_child=1 2 -4 4 -6 -7 -8
leaf_value=0.00056880837310527884 0 0.00061864123707653165 4.1451412836753481e-06 -0.00097695801604343177 -7.5493432282176137e-05 -0.00011635209190223719 0.0012785959754382785
leaf_weight=247.47321991622448 7.1498568952083579 435.12837538123131 421.6620932072401 123.90413464605808 477.78228075802326 230.06572234630585 129.52104398608208
leaf_count=599 21 1042 1173 463 1419 681 249
internal_value=0 0.000471655 0.000333326 -5.48224e-05 -0.000289758 0.000214032 0.00120089
internal_weight=0 993.461 856.79 1079.23 601.686 477.539 136.671
internal_count=5647 2485 2215 3162 1882 1280 270
is_linear=0
shrinkage=0.00131756


Tree=67
num_leaves=8
num_cat=0
split_feature=56 43 6 16 36 3 21
split_gain=85.5785 43.4803 48.1379 39.7233 22.9902 21.6337 19.2771
threshold=-0.49893174325007822 -0.87170768266554943 0.53943822394072216 -0.24283651864088041 1.0000000180025095e-35 0.14205192106996559 -0.55272686440960317
decision_type=2 2 2 2 2 2 2
left_child=3 4 -3 6 -2 -5 -1
right_child=1 2 -4 5 -6 -7 -8
leaf_value=5.2112205869781995e-05 -3.9528907614504168e-05 -6.4185797410515056e-05 0.00063555806496266409 -0.00016332676707215711 -0.00099652847022670544 0.00058445338582504246 0.0011615231488813567
leaf_weight=77.192909359931946 172.33452276885509 724.67669849097729 325.19708344340324 154.6425896435976 134.49893905222416 164.65907579660416 318.63972073793411
leaf_count=208 519 2123 796 466 465 405 665
internal_value=0 0 0.000140119 0.000651419 -0.000518388 0.000178185 0.000987192
internal_weight=0 1356.71 1049.87 715.134 306.833 319.302 395.833
internal_count=5647 3903 2919 1744 984 871 873
is_linear=0
shrinkage=0.00155127


Tree=68
num_leaves=8
num_cat=0
split_feature=8 31 15 62 3 24 39
split_gain=121.443 59.1597 56.467 55.6122 43.9609 42.0914 15.6047
threshold=0.13670677168511902 -0.18661850385760823 -0.67114354041877244 -0.7399364574324564 0.5948229746005802 -0.59427254497639925 1.0000000180025095e-35
decision_type=2 2 2 2 2 2 2
left_child=1 5 6 -3 -4 -1 -2
right_child=2 3 4 -5 -6 -7 -8
leaf_value=0.00042911102222236499 0.00022086725469931657 -0.00043105398820594614 8.2197623340238475e-05 0 0.00042462473989543232 3.547868557016516e-05 0.00066079664457103626
leaf_weight=172.35613796114922 95.900202825665474 124.32855744659901 432.87599501013756 473.09706003963947 239.5400246232748 301.15028050541878 219.6255107820034
leaf_count=406 246 463 1228 1419 567 874 444
internal_value=0 3.39104e-05 0.000331138 -8.40461e-05 0.00021536 0.000194389 0.000551569
internal_weight=0 1070.93 987.942 597.426 672.416 473.506 315.526
internal_count=5647 3162 2485 1882 1795 1280 690
is_linear=0
shrinkage=0.00059747


Tree=69
num_leaves=8
num_cat=0
split_feature=21 24 62 16 31 65 28
split_gain=145.576 81.0726 60.6794 42.9175 31.092 20.5095 15.8383
threshold=0.33316135122043183 -1.0841111684642486 -0.7399364574324564 -0.3251627478699432 0.40348293386464701 -0.96513189586395998 1.7864943304573317
decision_type=2 2 2 2 2 2 2
left_child=1 4 -3 6 -1 -5 -2
right_child=3 2 -4 5 -6 -7 -8
leaf_value=0.00069503946595232474 0.0007608734093469923 -0.00041267596112054756 7.8601138255745734e-05 0 0 0.00040371746712433319 0
leaf_weight=156.93075577914715 375.25815972685814 193.74503107368946 784.12970477342606 98.756413489580154 53.546556994318962 374.35039542615414 10.329715147614477
leaf_count=358 792 694 2341 302 169 959 32
internal_value=0 7.73821e-05 -1.24181e-05 0.000517935 0.000521111 0.000319461 0.000733374
internal_weight=0 1188.35 977.875 858.695 210.477 473.107 385.588
internal_count=5647 3562 3035 2085 527 1261 824
is_linear=0
shrinkage=0.000798057


Tree=70
num_leaves=8
num_cat=0
split_feature=21 24 35 16 64 25 3
split_gain=132.065 73.6576 57.0765 54.568 27.0207 25.7076 21.566
threshold=0.33316135122043183 -1.0841111684642486 1.104935547350004 -0.3251627478699432 -0.40798672678439174 0.092422544371504226 0.33465762813097399
decision_type=2 2 2 2 2 2 2
left_child=1 4 -3 5 -1 -2 -5
right_child=3 2 -4 6 -6 -7 -8
leaf_value=0.00054729270072655925 0.00054476032986407034 -0.00069034896942124762 0 -0.0003718321081617364 -0.00018523135871577819 0 2.5103332290754879e-05
leaf_weight=72.299543619155884 229.14808692038059 868.0809361487627 148.08618545532227 264.36156669259071 139.17411509156227 136.11793106794357 209.28873760998249
leaf_count=147 482 2656 379 744 380 342 517
internal_value=0 -0.000476949 -0.000591102 3.68961e-05 2.59599e-05 0.000340117 -0.00017701
internal_weight=0 1227.64 1016.17 838.916 211.474 365.266 473.65
internal_count=5647 3562 3035 2085 527 824 1261
is_linear=0
shrinkage=0.00101974


Tree=71
num_leaves=8
num_cat=0
split_feature=15 35 40 39 24 34 60
split_gain=87.4354 57.6893 38.258 29.1826 20.7222 18.5846 13.2757
threshold=-0.73273264908908564 1.104935547350004 1.0000000180025095e-35 0.35592679093318186 -0.17910183194868254 0.20850908495400802 1.0431216080628765
decision_type=2 2 2 2 2 2 2
left_child=3 2 -2 4 -1 -3 -5
right_child=1 5 -4 6 -6 -7 -8
leaf_value=0.00096192115606415956 -0.00053167174938685698 0.00011799646356371428 0.00017401879911146693 0.0017526372893188324 -1.2920465098670917e-05 0.0015438955958833765 0
leaf_weight=154.98791253566742 648.97176729142666 113.61210702359676 644.78107087314129 212.79773171246052 144.59673175215721 120.84118282794952 34.79577910900116
leaf_count=375 1999 305 1779 430 413 256 90
internal_value=0 0 -0.000164627 0.00098756 0.000431042 0.000958359 0.00155464
internal_weight=0 1528.21 1293.75 547.178 299.585 234.453 247.594
internal_count=5647 4339 3778 1308 788 561 520
is_linear=0
shrinkage=0.00210463


Tree=72
num_leaves=8
num_cat=0
split_feature=21 25 24 29 49 8 16
split_gain=86.5127 44.4997 41.6454 50.5266 32.1049 29.1871 27.1892
threshold=0.14012247106919593 0.27451431836665235 -0.99819495327010277 -0.21387941306908384 -0.047837957654930832 -0.46413805747616682 -0.3251627478699432
decision_type=2 2 2 2 2 2 2
left_child=2 6 5 -4 -3 -1 -2
right_child=1 4 3 -5 -6 -7 -8
leaf_value=-3.3727136764566988e-05 0.0015908148852056218 -0.00058267647364963402 0.00017830770699359095 -0.00086800273725819242 0.00071027084878515548 0.0014037207443705422 0.00054118795964823246
leaf_weight=94.127401620149612 311.01423639059067 168.50647267699242 367.38229203224182 475.00155647099018 189.1398977637291 117.40770085155964 351.99765965342522
leaf_count=277 641 501 1037 1565 465 262 899
internal_value=0 0.000736408 -0.0001506 -0.000387599 4.10918e-05 0.00067819 0.00107529
internal_weight=0 1020.66 1053.92 842.384 357.646 211.535 663.012
internal_count=5647 2506 3141 2602 966 539 1540
is_linear=0
shrinkage=0.00220856


Tree=73
num_leaves=8
num_cat=0
split_feature=30 62 15 23 30 65 7
split_gain=114.299 95.992 91.031 51.2865 34.9552 30.5313 27.3739
threshold=-0.068688125098240349 -0.7399364574324564 -0.048240337833775973 1.0000000180025095e-35 -1.334403666842592 -0.70194716024018311 0.24725278406534537
decision_type=2 2 2 2 2 2 2
left_child=2 6 4 -3 -1 -4 -2
right_child=1 3 5 -5 -6 -7 -8
leaf_value=0 -0.0005542215037346906 -2.3275682549679289e-05 -0.00022305790465658399 0.00031418258303105354 0.00061788141624251065 0.00021140297427591021 0
leaf_weight=71.105419963598251 136.52775906026363 373.5377299040556 84.176825225353241 440.20548762381077 534.39119416475296 353.17510992288589 65.46012145280838
leaf_count=201 511 1148 284 1151 1200 953 199
internal_value=0 3.74606e-05 0.000377238 0.000151626 0.000555922 0.000110303 -0.000380739
internal_weight=0 1015.73 1042.85 813.743 605.497 437.352 201.988
internal_count=5647 3009 2638 2299 1401 1237 710
is_linear=0
shrinkage=0.000703208


Tree=74
num_leaves=8
num_cat=0
split_feature=21 24 29 12 8 8 25
split_gain=84.2425 52.1559 46.1879 29.5848 24.3988 19.6196 11.9999
threshold=0.33316135122043183 -1.0841111684642486 -0.17056506712937938 -0.24202473624505474 1.099252827635578 -0.46413805747616682 1.3559141637487957
decision_type=2 2 2 2 2 2 2
left_child=1 5 -3 6 -5 -1 -2
right_child=3 2 -4 4 -6 -7 -8
leaf_value=0 0.0011282929947778952 0.00013546217054209519 -0.00058678904601249481 4.0137050046931523e-05 0.00095785739197682622 0.0011549266201071075 0
leaf_weight=98.790506064891815 327.62490998208523 453.47302018105984 541.86498934030533 382.03927673399448 128.22743751108646 115.49696055054665 25.798355787992477
leaf_count=275 709 1275 1760 1024 282 252 70
internal_value=0 -6.13451e-05 -0.000241607 0.000634106 0.00031175 0.000682982 0.00103985
internal_weight=0 1209.63 995.338 863.69 510.267 214.287 353.423
internal_count=5647 3562 3035 2085 1306 527 779
is_linear=0
shrinkage=0.00173133


Tree=75
num_leaves=8
num_cat=0
split_feature=21 24 16 3 31 25 3
split_gain=142.175 82.4984 56.7652 55.6238 29.3939 27.5184 24.7044
threshold=0.33316135122043183 -1.0841111684642486 -0.3251627478699432 0.70948335382149519 -0.30456491325549034 0.092422544371504226 0.33465762813097399
decision_type=2 2 2 2 2 2 2
left_child=1 4 5 -3 -1 -2 -4
right_child=2 3 6 -5 -6 -7 -8
leaf_value=0.0003461044788330622 0.00039182628621838857 -0.00055830274921494908 -0.00029610156031006105 -0.00010392916252576131 -0.00018745836567690051 0 1.2620713660017219e-05
leaf_weight=92.063434898853302 229.07164427638054 776.5296837836504 263.10998323559761 236.46603646874428 119.50791057944298 135.45738697052002 209.00821299850941
leaf_count=194 482 2402 744 633 333 342 517
internal_value=0 -0.000372944 1.34529e-05 -0.000460557 1.37805e-05 0.000238235 -0.000145487
internal_weight=0 1224.57 836.647 1013 211.571 364.529 472.118
internal_count=5647 3562 2085 3035 527 824 1261
is_linear=0
shrinkage=0.000738432


Tree=76
num_leaves=8
num_cat=0
split_feature=21 64 16 19 25 25 3
split_gain=142.357 73.5342 55.6434 44.8437 38.7934 25.9707 22.4522
threshold=0.33316135122043183 -0.52224814400049724 -0.3251627478699432 1.3625738875628215 -0.62269332660692711 0.092422544371504226 0.33465762813097399
decision_type=2 2 2 2 2 2 2
left_child=1 4 5 -3 -1 -2 -4
right_child=2 3 6 -5 -6 -7 -8
leaf_value=0.00024645035104145464 0.00035626717055591017 -0.00044904716576604856 -0.00022581549477135261 0 -0.00019802547336283138 0 3.183636127446277e-05
leaf_weight=117.3820878714323 230.56792823970318 785.89220428466797 264.87206260859966 109.40534375607967 215.56683512032032 136.65912067890167 210.17658345401287
leaf_count=259 482 2414 744 284 605 342 517
internal_value=0 -0.000299911 3.6031e-05 -0.000395789 -2.10532e-05 0.000227335 -9.94894e-05
internal_weight=0 1228.25 842.276 895.298 332.949 367.227 475.049
internal_count=5647 3562 2085 2698 864 824 1261
is_linear=0
shrinkage=0.000641727


Tree=77
num_leaves=8
num_cat=0
split_feature=21 16 24 29 30 65 25
split_gain=138.983 65.9146 55.7493 58.0682 37.3488 37.0609 26.0159
threshold=0.14012247106919593 -0.3251627478699432 -0.99819495327010277 -0.21387941306908384 0.18354253867267209 -0.70194716024018311 0.45860500756630035
decision_type=2 2 2 2 2 2 2
left_child=2 6 4 -4 -1 -3 -2
right_child=1 5 3 -5 -6 -7 -8
leaf_value=0.00066549881650770795 0.000856627326126251 -8.5465446485398128e-05 0.00014433616174170115 -0.00031388361240233201 -1.1546047729623118e-05 0.00037550904860605348 0.00022767652069071839
leaf_weight=139.034967020154 336.05923640727997 161.62797002494335 364.25299941003323 473.09320305287838 71.350567027926445 407.72479778528214 116.57423275709152
leaf_count=317 683 494 1037 1565 222 1033 296
internal_value=0 0.000457436 0 -0.000104462 0.00040058 0.00022976 0.000718483
internal_weight=0 1021.99 1047.73 837.346 210.386 569.353 452.633
internal_count=5647 2506 3141 2602 539 1527 979
is_linear=0
shrinkage=0.000886653


Tree=78
num_leaves=8
num_cat=0
split_feature=16 21 64 21 25 56 63
split_gain=84.7122 47.8019 48.0086 38.3728 20.5169 16.1629 10.2862
threshold=-0.70601371449989025 0.33316135122043183 -1.0293722453735079 -0.34019262422979774 0.27451431836665235 0.23606459109504915 0.30651408975876121
decision_type=2 2 2 2 2 2 2
left_child=3 2 -2 6 -3 -5 -1
right_child=1 4 -4 5 -6 -7 -8
leaf_value=0.00033129664944774398 0.0004885505360635999 0.00047799926401225889 -0.00038827727035791772 0.0010200114279746053 -8.1305207163197148e-06 0.00012570787187364841 -0.00034699353963054286
leaf_weight=99.015579670667648 133.77966259419918 373.73028339445591 773.95597463846207 303.71229657530785 227.55825442075729 93.446203127503395 72.865333244204521
leaf_count=251 336 906 2422 633 629 238 232
internal_value=0 -2.71463e-05 -0.00024142 0.000608115 0.000272274 0.000849276 0
internal_weight=0 1509.02 907.736 569.039 601.289 397.158 171.881
internal_count=5647 4293 2758 1354 1535 871 483
is_linear=0
shrinkage=0.00142512


Tree=79
num_leaves=8
num_cat=0
split_feature=3 4 21 15 65 25 23
split_gain=82.4836 73.3498 51.9974 42.0525 30.8567 22.3626 7.15805
threshold=0.70948335382149519 -1.2545081303927585 0.33316135122043183 1.0000000180025095e-35 -0.75133270303917377 -0.061631636261346552 0.70969307525232961
decision_type=2 2 2 2 2 2 2
left_child=1 3 -3 -1 6 -6 -2
right_child=4 2 -4 -5 5 -7 -8
leaf_value=0.0012794475970695986 -0.00028816213758376161 -0.00043817369918417625 0.00019398892125083018 -5.0998197967066306e-05 0.0012526884121252446 0.00037478171048370759 0.00051039937825183895
leaf_weight=146.87690943479538 84.661921218037605 798.64889624714851 509.00920926034451 62.631157010793686 222.83006735146046 216.71652162075043 35.101390689611435
leaf_count=307 259 2492 1312 186 462 549 80
internal_value=0 -2.9797e-05 -0.000180314 0.000817144 0.00067232 0.000865122 0
internal_weight=0 1517.17 1307.66 209.508 559.31 439.547 119.763
internal_count=5647 4297 3804 493 1350 1011 339
is_linear=0
shrinkage=0.00158753


Tree=80
num_leaves=8
num_cat=0
split_feature=21 16 24 29 43 8 25
split_gain=142.125 66.5552 54.6744 58.8985 30.4635 27.4165 26.6258
threshold=0.14012247106919593 -0.3251627478699432 -1.0841111684642486 -0.21387941306908384 -0.87170768266554943 -0.46413805747616682 0.45860500756630035
decision_type=2 2 2 2 2 2 2
left_child=2 6 5 -4 -3 -1 -2
right_child=1 4 3 -5 -6 -7 -8
leaf_value=0 0.00068497345111563071 -7.1036925400088158e-05 0.00011405592749116802 -0.00024991054400370368 0.00027625295346364441 0.00056921981203744503 0.00017898240598629059
leaf_weight=85.180781126022339 336.10082359611988 135.49397818744183 376.23392072319984 484.42184333503246 433.99399265646935 103.49325342476368 116.61727668344975
leaf_count=248 683 418 1068 1597 1109 228 296
internal_value=0 0.000364141 -1.77532e-07 -8.29588e-05 0.000181491 0.00033293 0.000573664
internal_weight=0 1022.21 1049.33 860.656 569.488 188.674 452.718
internal_count=5647 2506 3141 2665 1527 476 979
is_linear=0
shrinkage=0.000708895


Tree=81
num_leaves=8
num_cat=0
split_feature=56 57 6 16 25 3 25
split_gain=82.3409 49.4727 44.5451 39.3679 24.9991 20.2364 17.3068
threshold=-0.49893174325007822 -0.73228421967114443 0.18802757712309506 -0.24283651864088041 0.27451431836665235 0.14205192106996559 0.93678937501956672
decision_type=2 2 2 2 2 2 2
left_child=3 4 -3 6 -2 -5 -1
right_child=1 2 -4 5 -6 -7 -8
leaf_value=0.0013829572770312198 0.00086206464994962912 -0.00077402413411014454 0.0001018442383695804 -0.00029464113649388396 -0.00014615225621292182 0.00070293678893615006 0
leaf_weight=356.91862919926643 284.68600416183472 520.57265596091747 433.02461890876293 155.24870456755161 122.87924435734749 164.85807991027832 37.433842316269875
leaf_count=771 708 1650 1179 466 366 405 102
internal_value=0 -8.06402e-05 -0.000356141 0.000789902 0.000509474 0.000157965 0.00124138
internal_weight=0 1361.16 953.597 714.459 407.565 320.107 394.352
internal_count=5647 3903 2829 1744 1074 871 873
is_linear=0
shrinkage=0.00210854


Tree=82
num_leaves=8
num_cat=0
split_feature=56 43 16 42 23 3 14
split_gain=126.488 59.6269 55.7543 53.7449 35.4497 30.4434 23.1108
threshold=-0.49893174325007822 -0.87170768266554943 -0.24283651864088041 0.58585175767356168 -0.53971286606292657 0.14205192106996559 0.28100657837508031
decision_type=2 2 2 2 2 2 2
left_child=2 6 4 -3 -1 -4 -2
right_child=1 3 5 -5 -6 -7 -8
leaf_value=1.9854845022303077e-05 -4.7415304997538128e-06 0.00022652751165137079 -1.6087495862829544e-05 -0.00010022349840224462 0.00067126079418155485 0.00036167359378809841 -0.00041871883028372729
leaf_weight=67.377560064196587 180.04369601607323 757.89804321527481 153.7083131223917 288.98876270651817 331.67483253777027 163.38690802454948 126.20173953473568
leaf_count=188 543 2020 466 899 685 405 441
internal_value=0 4.95779e-05 0.000405935 0.000129925 0.000579546 0.000160643 -0.000201112
internal_weight=0 1353.13 716.148 1046.89 399.052 317.095 306.245
internal_count=5647 3903 1744 2919 873 871 984
is_linear=0
shrinkage=0.000673293


Tree=83
num_leaves=8
num_cat=0
split_feature=21 24 35 16 31 25 3
split_gain=134.179 77.9049 57.431 54.3723 26.9083 26.9023 21.8638
threshold=0.33316135122043183 -1.0841111684642486 1.104935547350004 -0.3251627478699432 -0.30456491325549034 0.092422544371504226 0.33465762813097399
decision_type=2 2 2 2 2 2 2
left_child=1 4 -3 5 -1 -2 -5
right_child=3 2 -4 6 -6 -7 -8
leaf_value=0.00044260847167772779 0.00051194539368563951 -0.00067744146894749974 0 -0.00036704296375627394 -0.00022704968566379918 0 1.2004192953283451e-05
leaf_weight=91.742242455482483 228.74627257883549 866.97556090354919 147.76479108631611 263.92848764359951 119.7208629399538 135.50074745714664 208.86135214567184
leaf_count=194 482 2656 379 744 333 342 517
internal_value=0 -0.000470682 -0.000582552 2.26439e-05 2.28306e-05 0.000312085 -0.000181196
internal_weight=0 1226.2 1014.74 837.037 211.463 364.247 472.79
internal_count=5647 3562 3035 2085 527 824 1261
is_linear=0
shrinkage=0.000971096


Tree=84
num_leaves=8
num_cat=0
split_feature=21 24 35 15 3 64 64
split_gain=140.79 80.6574 61.5115 51.2518 30.6482 29.666 17.8015
threshold=0.33316135122043183 -1.0841111684642486 1.104935547350004 -0.55546185799288594 0.14205192106996559 -0.40798672678439174 0.68772863955204433
decision_type=2 2 2 2 2 2 2
left_child=1 5 -3 6 -5 -1 -2
right_child=3 2 -4 4 -6 -7 -8
leaf_value=0.00048269820154175241 0.00044418057044846295 -0.00053535146446835103 0 -0.00028823302111368425 8.1007322550339213e-05 -0.00011413346489275438 0
leaf_weight=73.318710535764694 226.09111586213112 869.40166285634041 148.77880372107029 247.31968909502029 298.7475915402174 139.98889663815498 73.982283890247345
leaf_count=147 475 2656 379 696 727 380 187
internal_value=0 -0.000357922 -0.000453429 6.3108e-05 -7.28487e-05 6.11718e-05 0.000333715
internal_weight=0 1231.49 1018.18 846.141 546.067 213.308 300.073
internal_count=5647 3562 3035 2085 1423 527 662
is_linear=0
shrinkage=0.000809177


Tree=85
num_leaves=8
num_cat=0
split_feature=21 64 30 42 24 24 12
split_gain=82.8514 47.1842 41.8125 37.9235 31.8136 27.4907 17.6233
threshold=0.14012247106919593 0.036977418932098112 -0.1524547772277596 0.46979043874958293 -0.71819716094474717 -0.4293256578841777 -0.24202473624505474
decision_type=2 2 2 2 2 2 2
left_child=2 4 5 -4 -2 -1 -3
right_child=1 6 3 -5 -6 -7 -8
leaf_value=0.0006128905629202646 0.0014614925939673757 0.00043337381486820782 -0.00012889605342460755 -0.0010143911026324244 0.00046586993746689751 -0.00012480417211899804 -0.00016230530603268884
leaf_weight=189.01100260019302 133.29019862413406 185.92367346584797 401.3705725222826 200.18664166331291 410.39242573082447 269.65425859391689 289.86761999130249
leaf_count=457 247 451 1188 708 988 788 820
internal_value=0 0.000436095 -0.00017986 -0.000455542 0.000750221 0.000149416 4.05278e-05
internal_weight=0 1019.47 1060.22 601.557 543.683 458.665 475.791
internal_count=5647 2506 3141 1896 1235 1245 1271
is_linear=0
shrinkage=0.00156072


Tree=86
num_leaves=8
num_cat=0
split_feature=16 21 64 3 31 43 50
split_gain=81.3174 53.5196 43.8729 31.3781 17.8136 8.79865 6.72437
threshold=-1.1275354295782718 0.23584883315673605 -1.0293722453735079 0.14205192106996559 -0.13101294812380115 1.7021832018307996 -0.7985015368595324
decision_type=2 2 2 2 2 2 2
left_child=4 2 -2 -3 5 -1 -6
right_child=1 3 -4 -5 6 -7 -8
leaf_value=0.0012825590793171921 0.00050820408061816194 0 -0.00044163688259131061 0.00064087225189114207 0.00052049815521850059 0 -7.9438254769273272e-05
leaf_weight=195.90119597315788 144.83520910143852 375.74061225354671 840.72496998310089 388.20592314004898 80.665688037872314 9.0485558062791807 42.836516529321671
leaf_count=397 364 1019 2605 917 193 25 127
internal_value=0 -1.55966e-05 -0.00028316 0.000307416 0.000882952 0.0012065 0.000188159
internal_weight=0 1749.51 985.56 763.947 328.452 204.95 123.502
internal_count=5647 4905 2969 1936 742 422 320
is_linear=0
shrinkage=0.00168381


Tree=87
num_leaves=8
num_cat=0
split_feature=21 24 16 3 31 3 24
split_gain=138.151 74.213 61.5713 58.4454 30.6283 21.8377 15.6943
threshold=0.33316135122043183 -1.0841111684642486 -0.3251627478699432 0.70948335382149519 -0.30456491325549034 0.33465762813097399 0.18106273418058288
decision_type=2 2 2 2 2 2 2
left_child=1 4 6 -3 -1 -4 -2
right_child=2 3 5 -5 -6 -7 -8
leaf_value=0.00035696995347444149 0.00040276304404443747 -0.00041922592917992003 -0.00019510508945549531 -1.8340636019914558e-05 -0.00011121584397176133 6.9916873484764119e-05 6.5740502269260313e-05
leaf_weight=93.434194043278694 216.29953055083752 782.15566109120846 266.49723540246487 238.97249831259251 120.55955223739147 212.02835121750832 157.37769116461277
leaf_count=194 445 2402 744 633 333 517 379
internal_value=0 -0.00025786 8.00652e-05 -0.000332342 6.73157e-05 -6.47609e-05 0.000280968
internal_weight=0 1235.12 852.203 1021.13 213.994 478.526 373.677
internal_count=5647 3562 2085 3035 527 1261 824
is_linear=0
shrinkage=0.000655547


Tree=88
num_leaves=8
num_cat=0
split_feature=21 30 3 25 16 3 10
split_gain=144.252 62.4469 55.1416 51.3903 47.1918 22.2185 19.4649
threshold=0.33316135122043183 -0.1524547772277596 0.70948335382149519 -0.62269332660692711 -0.3251627478699432 0.14205192106996559 -0.091846730086279943
decision_type=2 2 2 2 2 2 2
left_child=1 3 -3 -1 6 -6 -2
right_child=4 2 -4 -5 5 -7 -8
leaf_value=0.00041490248004466876 0.0005513164320018909 -0.00020691966760731995 0.00017275579877749559 8.2388232333896077e-06 9.9669494143371743e-06 0.00029147709663619834 0.00010451347535927128
leaf_weight=170.9639630317688 307.75702929496765 532.28740578889847 153.6324827671051 352.4622128456831 229.18073199689388 250.48021580278873 79.348193615674973
leaf_count=390 625 1740 412 1020 648 613 199
internal_value=0 0 -0.000112765 0.000154977 0.000316365 0.000170598 0.000477285
internal_weight=0 1209.35 685.92 523.426 866.766 479.661 387.105
internal_count=5647 3562 2152 1410 2085 1261 824
is_linear=0
shrinkage=0.000586672


Tree=89
num_leaves=8
num_cat=0
split_feature=21 30 25 62 25 49 43
split_gain=142.74 61.5512 49.1637 45.442 36.7007 28.4843 19.8732
threshold=0.33316135122043183 -0.1524547772277596 -0.62269332660692711 -0.80988232068209876 0.27451431836665235 -0.047837957654930832 -0.054559791206205653
decision_type=2 2 2 2 2 2 2
left_child=1 2 -1 -3 6 -6 -2
right_child=4 3 -4 -5 5 -7 -8
leaf_value=0.00048887738128359495 0.00027451235341572526 -0.00051664639193556446 0 -4.3290235674394388e-05 -6.2349701785515614e-05 0.00034951445587898337 0.0006399852149333138
leaf_weight=171.44804875552654 256.17025505006313 148.13413020968437 353.62828849256039 540.49080067873001 146.02143383026123 159.52267552912235 306.36994276940823
leaf_count=390 641 535 1020 1617 424 384 636
internal_value=0 -9.43334e-06 0.000172423 -0.000158866 0.000374191 0.000131588 0.000490608
internal_weight=0 1213.7 525.076 688.625 868.084 305.544 562.54
internal_count=5647 3562 1410 2152 2085 808 1277
is_linear=0
shrinkage=0.000734212


Tree=90
num_leaves=8
num_cat=0
split_feature=21 24 29 16 31 3 10
split_gain=139.329 72.6549 59.9636 47.5914 33.2715 22.3919 19.5008
threshold=0.33316135122043183 -1.0841111684642486 -0.17056506712937938 -0.3251627478699432 0.017789222259157789 0.14205192106996559 -0.091846730086279943
decision_type=2 2 2 2 2 2 2
left_child=1 4 -3 6 -1 -5 -2
right_child=3 2 -4 5 -6 -7 -8
leaf_value=0.00065483908541248313 0.0007308446773643736 9.6001560570289004e-05 -0.00029164242870124572 0 0 0.00037370703490654026 0.00012196873794435864
leaf_weight=129.47480030357838 307.93064914643764 452.9810641258955 546.41569876670837 229.90180291235447 85.066088482737541 251.18108062446117 79.445847600698471
leaf_count=278 625 1275 1760 648 249 613 199
internal_value=0 -9.71361e-06 -0.000108366 0.000408372 0.000404595 0.000208445 0.000629865
internal_weight=0 1213.94 999.397 868.459 214.541 481.083 387.376
internal_count=5647 3562 3035 2085 527 1261 824
is_linear=0
shrinkage=0.00081021


Tree=91
num_leaves=8
num_cat=0
split_feature=16 3 64 31 25 23 62
split_gain=129.475 62.6574 58.8469 44.6696 30.2382 20.514 16.3118
threshold=-0.70601371449989025 0.70948335382149519 -1.0293722453735079 -0.13101294812380115 -0.62269332660692711 -0.16107164756732956 -0.54705331422543246
decision_type=2 2 2 2 2 2 2
left_child=3 2 -2 4 -1 -3 -5
right_child=1 5 -4 6 -6 -7 -8
leaf_value=0.00054378896917562833 0 -0.00022981496677125675 -0.00042700322207489912 -0.0003891607787105709 6.0980633363494303e-05 9.2945169317219789e-05 0
leaf_weight=132.73632818460464 168.42643330991268 147.40975734591484 956.69261008501053 64.220352351665497 196.28416430950165 242.12891872227192 167.55220784246922
leaf_count=255 425 418 2865 199 477 585 423
internal_value=0 -0.00027554 -0.000359762 0.000111563 0.000282304 -1.29967e-05 -0.000102297
internal_weight=0 1514.66 1125.12 560.793 329.02 389.539 231.773
internal_count=5647 4293 3290 1354 732 1003 622
is_linear=0
shrinkage=0.000703208


Tree=92
num_leaves=8
num_cat=0
split_feature=15 3 42 30 64 30 42
split_gain=85.1029 72.6611 49.7795 31.1508 30.652 15.6564 14.9714
threshold=-0.73273264908908564 0.70948335382149519 0.58585175767356168 -0.068688125098240349 0.50979578088662969 -1.334403666842592 0.84642270776848139
decision_type=2 2 2 2 2 2 2
left_child=3 2 -2 5 -3 -1 -5
right_child=1 4 -4 6 -6 -7 -8
leaf_value=0 -0.00011283016338001033 0.00093524868836502575 -0.0011372343200818959 0.00043412507300875241 -0.00010414830995682899 0.0013849838755060863 -0.00081153962758534156
leaf_weight=40.718382254242897 833.07072676718235 300.57216517627239 269.5590842217207 187.35854695737362 131.59189367294312 281.52448649704456 37.071502476930618
leaf_count=109 2368 702 892 475 377 599 125
internal_value=0 -0.000100892 -0.000385642 0.000812697 0.000575738 0.00121917 0.000127137
internal_weight=0 1534.79 1102.63 546.673 432.164 322.243 224.43
internal_count=5647 4339 3260 1308 1079 708 600
is_linear=0
shrinkage=0.00201207


Tree=93
num_leaves=8
num_cat=0
split_feature=56 18 8 16 23 3 59
