tree
version=v4
num_class=1
num_tree_per_iteration=1
label_index=0
max_feature_idx=32
objective=cross_entropy
feature_names=Fraction_inspired_oxygen_mean Fraction_inspired_oxygen_min Fraction_inspired_oxygen_max Glucose_mean Glucose_min Glucose_max Heart_Rate_mean Heart_Rate_min Heart_Rate_max Mean_blood_pressure_mean Mean_blood_pressure_min Mean_blood_pressure_max Diastolic_blood_pressure_mean Diastolic_blood_pressure_min Diastolic_blood_pressure_max Systolic_blood_pressure_mean Systolic_blood_pressure_min Systolic_blood_pressure_max Oxygen_saturation_mean Oxygen_saturation_min Oxygen_saturation_max Respiratory_rate_mean Respiratory_rate_min Respiratory_rate_max Temperature_mean Temperature_min Temperature_max Weight_mean Weight_min Weight_max pH_mean pH_min pH_max
feature_infos=[0.19:1] [0:1] [0.20999999999999999:7] [64.857142857142861:333384.33333333326] [0:277] [76:999999] [42.936170212765958:137.02380952380952] [30:121] [58:941] [48.076923076923073:2485.7142857142858] [27:99] [66:120130] [25.522388059701491:1300.8297872340424] [17:87] [44:58229] [69.739130434782609:188.90566037735852] [51:149] [92:321] [87.476190476190496:255.03225806451616] [82:100] [92:9871] [8.2272727272727266:74.163265306122454] [0:25] [16:2529] [31.800000000000001:78.032407407407405] [27.333333333333329:38.833333333333336] [31.800000000000001:536.1111111111112] [27.034083200000001:343.37526480000002] [23.632143200000002:276.41896480000003] [27.034083200000001:476.99734719999998] [6:200005.52600000001] [6:8] [6:999999]
tree_sizes=1863 2128 1809 2031 2025 1923 1917 2018 1922 1895 2007 2027 1918 1922 1818 2147 2026 2034 2035 2130 2034 1928 2030 2026 1909 1915 2035 2131 1921 2026 2041 2036 2136 1931 1904 1920 2028

Tree=0
num_leaves=17
num_cat=0
split_feature=21 24 8 24 22 29 19 15 30 3 3 0 25 24 3 3
split_gain=90.0363 52.6345 35.9942 28.3539 26.8311 24.5761 15.5195 15.3632 13.8198 12.3125 10.6757 9.67348 9.64329 4.56225 4.5094 3.17954
threshold=20.841531440162274 36.59831196581198 108.50000000000001 36.547313797313798 3.5000000000000004 91.258675600000018 90.500000000000014 105.04249249249251 7.3167748917748918 143.88750000000002 158.82857142857145 0.43120471014492762 36.250000000000014 36.992022792022802 117.02000000000002 134.04545454545459
decision_type=2 2 2 2 2 2 2 2 2 2 2 2 2 2 2 2
left_child=2 -2 8 -4 -3 6 -5 -6 12 13 14 -8 -1 -9 -10 -16
right_child=1 4 3 5 7 -7 11 9 10 -11 -12 -13 -14 -15 15 -17
leaf_value=-1.0855069722380508 -0.93638016242285238 -0.97973360912771779 -1.0048944025006221 -1.0414370579213585 -1.0362883135512582 -1.2016196136114137 -1.0791703909547876 -1.1195236889116686 -1.1878419560603484 -1.0795132737891207 -1.1390020814393873 -1.1696432841944828 -1.1809905650233234 -1.1822483127076922 -1.2605522497146424 -1.208210242475563
leaf_weight=32.52277635037899 49.992153361439705 34.752909585833549 34.19537627696991 46.646953508257866 43.115909218788147 60.027752920985222 32.15108747780323 33.08030965924263 46.646953508257866 58.912686303257942 33.08030965924263 51.478908851742744 38.841487184166908 49.062931180000305 52.408131033182144 37.540576130151749
leaf_count=175 269 187 184 251 232 323 173 178 251 317 178 277 209 264 282 202
internal_value=-1.11623 -1.05638 -1.15082 -1.1134 -1.08403 -1.13299 -1.10131 -1.10394 -1.18568 -1.12468 -1.20586 -1.13475 -1.1374 -1.1572 -1.2219 -1.23917
internal_weight=0 268.917 465.54 224.5 218.925 190.305 130.277 184.172 241.04 141.056 169.676 83.63 71.3643 82.1432 136.596 89.9487
internal_count=3952 1447 2505 1208 1178 1024 701 991 1297 759 913 450 384 442 735 484
is_linear=0
shrinkage=1


Tree=1
num_leaves=19
num_cat=0
split_feature=21 25 16 25 8 25 29 22 18 30 19 12 9 8 3 3 2 5
split_gain=67.5014 45.3584 33.5533 28.979 25.5165 23.8467 15.9147 12.1037 10.7533 9.13555 7.75006 7.3507 6.46648 6.44352 9.06553 3.94651 2.53968 1.66282
threshold=20.059411764705889 35.361111111111121 79.500000000000014 36.435185185185183 108.50000000000001 35.561111111111124 78.008912000000024 6.5000000000000009 98.693712969058595 7.3377350427350434 91.333333333333357 63.329931972789133 74.382278835386344 102.50000000000001 143.88750000000002 138.49418604651166 0.79166666666666685 157.50000000000003
decision_type=2 2 2 2 2 2 2 2 2 2 2 2 2 2 2 2 2 2
left_child=4 -2 3 -3 8 -6 10 -4 9 12 -7 -8 -1 -9 16 17 -15 -11
right_child=1 2 7 -5 5 6 11 13 -10 15 -12 -13 -14 14 -16 -17 -18 -19
leaf_value=-0.0011007907179278128 0.18782975766106297 0.14638406989764519 0.05980968854502277 0.011736453816365261 0.092585807467586836 0.06609984344871174 -0.028660906332488464 -0.065310059161233794 -0.0099644389489633566 -0.099790185255112407 -0.018144729227532651 -0.10579827142860825 -0.084353857961271664 -0.010293143714206799 0.040681248175769576 -0.068898755486003396 -0.062119182036052885 -0.14520666987153646
leaf_weight=31.385183230042458 32.81160980463028 58.659832060337067 37.349553376436234 50.252178832888603 36.270556271076202 33.829610571265221 50.151103034615517 42.474389523267746 43.903110802173615 30.648416921496391 39.738258883357048 36.424936547875404 31.873791471123695 32.867795959115028 42.758830323815346 33.6009920835495 32.018830269575119 37.062541723251343
leaf_count=172 166 304 194 266 190 177 274 228 244 173 215 200 175 177 225 186 173 213
internal_value=0 0.0434326 0.0272482 0.0845369 -0.0357997 -0.00211524 -0.0237491 -0.00606495 -0.0674451 -0.0826796 0.0205787 -0.0614643 -0.0433856 -0.0225987 -0.00553123 -0.106931 -0.0361693 -0.125297
internal_weight=0 329.193 296.381 108.912 404.889 196.414 160.144 187.469 208.474 164.571 73.5679 86.576 63.259 150.12 107.645 101.312 64.8866 67.711
internal_count=3952 1733 1567 570 2219 1056 866 997 1163 919 392 474 347 803 575 572 350 386
is_linear=0
shrinkage=0.13


Tree=2
num_leaves=16
num_cat=0
split_feature=16 21 30 24 29 15 5 0 2 12 8 23 19 8 21
split_gain=53.083 37.8184 25.41 19.0411 22.8327 18.8492 16.6312 10.2107 9.53908 8.61673 7.37019 5.88901 5.47685 5.04648 3.34739
threshold=68.500000000000014 20.41277890466532 7.3400000000000016 36.500595238095237 76.869242400000019 101.96975385899042 223.50000000000003 0.43058069381598796 0.6083333333333335 59.354248366013074 114.50000000000001 36.166666666666679 91.333333333333357 117.50000000000001 17.459166666666672
decision_type=2 2 2 2 2 2 2 2 2 2 2 2 2 2 2
left_child=2 3 -1 -2 8 -3 9 -6 -5 -7 -8 -11 -10 14 -9
right_child=1 5 -4 4 7 6 10 13 12 11 -12 -13 -14 -15 -16
leaf_value=0.14442219639979217 0.024964722120249635 0.11038915083254944 0.010252782819534187 0.033380226863963164 -0.028031453308100009 0.024604561400223508 0.014747206697178303 -0.13884627586095644 -0.0035429416764866176 -0.064869887335059037 0.096321582557632124 0.0015588996693952229 -0.075553529053246027 -0.058364533243460755 -0.089990616642230611
leaf_weight=56.922079101204872 61.411580175161362 36.042120203375816 41.26001164317131 49.893870040774345 45.168698102235794 56.301721632480621 35.094524249434471 51.412334591150284 35.308366075158119 58.416363894939423 40.880017325282097 36.174358144402504 36.455552816390991 38.944720759987831 52.665168538689613
leaf_count=290 331 180 219 272 254 295 181 297 191 311 206 193 206 220 306
internal_value=0 -0.0142595 0.0883275 -0.0409702 -0.0540789 0.0234284 0.00944971 -0.0824255 -0.0100636 -0.0154834 0.058959 -0.0394425 -0.040407 -0.099449 -0.11453
internal_weight=0 634.169 98.1821 371.26 309.849 262.909 226.867 188.191 121.658 150.892 75.9745 94.5907 71.7639 143.022 104.078
internal_count=3952 3443 509 2077 1746 1366 1186 1077 669 799 387 504 397 823 603
is_linear=0
shrinkage=0.13


Tree=3
num_leaves=18
num_cat=0
split_feature=25 21 15 22 29 30 4 5 29 6 16 30 2 26 30 11 10
split_gain=45.8894 37.4945 21.0816 17.275 18.8968 14.3761 13.0168 12.0723 9.86084 8.07607 7.74979 6.54735 5.61688 4.24122 3.61384 2.84388 0.382691
threshold=34.807407407407418 20.841531440162274 105.04249249249251 8.3333333333333339 66.879730400000014 7.3348809523809537 123.50000000000001 236.50000000000003 70.920894400000023 87.139767441860485 80.500000000000014 7.3513484848484856 0.75833333333333341 37.365740740740755 7.3951923076923078 110.50000000000001 57.500000000000007
decision_type=2 2 2 2 2 2 2 2 2 2 2 2 2 2 2 2 2
left_child=-1 3 -3 4 -2 -6 10 8 -4 14 13 -10 15 -5 -7 -12 -14
right_child=1 2 7 6 5 9 -8 -9 11 -11 12 -13 16 -15 -16 -17 -18
leaf_value=0.1255373126612607 0.078569823798151417 0.090272062940116762 0.038866234744878984 9.7363160180544063e-05 0.026212336783299203 -0.11481660194017325 0.016229145040959972 0.054015079867485986 -0.0054042360059778412 -0.0047943489016712467 -0.037489781489810484 -0.073721288419840159 -0.1039138797128495 -0.065798690140120214 -0.049814574078203083 -0.092255464887976521 -0.13283205201146897
leaf_weight=45.40718038380146 36.927899807691574 69.517673134803772 40.564635545015335 31.569538339972496 57.76769146323204 31.583586379885674 33.912106737494469 63.272727787494659 51.241015896201134 34.046260580420494 36.495067253708839 44.420025885105133 31.082467377185822 33.683625057339668 29.129954248666763 30.580420762300491 29.029215261340141
leaf_count=228 198 333 214 173 320 190 188 313 271 194 206 238 181 188 172 172 173
internal_value=0 -0.0090094 0.0287715 -0.0334774 -0.00444674 -0.0247161 -0.057699 0.00719534 -0.0145529 -0.0558442 -0.0707788 -0.0373489 -0.0894976 -0.0339199 -0.0841633 -0.0628828 -0.1186
internal_weight=0 684.824 269.016 415.808 189.455 152.527 226.352 199.498 136.226 94.7598 192.44 95.661 127.187 65.2532 60.7135 67.0755 60.1117
internal_count=3952 3724 1369 2355 1074 876 1281 1036 723 556 1093 509 732 361 362 378 354
is_linear=0
shrinkage=0.13


Tree=4
num_leaves=18
num_cat=0
split_feature=4 8 19 24 19 5 10 21 12 19 2 5 4 4 2 14 29
split_gain=39.0201 32.667 26.8245 20.7091 15.0527 14.5956 13.8992 13.684 13.7613 8.68486 6.31591 6.27458 4.0522 3.05519 2.54646 1.78689 1.30738
threshold=58.500000000000007 135.50000000000003 85.500000000000014 36.294658119658131 95.500000000000014 192.50000000000003 51.500000000000007 18.982219061166433 59.354248366013074 89.500000000000014 0.7250000000000002 141.50000000000003 99.500000000000014 111.50000000000001 0.69166666666666676 81.500000000000014 81.409210000000016
decision_type=2 2 2 2 2 2 2 2 2 2 2 2 2 2 2 2 2
left_child=-1 2 6 -4 7 -3 -2 11 9 -9 -11 -5 16 14 -13 -16 -10
right_child=1 5 3 4 -6 -7 -8 8 12 10 -12 13 -14 -15 15 -17 -18
leaf_value=0.10851715929800582 0.10616786837203165 0.010987405030518781 0.056740349307577917 -0.030532479705248243 0.026744394297108554 0.10753380450851326 -0.0037959335009324058 0.060340356061164412 -0.059814384243912264 0.019584677228316243 -0.058586177042618613 -0.067478808429830131 -0.032052497247679418 -0.056310712668175902 -0.14227191377567014 -0.096009563924738472 -0.099838941232355649
leaf_weight=51.086594089865685 37.509281426668167 55.962783575057983 40.016983538866043 40.948796719312668 49.778844386339188 50.440691709518433 39.607932657003403 34.537295937538147 31.897795289754868 34.808820337057114 34.326122537255287 29.591338649392128 59.109504625201225 37.50759844481945 28.019041195511818 41.518646344542503 30.939873352646828
leaf_count=263 192 295 201 240 277 251 216 177 172 181 183 169 316 218 178 251 172
internal_value=0 -0.00899651 -0.021354 -0.0325206 -0.0404573 0.0570085 0.0497695 -0.0487897 -0.0274242 0.00731866 -0.0191794 -0.0757941 -0.0569823 -0.0891987 -0.101351 -0.115294 -0.0800339
internal_weight=0 676.521 570.118 493.001 452.984 106.403 77.1172 403.205 225.619 103.672 69.1349 177.585 121.947 136.637 99.129 69.5377 62.8377
internal_count=3952 3689 3143 2735 2534 546 408 2257 1201 541 364 1056 660 816 598 429 344
is_linear=0
shrinkage=0.13


Tree=5
num_leaves=17
num_cat=0
split_feature=16 19 8 24 29 3 22 9 21 19 2 14 31 21 22 0
split_gain=32.3926 26.1146 18.4782 14.8813 20.4858 12.8112 12.6305 9.6751 9.0303 9.00824 10.4514 11.9602 7.63896 5.91808 3.65256 3.39657
threshold=77.500000000000014 89.500000000000014 114.50000000000001 36.424802410065574 89.855608000000018 161.96153846153848 6.5000000000000009 71.247641509433976 20.466037161133112 86.500000000000014 0.6083333333333335 96.500000000000014 7.2783333333333351 20.217843137254906 8.3333333333333339 0.54620192307692317
decision_type=2 2 2 2 2 2 2 2 2 2 2 2 2 2 2 2
left_child=1 2 -1 -2 6 7 12 -3 14 -8 11 -11 -5 -12 -6 -10
right_child=3 5 -4 4 8 -7 9 -9 15 10 13 -13 -14 -15 -16 -17
leaf_value=0.01978617707189808 0.042409645102700767 0.015345688272774313 0.12800002133591962 0.08906486857784067 -0.065246341201483538 0.066639737687715417 0.039173069685276889 -0.066593183082499743 -0.005279435820235736 0.049019941474095448 -0.091984007196780626 -0.056110021831473081 -0.00011626408481428804 -0.025763184081689129 -0.11966889284561938 -0.061714200989433615
leaf_weight=45.207134768366814 56.226607441902161 48.356595024466515 65.959460154175758 31.569540917873383 44.101049587130547 34.219048097729683 33.207321256399155 48.313307389616966 40.434325784444809 40.743843883275986 52.858807101845741 32.691660866141319 32.676507011055946 41.300215676426888 44.332035101950169 32.894810616970062
leaf_count=234 281 257 312 166 278 172 177 265 215 221 329 180 183 223 286 173
internal_value=0 0.0379949 0.0842413 -0.0202413 -0.0285393 -0.00131316 -0.00623181 -0.0255882 -0.0649574 -0.0223145 -0.0345986 0.00205865 0.0437683 -0.0632027 -0.0929332 -0.0308626
internal_weight=0 242.056 111.167 483.037 426.81 130.889 265.048 96.6699 161.762 200.802 167.595 73.4355 64.246 94.159 88.4331 73.3291
internal_count=3952 1240 546 2712 2431 694 1479 522 952 1130 953 401 349 552 564 388
is_linear=0
shrinkage=0.13


Tree=6
num_leaves=17
num_cat=0
split_feature=0 31 25 4 4 30 15 22 4 18 16 19 14 8 18 30
split_gain=28.9129 22.6449 23.661 19.2768 16.6117 14.1976 13.3861 11.6311 9.62212 7.91848 6.12947 5.68002 4.01271 3.81396 6.52206 3.02633
threshold=0.68775000000000008 7.2616666666666676 35.298148148148158 68.500000000000014 115.50000000000001 7.4295454545454556 111.33012820512822 6.5000000000000009 127.50000000000001 98.624094202898561 83.500000000000014 86.500000000000014 84.500000000000014 98.250000000000014 96.754909510974201 7.3940833333333353
decision_type=2 2 2 2 2 2 2 2 2 2 2 2 2 2 2 2
left_child=1 2 -1 -4 7 8 -2 -5 9 11 -7 -3 -13 -9 -15 -14
right_child=6 5 3 4 -6 10 -8 13 -10 -11 -12 12 15 14 -16 -17
leaf_value=0.1023176286356071 0.13334121068109073 -0.023049765695688392 0.08853525590665326 0.020055271561435998 0.04539188082058155 0.053108715905976857 0.02132840030260557 -0.091873112555153125 0.014619821933159827 -0.0097408437449279673 -0.01789041679625434 -0.055195714023593363 -0.1206483195365903 -0.0032492998911520998 -0.071444124381060514 -0.066109966405064086
leaf_weight=44.747501075267792 35.655176281929016 32.534363441169262 36.360045701265335 50.276918686926365 61.528215661644936 35.852142140269279 36.894591651856899 32.787861831486225 33.899807438254356 43.226356461644173 47.145242005586624 52.450126975774765 54.16875322163105 44.449968218803406 51.279400400817394 28.500802308320999
leaf_count=212 177 173 186 265 320 191 203 195 181 243 272 315 318 243 285 173
internal_value=0 -0.0095586 0.0149337 0.000675985 -0.0126697 -0.0335963 0.0768146 -0.0327424 -0.0493437 -0.0596751 0.0127477 -0.0724565 -0.0842107 -0.0534665 -0.0399795 -0.102252
internal_weight=0 649.208 321.43 276.682 240.322 327.778 72.5498 178.794 244.78 210.88 82.9974 167.654 135.12 128.517 95.7294 82.6696
internal_count=3952 3572 1706 1494 1308 1866 380 988 1403 1222 463 979 806 723 528 491
is_linear=0
shrinkage=0.13


Tree=7
num_leaves=18
num_cat=0
split_feature=21 4 3 12 6 24 29 28 10 4 26 22 30 29 25 4 13
split_gain=24.3333 25.6443 19.6263 16.3634 14.1434 12.4733 9.07342 9.05624 8.76245 7.81613 6.93985 6.30832 6.05947 4.94047 4.44273 3.41179 2.67954
threshold=19.018387314439952 60.500000000000007 137.10010111223463 56.284161490683239 82.749920255183426 36.760348583878006 76.869242400000019 86.808754400000012 45.500000000000007 101.50000000000001 37.750000000000007 5.5000000000000009 7.3391987179487179 80.410930800000003 36.175925925925931 91.500000000000014 43.500000000000007
decision_type=2 2 2 2 2 2 2 2 2 2 2 2 2 2 2 2 2
left_child=4 -2 8 -4 6 -6 15 10 -3 12 -5 -7 -10 -13 -8 -1 -14
right_child=1 2 3 7 5 11 14 -9 9 -11 -12 13 16 -15 -16 -17 -18
leaf_value=-0.04948828447321741 0.12024586947826671 0.04001944880727927 0.09538793263308426 0.0018996794829371495 0.050936931293936769 0.018769539525868462 -0.051517545625935475 -0.02462706990692488 -0.0177801437150218 0.019384250164282031 0.082541954420086355 -0.01693357010265082 -0.10340500364611935 -0.089066722293304562 -0.1118353595818064 0.009893226561306305 -0.04878286158783169
leaf_weight=32.456363156437874 38.370167508721352 33.073137313127518 58.838660888373852 35.1423619389534 51.442038483917713 32.156326770782471 39.609384037554264 59.212684109807014 56.613832503557205 36.250280365347862 37.307174533605576 34.493153288960457 31.941884227097034 30.635780215263367 46.934592597186565 32.092189058661461 32.306729979813099
leaf_count=188 180 162 286 175 277 185 243 306 301 201 186 195 179 199 319 181 189
internal_value=0 0.0193441 0.00906633 0.0385476 -0.0291413 -0.000605882 -0.0571149 0.0129234 -0.0204298 -0.0332628 0.0437143 -0.0280241 -0.0491369 -0.0512476 -0.0845982 -0.0199125 -0.0764225
internal_weight=0 419.057 380.687 190.501 299.82 148.727 151.093 131.662 190.186 157.113 72.4495 97.2853 120.862 65.1289 86.544 64.5486 64.2486
internal_count=3952 2165 1985 953 1787 856 931 667 1032 870 361 579 669 394 562 369 368
is_linear=0
shrinkage=0.13


Tree=8
num_leaves=17
num_cat=0
split_feature=24 8 15 21 12 3 31 2 7 5 29 4 32 18 21 4
split_gain=22.1392 23.1328 15.5894 12.7578 10.8085 10.6247 10.1069 9.32107 8.22911 9.93556 7.74482 5.75753 11.5234 4.75293 3.91765 2.58461
threshold=36.050925925925945 135.50000000000003 97.745370370370395 18.944425385934824 59.354248366013074 153.65144230769232 7.1983333333333341 0.94166666666666676 68.500000000000014 179.50000000000003 71.550000000000026 80.500000000000014 7.4650000000000007 97.279344262295098 17.392507002801121 89.500000000000014
decision_type=2 2 2 2 2 2 2 2 2 2 2 2 2 2 2 2
left_child=-1 2 -2 8 5 6 -5 -3 10 -10 -4 -6 13 -13 15 -12
right_child=1 7 3 4 11 -7 -8 -9 9 -11 14 12 -14 -15 -16 -17
leaf_value=0.10470062341475117 0.061422180823069786 0.011577506405476631 -0.021507845168182126 0.049353737353781062 -0.071826730651340473 0.070349968400912261 -0.038827003960613039 0.085841801926568512 0.031644388516169901 -0.058744677021287835 -0.074857587944109724 -0.059343942048112802 0.051674422083014593 0.001548503252182463 -0.050859593022828664 -0.13203487964848284
leaf_weight=31.755784824490547 39.871673926711082 60.104033678770065 47.289890244603157 35.504768557846546 38.310178652405739 48.400004833936691 56.500838808715343 54.889579154551029 41.250666581094265 40.295332357287407 27.082201331853867 60.023439675569534 32.758688017725945 33.335188962519169 35.359539024531841 32.692445814609528
leaf_count=146 200 303 273 175 205 234 307 269 256 242 181 333 184 186 239 219
internal_value=0 -0.00585285 -0.0166218 -0.022554 -0.0052005 0.0212297 -0.00465149 0.0472316 -0.0460949 -0.0129594 -0.0649383 -0.0278223 -0.0142491 -0.0375667 -0.0863007 -0.106767
internal_weight=0 683.668 568.675 528.803 304.833 140.406 92.0056 114.994 223.97 81.546 142.424 164.427 126.117 93.3586 95.1342 59.7746
internal_count=3952 3806 3234 3034 1624 716 482 572 1410 498 912 908 703 519 639 400
is_linear=0
shrinkage=0.13


Tree=9
num_leaves=17
num_cat=0
split_feature=16 3 19 29 0 14 25 16 8 18 30 4 14 21 2 8
split_gain=19.3021 12.9368 12.7355 17.1357 16.918 12.7362 12.4473 12.1385 11.9971 10.7616 11.5253 8.68193 9.8331 8.53932 4.0464 3.49021
threshold=71.500000000000014 153.65144230769232 89.500000000000014 78.616666666666688 0.50501253132832102 108.50000000000001 36.250000000000014 82.500000000000014 111.50000000000001 98.078536184210535 7.3519090909090918 73.500000000000014 80.500000000000014 20.125992063492067 0.89666666666666672 112.33333333333336
decision_type=2 2 2 2 2 2 2 2 2 2 2 2 2 2 2 2
left_child=1 8 3 7 5 9 -5 -2 -1 13 -11 -6 -13 -4 -14 -8
right_child=2 -3 4 6 11 -7 15 -9 -10 10 -12 12 14 -15 -16 -17
leaf_value=-0.042964404572277251 0.10363132630389332 0.096015842471415966 -0.05527281164376658 0.028608715307319406 0.0019350834991648266 -0.066011845682471315 -0.089425562977725803 0.008675683672487328 0.05252019734387238 0.09445950602679179 0 -0.13447843884123586 -0.090408328446256112 0.024459459490134391 -0.028474342471061946 -0.027899790645762156
leaf_weight=37.499236688017845 45.482197806239128 48.944825150072575 50.149763867259026 51.169554464519024 29.205230787396431 44.068125165998936 29.992102064192295 45.803059540688992 53.626190111041069 40.856344059109688 46.702253095805645 35.011039443314075 28.310633651912212 40.861834466457367 50.263787016272545 34.104224815964699
leaf_count=206 218 225 319 272 169 262 187 245 258 222 266 221 170 210 314 188
internal_value=0 0.042287 -0.0115083 0.0142521 -0.0260935 -0.00363032 -0.0189985 0.0562644 0.0131159 0.0117956 0.0442939 -0.0609759 -0.0771953 -0.0194114 -0.0511552 -0.0571035
internal_weight=0 140.07 571.98 206.551 365.429 222.638 115.266 91.2853 91.1254 178.57 87.5586 142.791 113.585 91.0116 78.5744 64.0963
internal_count=3952 689 3263 1110 2153 1279 647 463 464 1017 488 874 705 529 484 375
is_linear=0
shrinkage=0.13


Tree=10
num_leaves=18
num_cat=0
split_feature=0 12 17 15 4 4 2 31 2 25 10 21 5 3 5 4 14
split_gain=17.848 16.0702 13.2831 14.8596 15.7779 14.6376 11.1747 9.61699 9.67844 9.16027 8.54925 5.67992 5.9741 5.29656 8.09464 3.71953 1.61026
threshold=0.68775000000000008 46.261582323592307 187.50000000000003 107.28376635341812 71.500000000000014 117.50000000000001 0.50833333333333341 7.1850000000000014 0.9866666666666668 36.250000000000014 58.500000000000007 21.494897959183678 167.50000000000003 147.61250000000004 143.50000000000003 95.500000000000014 94.500000000000014
decision_type=2 2 2 2 2 2 2 2 2 2 2 2 2 2 2 2 2
left_child=1 -1 3 4 -3 11 10 8 -8 -2 15 12 -6 14 -9 -5 -16
right_child=9 2 -4 6 5 -7 7 13 -10 -11 -12 -13 -14 -15 16 -17 -18
leaf_value=0.08118013239626809 0.10340232793058909 0.087379420188395604 0.046617716607031609 0 -0.015936877793243005 0.066598323116369512 -0.055594786611338161 -0.028257646855547356 0.029566705103011792 0.011953285943712443 0.039775264083081859 0.0092298229980909575 -0.089012573738325551 -0.035502068711255608 -0.093368157718425479 -0.062883062615318494 -0.13689207556489733
leaf_weight=32.080119535326958 38.153302013874054 36.097300387918949 57.121820062398911 30.531570188701153 40.589185416698456 34.120467141270638 48.448100939393044 29.184057675302029 41.583463303744793 36.35035365074873 49.25946743786335 40.716600224375725 35.973704881966114 52.200536541640759 46.634185925126076 32.32971914857626 27.012345239520073
leaf_count=171 186 176 323 172 236 164 287 184 221 194 278 192 205 300 315 177 171
internal_value=0 -0.00801806 -0.0128248 -0.0190969 0.0104919 -0.00791186 -0.0346504 -0.0501886 -0.0161913 0.0591253 -0.000565714 -0.0297775 -0.0505968 -0.0698063 -0.0869833 -0.0323594 -0.109929
internal_weight=0 633.883 601.803 544.681 187.497 151.4 357.183 245.063 90.0316 74.5037 112.121 117.279 76.5629 155.031 102.831 62.8613 73.6465
internal_count=3952 3572 3401 3078 973 797 2105 1478 508 380 627 633 441 970 670 349 486
is_linear=0
shrinkage=0.13


Tree=11
num_leaves=18
num_cat=0
split_feature=25 8 19 14 21 26 22 18 14 22 24 9 8 6 9 13 26
split_gain=16.5247 14.0124 14.2931 9.91063 8.95397 9.72814 9.87768 6.06925 5.59384 8.557 6.27069 6.63626 5.8695 3.89366 5.99598 2.216 1.98569
threshold=34.807407407407418 150.50000000000003 83.500000000000014 65.500000000000014 21.494897959183678 37.201851851851863 6.5000000000000009 99.015877016129053 83.500000000000014 6.5000000000000009 37.123174603174611 75.482424242424258 111.50000000000001 100.11250000000001 76.093466107617061 47.500000000000007 37.453703703703702
decision_type=2 2 2 2 2 2 2 2 2 2 2 2 2 2 2 2 2
left_child=-1 2 -2 -4 7 -6 -7 8 12 -10 11 -11 16 14 -8 -13 -5
right_child=1 -3 3 4 5 6 13 -9 9 10 -12 15 -14 -15 -16 -17 -18
leaf_value=0.071277734336912632 0.057005791408691282 0.071750894438606758 0.054386067162602483 -0.067204692285353113 0.057415451831826982 0.047287691334546217 -0.048394797322037414 0.0061245905962402578 0.014305501943904231 -0.023464216640938257 -0.0030337775472539948 -0.11425021016864016 -0.02380825887273547 -0.067529850407705178 0.027426554716942442 -0.061739115275555118 -0.11725108719800688
leaf_weight=49.478818215429783 47.784660033881664 36.27933344244957 30.935014836490154 31.933598779141903 41.754658326506615 33.633344262838364 39.805352114140987 56.451772406697273 57.774316526949406 44.814693778753281 43.967120438814163 31.61830036342144 35.552814148366451 36.47622349858284 31.048550546169281 28.099013410508633 27.819863930344582
leaf_count=228 238 176 176 211 204 159 200 322 337 270 283 208 197 186 177 184 196
internal_value=0 -0.00641801 -0.0110421 -0.0167719 -0.0208864 0.00248325 -0.0138082 -0.0328307 -0.0401516 -0.027974 -0.0444801 -0.0617694 -0.0662478 -0.0331138 -0.0150652 -0.0901114 -0.0911105
internal_weight=0 655.749 619.469 571.685 540.75 182.718 140.963 358.031 301.58 206.273 148.499 104.532 95.3063 107.33 70.8539 59.7173 59.7535
internal_count=3952 3724 3548 3310 3134 926 722 2208 1886 1282 945 662 604 563 377 392 407
is_linear=0
shrinkage=0.13


Tree=12
num_leaves=17
num_cat=0
split_feature=15 24 3 8 17 5 29 6 19 30 3 26 24 6 12 26
split_gain=14.1243 20.581 9.858 12.1091 10.756 9.6251 9.84357 8.35077 7.43759 9.65271 7.23796 6.03706 6.00565 5.59387 5.41795 5.10911
threshold=107.85714285714288 36.59831196581198 130.61250000000004 135.50000000000003 184.50000000000003 273.50000000000006 87.857705600000017 82.749920255183426 90.500000000000014 7.3434166666666689 110.29583333333336 37.529629629629639 36.94444444444445 77.561951754385987 64.280711354309176 37.431481481481491
decision_type=2 2 2 2 2 2 2 2 2 2 2 2 2 2 2 2
left_child=1 -1 7 4 5 6 11 13 9 -3 -9 -4 -10 15 -12 -2
right_child=2 8 3 -5 -6 -7 -8 10 12 -11 14 -13 -14 -15 -16 -17
leaf_value=0.08464233231027142 -0.085018581053582898 0.058702151306450109 -0.010143262979705686 0.066224082853749908 0.054394129099090298 -0.065872464376441606 -0.045358605447706764 0.025005485055829803 0.0094350796447840116 -0.0259470486938452 -0.0053936538849933269 0.065479943410627961 -0.061650514053290292 -0.11694301870362882 -0.080501746488952086 -0.008702293377782111
leaf_weight=68.464609742164612 27.565611973404884 57.333047211170197 33.774309881031513 41.806004658341408 36.196950040757656 59.058048948645592 51.070187598466873 48.644578672945499 37.249223530292511 37.240815751254559 34.74298157542944 36.949336349964142 42.651500456035137 25.968583039939404 30.716315381228924 32.488261468708515
leaf_count=323 181 272 195 201 202 328 331 279 213 199 203 207 242 174 183 219
internal_value=0 0.0244015 -0.0143414 0.00238177 -0.00994505 -0.022939 -0.001939 -0.0359898 0.000609408 0.0252961 -0.012775 0.0293437 -0.0284831 -0.0665309 -0.0409756 -0.0441236
internal_weight=0 242.939 458.981 258.855 217.049 180.852 121.794 200.126 174.475 94.5739 114.104 70.7236 79.9007 86.0225 65.4593 60.0539
internal_count=3952 1249 2703 1464 1263 1061 733 1239 926 471 665 402 455 574 386 400
is_linear=0
shrinkage=0.13


Tree=13
num_leaves=17
num_cat=0
split_feature=3 2 9 21 5 8 29 22 30 12 16 21 17 17 29 21
split_gain=12.4205 24.0504 15.1827 9.98825 9.34083 7.49697 8.56681 7.5769 7.37092 7.18652 6.67213 5.91007 5.39875 8.13822 5.40828 4.12691
threshold=162.70833333333334 0.94166666666666676 64.915073927154722 20.841531440162274 222.50000000000003 108.50000000000001 82.122755600000019 9.3333333333333339 7.2919375000000013 55.6186224489796 79.500000000000014 20.031874525676706 142.50000000000003 174.50000000000003 75.511534000000026 17.864895697522819
decision_type=2 2 2 2 2 2 2 2 2 2 2 2 2 2 2 2
left_child=2 9 -1 4 5 8 7 -7 -4 -2 -3 -11 -5 14 -14 -10
right_child=1 10 3 12 -6 6 -8 -9 15 11 -12 -13 13 -15 -16 -17
leaf_value=0.058071011400573601 0.035125794651280205 0.1200316648462726 0.0053706139755654112 0.037480064521371814 -0.093728132404192185 0.058427736400947256 -0.043998603641934322 -0.023026550839470503 -0.095509193017597444 -0.078353874409072724 0.043979221790145649 -0.0024102299194190486 0.0080204792010202929 0.043650785515137493 -0.057205513029890201 -0.037522548437145677
leaf_weight=47.956420347094536 34.759334705770016 39.06707326322794 31.413245782256126 59.086809650063515 37.809644773602486 45.512861594557762 51.279608339071274 32.942237183451653 44.367034576833248 31.526383616030216 40.721822708845139 38.60955822467804 35.495119594037533 33.813165284693241 53.047018468379974 41.189746744930744
leaf_count=246 178 174 200 290 235 239 322 190 338 192 213 187 179 180 290 299
internal_value=0 0.0279618 -0.0113178 -0.0185105 -0.0337024 -0.0243668 -0.00275376 0.0241518 -0.0481947 -0.0128873 0.0816303 -0.0368585 0.0052771 -0.0102517 -0.0310142 -0.0679196
internal_weight=0 184.684 513.913 465.956 284.514 246.705 129.735 78.4551 116.97 104.895 79.7889 70.1359 181.442 122.355 88.5421 85.5568
internal_count=3952 944 3008 2762 1823 1588 751 429 837 557 387 379 939 649 469 637
is_linear=0
shrinkage=0.13


Tree=14
num_leaves=16
num_cat=0
split_feature=4 3 2 10 30 30 5 3 30 22 27 3 25 12 15
split_gain=12.1537 10.2205 10.0231 12.4845 9.68091 13.9196 8.7934 9.30225 8.59015 8.67906 7.36631 6.37135 5.63427 4.67029 3.2085
threshold=58.500000000000007 147.61250000000004 0.94166666666666676 57.500000000000007 7.3334615384615391 7.4388486842105275 179.50000000000003 126.51785714285715 7.0429166666666676 6.5000000000000009 91.03082996000002 110.29583333333336 36.250000000000014 59.704793028322442 115.29782945736436
decision_type=2 2 2 2 2 2 2 2 2 2 2 2 2 2 2
left_child=-1 4 3 12 8 6 7 11 -2 -10 -4 -6 -3 -11 -8
right_child=1 2 10 -5 5 -7 14 -9 9 13 -12 -13 -14 -15 -16
leaf_value=0.057601400829899806 -0.04551686733085912 -2.0676292350207045e-05 0.076591170339598044 0.046561456570206647 -0.019397170006481352 0.030570472551860229 -0.12232980920705083 0.028698539565622013 0.069814571347882035 0.026106535527158355 0.0064969010344090696 -0.089055985132064933 -0.065106866428072688 -0.031512641953904387 -0.057675353555423872
leaf_weight=54.934172868728638 44.935009613633156 41.267935559153557 57.48300863057375 46.798010997474194 45.540353611111641 41.213145524263382 32.385963775217533 30.538133256137371 40.762013614177704 48.842300295829773 45.775484874844551 44.162910990417004 49.822989396750927 45.737046740949154 24.235521908849478
leaf_count=263 268 205 275 261 281 245 220 196 205 259 244 303 277 279 171
internal_value=0 -0.00596003 0.0151307 -0.00775134 -0.0187521 -0.037163 -0.0530221 -0.0328799 0.00349272 0.0198941 0.0457108 -0.0539693 -0.0358134 -0.0016724 -0.0952508
internal_weight=0 639.5 241.147 137.889 398.352 218.076 176.863 120.241 180.276 135.341 103.258 89.7033 91.0909 94.5793 56.6215
internal_count=3952 3689 1262 743 2427 1416 1171 780 1011 743 519 584 482 538 391
is_linear=0
shrinkage=0.13


Tree=15
num_leaves=19
num_cat=0
split_feature=24 6 8 29 18 22 16 30 31 1 18 12 24 31 2 5 7 13
split_gain=11.1748 13.2091 10.3893 8.51975 9.67572 11.3598 9.06712 8.16851 6.80202 6.62673 5.03341 5.48838 4.83431 4.68493 4.57867 4.11828 3.81698 3.38686
threshold=36.424802410065574 83.2346683354193 141.50000000000003 89.855608000000018 94.48999599839938 6.5000000000000009 70.500000000000014 7.3423611111111109 7.3750000000000009 0.30100000000000005 98.693712969058595 67.449534161490689 37.123174603174611 7.3283333333333349 0.80833333333333357 185.50000000000003 69.500000000000014 42.500000000000007
decision_type=2 2 2 2 2 2 2 2 2 2 2 2 2 2 2 2 2 2
left_child=1 -1 3 4 -2 7 -5 -6 14 -7 11 12 13 -11 16 -4 -8 -16
right_child=2 -3 15 6 5 9 8 -9 -10 10 -12 -13 -14 -15 17 -17 -18 -19
leaf_value=-0.0057838828739469944 0.063646734568841332 0.090680227584204909 0.0067550939313818495 0.029957394486782439 0.071014369757029835 0.028642169712366019 -0.066101469717648964 -0.0071519091980659748 0.010666819463315769 -0.024441251491197323 0.010090763648430295 -0.093624566541866988 0.0098460684233178282 -0.088372106291095209 -0.052427479669414183 0.069185637230904304 0.00083627393961522385 -0.10986422941848802
leaf_weight=49.868179373443127 34.200150392949581 45.589473992586136 35.548648454248905 29.103659428656101 42.336594976484776 32.254386819899082 28.439839839935303 47.575876377522945 26.746070668101311 52.533676028251648 33.687648415565491 31.262191973626614 32.93216722458601 31.265137813985348 35.380290135741234 36.471584424376488 28.312956482172012 37.710228107869625
leaf_count=257 177 203 184 158 201 179 199 277 176 310 192 204 188 198 241 165 178 265
internal_value=0 0.0403263 -0.00751779 -0.0139012 -0.00157673 -0.00900169 -0.0362511 0.0296629 -0.0486472 -0.0253122 -0.0349713 -0.0452899 -0.0320674 -0.0486244 -0.0609316 0.0386469 -0.0327134 -0.0825024
internal_weight=0 95.4577 595.761 523.741 338.048 303.848 185.693 89.9125 156.589 213.935 181.681 147.993 116.731 83.7988 129.843 72.0202 56.7528 73.0905
internal_count=3952 460 3492 3143 1926 1749 1217 478 1059 1271 1092 900 696 508 883 349 377 506
is_linear=0
shrinkage=0.13


Tree=16
num_leaves=18
num_cat=0
split_feature=0 13 4 12 4 0 30 17 15 5 17 18 3 27 6 31 4
split_gain=9.56077 9.08247 10.4017 8.37628 16.2743 9.29591 12.5128 9.01192 8.327 7.09602 6.88363 6.26212 5.04199 4.46922 6.53282 6.99165 4.3045
threshold=0.67780830280830284 25.500000000000004 117.50000000000001 59.2972709551657 69.500000000000014 0.44309523809523815 7.2801428571428586 181.50000000000003 109.15037593984964 190.50000000000003 138.50000000000003 96.503424657534268 133.0263157894737 94.261360700000012 92.137307692307715 7.2283333333333344 85.500000000000014
decision_type=2 2 2 2 2 2 2 2 2 2 2 2 2 2 2 2 2
left_child=1 -1 3 4 -3 -6 -7 10 -2 -4 -5 -11 16 14 15 -12 -8
right_child=8 2 9 7 5 6 12 -9 -10 11 13 -13 -14 -15 -16 -17 -18
leaf_value=0.057837543124925499 0.089529493684313122 0.07288768093192638 0.074003158190323409 -0.0056858496123576695 0.027994166838853342 0.035324086920659518 -0.047702688417818356 0.017058777065617443 0.0048614461052755437 -0.039063966450384048 0.025741135390332359 0.030948961872548975 -0.024165448549577671 -0.10299825751904368 -0.086116571361822894 -0.059423792588927861 -0.12341807244881921
leaf_weight=34.660891093313694 34.188284270465374 40.706240803003311 33.234271839261055 49.190639309585094 50.415615953505039 28.847772248089314 25.117051333189011 43.593228071928024 46.235303781926632 34.840281762182713 28.533941149711609 55.633722916245461 35.370337504893541 34.82524873688817 46.81206851452589 36.986278675496578 27.879530195146799
leaf_count=173 161 207 188 285 278 152 175 255 251 186 180 285 226 241 268 255 186
internal_value=0 -0.00646285 -0.0104025 -0.0196215 -0.000500484 -0.0184709 -0.0385533 -0.0361654 0.0411592 0.0228983 -0.0480362 0.00384903 -0.0628102 -0.062092 -0.0490969 -0.0222463 -0.0881594
internal_weight=0 606.647 571.986 448.278 208.337 167.63 117.215 239.941 80.4236 123.708 196.348 90.474 88.3669 147.158 112.332 65.5202 52.9966
internal_count=3952 3540 3367 2708 1224 1017 739 1484 412 659 1229 471 587 944 703 435 361
is_linear=0
shrinkage=0.13


Tree=17
num_leaves=18
num_cat=0
split_feature=25 24 21 11 22 19 15 13 27 10 4 16 27 16 6 12 6
split_gain=9.29032 10.1969 7.9458 9.89693 8.96218 10.6154 16.6166 8.31278 7.27942 7.05373 10.5415 6.40616 5.96302 4.54981 4.46085 3.59552 2.10984
threshold=35.250000000000007 36.294658119658131 17.459166666666672 91.500000000000014 8.3333333333333339 89.500000000000014 122.18154761904763 34.500000000000007 95.343102244444466 56.500000000000007 100.50000000000001 78.500000000000014 80.71585326666667 76.500000000000014 92.137307692307715 61.126329787234049 83.081564986737419
decision_type=2 2 2 2 2 2 2 2 2 2 2 2 2 2 2 2 2
left_child=1 -1 3 -2 7 6 13 -4 14 11 -11 -7 15 -6 -9 -5 -14
right_child=2 -3 4 12 5 9 -8 8 -10 10 -12 -13 16 -15 -16 -17 -18
leaf_value=0.091997224749350431 0.035451360752509195 -0.00067566513889899852 0.081809287649843271 -0.054549360003756438 0.075174241175697737 -0.020214910180607757 -0.06109359440412513 0.061883233607853409 -0.037242177350757764 -0.049531968105487593 0.046623411624288312 -0.086210446694042694 -0.10774804851764906 0.019066878215579348 -0.00068491640319375414 0.0069141484418064831 -0.051812929858442831
leaf_weight=35.750881105661392 28.015106867998838 44.823147736489773 36.418054059147835 31.450385443866253 43.165976516902447 49.187117248773575 34.238739497959614 41.494144842028618 36.271530210971832 38.524639047682285 37.958818130195141 51.392124831676483 28.158772546797991 57.73317688703537 35.180630259215832 32.030383720993996 22.093731842935085
leaf_count=160 181 226 181 188 197 261 208 237 212 273 227 325 241 313 173 197 152
internal_value=0 0.0405134 -0.00640681 -0.0332978 0.00184753 -0.0106607 0.0167145 0.0280231 0.0104349 -0.0315986 -0.00169557 -0.0541772 -0.0503592 0.0433069 0.0331625 -0.0235037 -0.0837744
internal_weight=0 80.574 603.313 141.748 461.565 312.201 135.138 149.364 112.946 177.063 76.4835 100.579 113.733 100.899 76.6748 63.4808 50.2525
internal_count=3952 386 3566 959 2607 1804 718 803 622 1086 500 586 778 510 410 385 393
is_linear=0
shrinkage=0.13


Tree=18
num_leaves=18
num_cat=0
split_feature=24 8 12 21 32 18 19 27 17 17 25 23 5 29 0 22 15
split_gain=11.3223 7.398 10.2976 8.62528 8.4294 7.3644 7.17278 5.95084 6.1958 9.84976 5.52083 5.23738 5.75203 4.64362 3.66754 2.09725 1.13855
threshold=36.013986013986013 108.50000000000001 52.914769975786932 17.864895697522819 7.5033333333333347 97.960392156862767 84.500000000000014 57.480162400000005 138.50000000000003 173.50000000000003 36.105555555555561 30.500000000000004 190.50000000000003 74.276505200000017 0.45392307692307693 8.3333333333333339 113.82936507936508
decision_type=2 2 2 2 2 2 2 2 2 2 2 2 2 2 2 2 2
left_child=-1 3 -3 13 6 11 -4 -8 -9 10 -10 -5 -13 -2 -12 -15 -16
right_child=1 2 4 5 -6 -7 7 8 9 -11 14 12 -14 15 16 -17 -18
leaf_value=0.077739228198982741 -0.016644806066071782 0.055545302546476036 0.039989566154238557 -0.054275694117063684 0.054738565532990203 0.039293817153923494 0.034547310243007757 0.013312728325598643 -0.10359467932072786 0.011281418973477236 -0.0026606043583419082 0.034099069633056443 -0.038318428040447779 -0.10069162059992194 -0.040541926708345749 -0.047476156670777772 -0.079184250305507561
leaf_weight=29.335027568042278 35.248336263000965 61.487412713468075 41.454254761338234 48.076708592474461 38.376519165933132 47.194030500948429 31.239809215068817 51.789576090872288 32.698246784508228 48.367045477032661 29.300252377986908 39.93277857080102 34.08174392208457 30.416991546750069 29.378716744482517 24.205785755068064 27.295942902565002
leaf_count=129 226 306 194 331 201 267 161 271 180 277 170 241 191 251 164 208 184
internal_value=0 -0.00443392 0.00682859 -0.0214667 -0.00226457 -0.00410272 -0.00984665 -0.0181811 -0.0257859 -0.0379645 -0.0580905 -0.0210053 0.000610839 -0.0539549 -0.0403887 -0.0776505 -0.0596212
internal_weight=0 650.544 391.388 259.156 329.9 169.285 291.524 250.07 218.83 167.04 118.673 122.091 74.0145 89.8711 85.9749 54.6228 56.6747
internal_count=3952 3823 2108 1715 1802 1030 1601 1407 1246 975 698 763 432 685 518 459 348
is_linear=0
shrinkage=0.13


Tree=19
num_leaves=19
num_cat=0
split_feature=24 3 2 5 7 5 24 4 4 2 21 22 31 14 16 18 29 0
split_gain=8.53199 7.01592 13.2104 7.96106 7.70187 10.4807 9.20595 8.11514 9.44935 6.93528 6.59878 5.9039 5.66318 4.61018 4.01697 3.0746 2.59766 2.81988
threshold=36.013986013986013 162.70833333333334 0.94166666666666676 331.50000000000006 64.166666666666671 180.50000000000003 37.318350168350179 82.500000000000014 92.500000000000014 0.7250000000000002 19.232230392156865 9.3333333333333339 7.1850000000000014 89.500000000000014 79.500000000000014 97.114379084967354 70.019031333333345 0.51544230769230792
decision_type=2 2 2 2 2 2 2 2 2 2 2 2 2 2 2 2 2 2
left_child=-1 4 3 15 10 6 7 -6 -9 -10 16 -12 -7 -14 -4 -3 -2 -18
right_child=1 2 14 -5 5 12 -8 8 9 -11 11 -13 13 -15 -16 -17 17 -19
leaf_value=0.067046227070572659 -0.025723219479233353 -0.014233810002295713 0.090134060654910184 -0.061893029783251709 0.076631717115802689 0.0058501396704078532 -0.028867812025177002 -0.051715619938101517 -0.0012332879253761037 0.082660626718974797 0.036919564759516493 -0.03433953690222611 -0.092687652593592934 -0.020477312270099329 0.029479334744231166 0.042415763029009262 -0.04850606074068109 -0.10555012585241476
leaf_weight=29.616023033857346 32.24157127737999 31.428086303174496 36.465268202126026 35.598143994808197 50.794056016951799 37.077193006873131 51.574356999248266 27.387299168854952 34.674820743501186 31.367403030395508 32.074373930692673 49.593168802559376 31.512784104794264 29.315070994198322 39.11785913258791 32.5223478525877 38.450908780097961 25.552613101899624
leaf_count=129 201 176 160 200 272 194 306 180 203 182 168 299 204 180 205 170 294 229
internal_value=0 -0.00397339 0.0182058 -0.0128301 -0.0122349 0.000670575 0.0180613 0.0349303 0.0119948 0.0386629 -0.0335571 -0.00621037 -0.0339666 -0.0582981 0.059095 0.0144954 -0.0565792 -0.0717951
internal_weight=0 646.747 175.132 99.5486 471.616 293.703 195.798 144.224 93.4295 66.0422 177.913 81.6675 97.905 60.8279 75.5831 63.9504 96.2451 64.0035
internal_count=3952 3823 911 546 2912 1721 1143 837 565 385 1191 467 578 384 365 346 724 523
is_linear=0
shrinkage=0.13


Tree=20
num_leaves=18
num_cat=0
split_feature=32 30 24 32 6 15 23 19 8 22 5 19 16 3 21 25 26
split_gain=6.55244 7.70326 11.2951 10.8009 7.72751 6.82952 6.17245 7.44517 5.57338 6.01677 6.50386 5.21746 4.81718 4.74439 4.0945 3.48668 3.14657
threshold=7.1683333333333339 7.289496336996339 36.681188175753398 7.5250000000000012 103.89814814814817 97.745370370370395 35.166666666666679 95.500000000000014 108.50000000000001 2.5000000000000004 167.50000000000003 90.500000000000014 84.500000000000014 137.10010111223463 21.284366576819412 36.092592592592602 37.605555555555561
decision_type=2 2 2 2 2 2 2 2 2 2 2 2 2 2 2 2 2
left_child=-1 2 -2 5 12 -3 7 8 14 -10 -11 -12 -4 -8 15 -7 -17
right_child=1 3 4 -5 -6 6 13 -9 9 10 11 -13 -14 -15 -16 16 -18
leaf_value=-0.059503016026177996 0.072306248837094717 0.045242869171883297 -0.038911608096034542 0.054753871969204275 0.058313346033729035 -0.10177699685370145 -0.018919098090915333 0.031049782690228518 0.032800300040806286 0.0083414168763367141 -0.023726014941111241 -0.098005550674035796 0.018498927494502156 0.037404526908331202 -0.010723654325090112 -0.075141100192573848 -0.0090635258386701726
leaf_weight=30.398386847227812 56.850343704223633 30.352097049355507 58.078047558665276 42.679240416735411 32.146421208977699 36.248689398169518 50.3861467204988 31.177315648645163 30.110106430947781 39.946230880916119 35.595182187855244 29.734080173075199 42.344535917043686 49.955998495221138 25.253393903374672 29.73548312485218 21.213789314031601
leaf_count=188 277 148 307 243 154 264 303 185 161 242 191 186 260 253 137 267 186
internal_value=0 0.00198169 0.0239824 -0.00721957 0.00307826 -0.0137317 -0.0185051 -0.0284496 -0.0359987 -0.0180731 -0.0327599 -0.0579561 -0.0146298 0.00905854 -0.0573974 -0.0707303 -0.0480129
internal_weight=0 641.807 189.419 452.388 132.569 409.709 379.356 279.014 247.837 135.386 105.275 65.3293 100.423 100.342 112.451 87.198 50.9493
internal_count=3952 3764 998 2766 721 2523 2375 1819 1634 780 619 377 567 556 854 717 453
is_linear=0
shrinkage=0.13


Tree=21
num_leaves=17
num_cat=0
split_feature=14 0 24 5 31 14 12 4 0 29 0 17 17 32 21 17
split_gain=8.68197 7.0446 7.47506 6.7474 7.60359 6.36017 12.1986 8.74527 8.76404 5.566 4.76626 7.18609 5.44959 6.09231 3.64261 3.15956
threshold=63.500000000000007 0.67780830280830284 36.816849816849832 118.50000000000001 7.2616666666666676 99.500000000000014 64.473137192197001 68.500000000000014 0.52148629148629155 78.616666666666688 0.53747957516339884 157.50000000000003 142.50000000000003 7.3983333333333352 17.564313725490198 167.50000000000003
decision_type=2 2 2 2 2 2 2 2 2 2 2 2 2 2 2 2
left_child=-1 3 -3 -2 5 7 -7 -5 9 -9 12 -12 -6 -14 -15 -16
right_child=1 2 -4 4 10 6 -8 8 -10 -11 11 -13 13 14 15 -17
leaf_value=0.068134689558911443 -0.053960834125586034 0.080136884662633842 -0.0019409802080618457 0.058576878856966656 0.028460258904109168 0.090868785702693522 -0.0045030811137658066 0.04185528980559982 -0.058934701648607708 -0.021753114476879738 -0.079065996293465404 0.0033217326157749969 -0.077056757844928825 -0.043946297308974071 -0.016527798898645668 0.041354817071949504
leaf_weight=29.220672130584717 51.034421008080244 32.353607773780823 43.542732648551464 31.067496806383133 47.208344809710979 40.93222576379776 49.910164855420589 42.12144348025322 53.320484094321728 51.028386805206537 47.243180807679892 28.324238069355488 27.399681862443686 30.906038481742144 33.957953859120607 29.356266051530838
leaf_count=159 321 165 230 147 277 215 288 208 318 299 340 202 184 220 211 168
internal_value=0 -0.00398112 0.0331001 -0.00900334 -0.0044832 0.0105958 0.0385226 -0.00368213 -0.0170394 0.00695323 -0.0210721 -0.0481708 -0.00882719 -0.0234087 -0.00752276 0.0102332
internal_weight=0 639.707 75.8963 563.81 512.776 268.38 90.8424 177.538 146.47 93.1498 244.396 75.5674 168.828 121.62 94.2203 63.3142
internal_count=3952 3793 395 3398 3077 1475 503 972 825 507 1602 542 1060 783 599 379
is_linear=0
shrinkage=0.13


Tree=22
num_leaves=18
num_cat=0
split_feature=14 21 25 16 10 25 17 11 30 9 29 11 25 26 28 32 12
split_gain=6.44938 6.3005 12.3528 5.73547 12.6633 10.4421 8.51875 8.31762 7.49121 7.30166 6.99869 5.31256 4.80034 4.44946 3.85869 3.55431 4.22985
threshold=63.500000000000007 17.059411764705889 34.861111111111121 80.500000000000014 55.500000000000007 36.412962962962972 148.50000000000003 126.50000000000001 7.2767948717948725 72.035936494314527 90.057462933333341 92.500000000000014 36.555555555555564 37.807407407407418 75.651585733333334 7.3883333333333345 61.126329787234049
decision_type=2 2 2 2 2 2 2 2 2 2 2 2 2 2 2 2 2
left_child=-1 11 -3 5 13 8 -7 10 -4 -10 12 -2 -6 14 -5 -13 -17
right_child=1 2 3 4 7 6 -8 -9 9 -11 -12 15 -14 -15 -16 16 -18
leaf_value=0.057936447469594053 0.024645450924760722 0.079195648669124735 0.085261197994804347 -0.11044870510172192 0.022041193343414495 -0.061452517151371774 0.022427830387939714 -0.041536470141845507 -0.02102528017724847 0.054332129879014507 -0.017394721681569306 -0.081279441362045096 0.088380231877399879 -0.018043980260732485 -0.04214701732468213 -0.057531148892530623 0.0031450754341928516
leaf_weight=29.895925976336002 24.750178061425686 33.275867447257042 38.240373052656651 27.575004249811172 51.060882560908794 43.397728145122528 38.066963087767363 44.580661926418543 43.739108700305223 42.465586274862289 44.621093813329935 28.237791694700718 29.28867120295763 39.343059919774532 30.464370027184486 38.173298969864845 38.611549448221922
leaf_count=159 158 153 176 164 309 237 202 287 221 222 315 190 175 235 205 277 267
internal_value=0 -0.00355846 0.0029819 -0.00240759 -0.0149918 0.0138602 -0.0222049 0.00642906 0.037539 0.0160493 0.023669 -0.0290858 0.0465665 -0.052289 -0.0751415 -0.0418678 -0.0270048
internal_weight=0 635.892 506.119 472.844 266.934 205.91 81.4647 169.551 124.445 86.2047 124.971 129.773 80.3496 97.3824 58.0394 105.023 76.7848
internal_count=3952 3793 2901 2748 1690 1058 439 1086 619 443 799 892 484 604 369 734 544
is_linear=0
shrinkage=0.13


Tree=23
num_leaves=18
num_cat=0
split_feature=30 30 19 12 10 4 12 31 9 18 28 11 7 7 2 22 19
split_gain=5.23166 7.55824 10.1801 6.13024 9.45546 7.27484 9.20586 5.83358 7.30079 6.30194 5.93557 4.79573 5.52819 6.46707 5.90543 5.9815 4.66282
threshold=7.4496428571428579 7.3513484848484856 85.500000000000014 65.355287569573292 60.500000000000007 68.500000000000014 62.484897959183677 6.0833333333333348 65.708640903169794 97.979326513214019 71.463419600000023 125.50000000000001 66.500000000000014 72.500000000000014 0.6083333333333335 8.3333333333333339 91.333333333333357
decision_type=2 2 2 2 2 2 2 2 2 2 2 2 2 2 2 2 2
left_child=1 3 -3 5 -5 -1 7 -7 -9 10 -10 12 14 -14 -4 -16 -15
right_child=-2 2 11 4 -6 6 -8 8 9 -11 -12 -13 13 16 15 -17 -18
leaf_value=0.062286349951370945 0.036950648312135931 0.042982458142324403 -0.00020281142702623762 -0.058262534702449215 0.021131013739187944 0.037057183971834814 0.072385881947978875 0.038467549860880648 -0.0052042158549618503 0.01531044228127155 -0.078926972882031279 -0.07125745397996476 0.049829622609469076 0.010872331804089972 -0.031268679158230298 -0.12644328317866679 -0.06442902443224012
leaf_weight=49.617994211614132 56.569408942013979 33.866121497005224 26.796951003372669 52.35731528326869 48.459728859364986 45.230487070977688 31.183734983205795 31.721352133899927 29.702143289148808 33.398947510868311 49.876259230077267 44.682418365031481 28.616685461252928 27.90171379968524 23.816252306103706 21.717257689684629 26.928701311349869
leaf_count=233 320 187 175 302 299 243 179 156 154 184 306 301 196 166 186 183 182
internal_value=0 -0.00428744 -0.0225658 0.00722439 -0.0200593 0.0174287 0.00725306 -0.00348705 -0.0162721 -0.0317811 -0.0516432 -0.0337311 -0.0227965 0 -0.0490238 -0.0773738 -0.0260895
internal_weight=0 605.874 234.326 371.548 100.817 270.731 221.113 189.929 144.699 112.977 79.5784 200.46 155.778 83.4471 72.3305 45.5335 54.8304
internal_count=3952 3632 1576 2056 601 1455 1222 1043 800 644 460 1389 1088 544 544 369 348
is_linear=0
shrinkage=0.13


Tree=24
num_leaves=17
num_cat=0
split_feature=24 16 16 19 8 29 3 5 0 3 3 16 16 16 13 22
split_gain=5.07019 6.3324 7.45135 6.20625 7.249 6.4802 6.1203 15.6172 7.96385 5.20069 6.03053 4.415 3.94108 6.07452 3.16237 2.16652
threshold=36.013986013986013 105.50000000000001 97.500000000000014 89.500000000000014 135.50000000000003 103.6002064 109.07000000000001 123.50000000000001 0.50910894660894668 126.84659090909092 148.08333333333334 74.500000000000014 87.500000000000014 80.500000000000014 36.500000000000007 10.500000000000002
decision_type=2 2 2 2 2 2 2 2 2 2 2 2 2 2 2 2
left_child=-1 2 3 5 6 12 7 -5 9 -8 -11 -10 13 14 -2 -13
right_child=1 -3 -4 4 -6 -7 8 -9 11 10 -12 15 -14 -15 -16 -17
leaf_value=0.051943051987827782 0.0083803810773799767 0.045045336421346768 -0.057561224147618981 -0.050703768310944843 0.028227250370944704 -0.030217747510720875 -0.057052416362348118 0.084702659016738763 -0.018441618531078386 0.049953054503895318 -0.02070898812930624 -0.10708311459679928 0.063850306783105243 -0.028105856419725479 0.053257301918717539 -0.053415040569690188
leaf_weight=29.200178131461143 52.742101520299911 42.521834019571543 44.727269664406776 29.700101833790541 55.545893639326096 44.68501278012991 32.671114955097437 27.351923245936632 24.481136489659548 30.587816715240479 59.829227302223444 33.09995710849762 35.13938556984067 39.351795546710491 54.550725325942039 23.743364106863737
leaf_count=129 244 281 302 197 286 265 224 157 150 210 339 281 206 218 274 189
internal_value=0 -0.00320137 -0.0067251 -0.00249619 -0.0142468 0.0139093 -0.0233261 0.0141542 -0.0338366 -0.0128311 0.00317873 -0.0653593 0.0248372 0.0153193 0.0313637 -0.0852102
internal_weight=0 630.729 588.207 543.48 317.011 226.469 261.465 57.052 204.413 123.088 90.417 81.3245 181.784 146.645 107.293 56.8433
internal_count=3952 3823 3542 3240 2033 1207 1747 354 1393 773 549 620 942 736 518 470
is_linear=0
shrinkage=0.13


Tree=25
num_leaves=17
num_cat=0
split_feature=32 14 30 19 30 8 29 12 11 2 3 7 11 5 2 9
split_gain=5.14551 4.54092 4.83849 8.40894 7.09081 5.28693 6.00163 6.67946 6.22053 6.56894 4.40071 6.11024 4.32461 3.97961 3.76877 3.66166
threshold=7.1683333333333339 63.500000000000007 7.3513484848484856 84.500000000000014 7.4268333333333345 138.50000000000003 103.6002064 64.361063464837059 97.500000000000014 0.84166666666666679 137.10010111223463 70.500000000000014 116.50000000000001 179.50000000000003 0.8583333333333335 76.8014679556033
decision_type=2 2 2 2 2 2 2 2 2 2 2 2 2 2 2 2
left_child=-1 -2 5 -4 10 6 7 8 -3 -10 13 -12 -9 15 -6 -5
right_child=1 2 3 4 14 -7 -8 12 9 -11 11 -13 -14 -15 -16 -17
leaf_value=-0.053845583353693334 0.051460758550735147 -0.005960966630844969 0.053589740563427746 -0.013989492781447345 -0.011454834206093603 0.046425373736014054 -0.037622068974131652 0.008180412562762817 0.015313635175723171 0.084467384095598549 0.018554012880163073 -0.056016992777769281 -0.05986868739611706 -0.10463427212530166 0.045980590962326942 -0.074954852819687653
leaf_weight=29.147818725556135 29.317801713943481 60.607486329972744 28.088993467390537 39.863427862524986 50.396537836641073 55.661170765757561 50.782954182475805 33.111837588250637 51.042674701660872 43.147439353168011 43.376451723277569 31.917479742318392 29.423171184957027 21.514233760535717 30.773368086665869 29.098862372338772
leaf_count=188 155 326 147 284 294 260 329 195 273 226 294 197 174 187 189 234
internal_value=0 0.00175938 -0.000682559 -0.0133684 -0.0210755 0.0100676 0.00244373 0.0118852 0.0263859 0.0472505 -0.036482 -0.0130303 -0.0238209 -0.0557941 0.0102947 -0.0400516
internal_weight=0 628.124 598.806 275.029 246.94 323.777 268.116 217.333 154.798 94.1901 165.77 75.2939 62.535 90.4765 81.1699 68.9623
internal_count=3952 3764 3609 1826 1679 1783 1523 1194 825 499 1196 491 369 705 483 518
is_linear=0
shrinkage=0.13


Tree=26
num_leaves=18
num_cat=0
split_feature=25 30 30 6 9 31 17 26 16 15 25 10 32 32 21 3 19
split_gain=4.25169 7.66373 8.00807 9.117 7.71557 8.04269 7.11066 5.61444 6.33111 7.71993 4.32958 7.54113 4.47649 4.12024 4.04317 3.71184 3.06957
threshold=36.435185185185183 7.4426785714285719 7.3382575757575763 87.020000000000024 71.040016006402581 7.0183333333333335 172.50000000000003 37.116666666666674 92.500000000000014 131.72172619047623 36.787037037037045 51.500000000000007 7.4383333333333352 7.4383333333333352 18.909902597402603 142.94254658385094 91.333333333333357
decision_type=2 2 2 2 2 2 2 2 2 2 2 2 2 2 2 2 2
left_child=1 2 4 15 5 -1 14 -2 10 -10 11 -9 -13 -5 -6 16 -4
right_child=7 -3 3 13 6 -7 -8 8 9 -11 -12 12 -14 -15 -16 -17 -18
leaf_value=0.0045800984703593412 -0.066710522450242296 0.064403893945301202 -0.098547889200355884 -0.018937114181160314 -0.059408678035060739 0.087850989517107861 0.049624126041332789 0.029625687993416947 0.075360705032288325 -0.012954815583281909 -0.055129283577867193 -0.007490440955819965 -0.077409568967141421 0.042332129464870666 -0.000488253544808573 -0.013887250926407715 -0.034995638383597351
leaf_weight=35.790356248617172 29.646528903394938 36.297936722636223 28.331786021590233 34.027000017464161 29.882491827011108 43.794455591589212 33.097206525504589 51.205659940838814 30.035178322345018 36.836672306060791 44.514450844377279 37.110846910625696 26.750380804762244 39.830660928040743 57.537896573543549 34.293621081858873 25.243245765566826
leaf_count=178 211 196 223 198 193 210 171 293 205 249 275 239 179 221 292 207 212
internal_value=0 0.00769666 0.00193575 -0.0195296 0.019333 0.0506695 -0.00135696 -0.013763 -0.00671473 0.0267303 -0.0208097 -0.00734883 -0.0371378 0.0140184 -0.0208623 -0.0477848 -0.0691222
internal_weight=0 398.127 361.829 161.726 200.102 79.5848 120.518 256.1 226.453 66.8719 159.581 115.067 63.8612 73.8577 87.4204 87.8687 53.575
internal_count=3952 2301 2105 1061 1044 388 656 1651 1440 454 986 711 418 419 485 642 435
is_linear=0
shrinkage=0.13


Tree=27
num_leaves=19
num_cat=0
split_feature=21 25 11 22 25 23 12 14 4 15 26 5 19 18 14 2 31 6
split_gain=3.99376 6.63587 6.43137 6.03558 6.40109 5.87193 5.39278 5.2078 4.95755 5.80586 4.46891 5.76123 6.06073 5.8125 4.12895 3.84973 2.88671 1.949
threshold=17.09524673439768 34.861111111111121 91.500000000000014 8.3333333333333339 36.435185185185183 36.166666666666679 59.121797752808995 91.500000000000014 105.50000000000001 110.42588071154516 37.027777777777793 139.50000000000003 89.500000000000014 97.545324036095181 83.500000000000014 0.9866666666666668 7.2533333333333347 86.01428571428572
decision_type=2 2 2 2 2 2 2 2 2 2 2 2 2 2 2 2 2 2
left_child=2 -2 -1 4 7 8 -7 -3 10 -10 -5 -12 -13 -14 -4 16 -16 -6
right_child=1 3 14 5 17 6 -8 -9 9 -11 11 12 13 -15 15 -17 -18 -19
leaf_value=0.034445729802052613 0.059348748157962421 0.016234604787101651 -0.078015863971390681 0.011421315889378454 0.018049005678276251 0.058663995384996781 -0.0070861379924986858 0.078780312737863609 0.046722908794722046 -0.02244306294616507 -0.089261185320857153 0.014988161293206554 -0.10315750303300389 -0.0089876998556195856 -0.00749750259091012 0.018377940232331861 -0.069452239048719042 -0.025541890590504306
leaf_weight=28.148228321224451 34.51324163377285 52.981298357248306 27.763936176896095 26.937702640891075 28.186092536896467 34.216776788234711 53.534560676664114 39.68332876637578 32.549846172332764 54.248906008899212 36.93229192122817 33.354983810335398 22.92116616666317 21.744284600019455 24.246212746948004 28.453543081879616 27.481095779687166 43.563767667859793
leaf_count=176 162 292 214 159 176 174 304 205 164 328 251 194 198 148 153 207 207 240
internal_value=0 0.00453011 -0.0204832 0.000543205 0.0207457 -0.00993414 0.0185572 0.0432797 -0.0209161 0.00345915 -0.0358678 -0.0470292 -0.0266652 -0.0578694 -0.0349447 -0.0196901 -0.0407908 -0.00828768
internal_weight=0 515.368 136.093 480.855 164.414 316.441 87.7513 92.6646 228.689 86.7988 141.89 114.953 78.0204 44.6655 107.945 80.1809 51.7273 71.7499
internal_count=3952 2995 957 2833 913 1920 478 497 1442 492 950 791 540 346 781 567 360 416
is_linear=0
shrinkage=0.13


Tree=28
num_leaves=17
num_cat=0
split_feature=16 15 0 32 17 11 15 0 32 3 7 4 7 8 4 3
split_gain=4.12461 6.21315 5.14151 6.3044 9.09354 6.88743 6.3088 7.6514 6.12095 5.93535 5.09888 4.71826 4.40556 4.34516 4.16243 3.33621
threshold=105.50000000000001 128.09286898839142 0.68775000000000008 7.4150000000000018 175.50000000000003 128.50000000000003 114.22918038183015 0.50782342657342661 7.3516666666666675 109.52777777777779 68.500000000000014 90.500000000000014 68.500000000000014 122.50000000000001 113.50000000000001 142.94254658385094
decision_type=2 2 2 2 2 2 2 2 2 2 2 2 2 2 2 2
left_child=1 2 3 8 5 6 9 -8 12 -5 -3 -10 -1 15 -13 -11
right_child=-2 10 -4 4 -6 -7 7 -9 11 13 -12 14 -14 -15 -16 -17
leaf_value=-0.047553713666289646 0.037584079986804846 -0.010172257812307841 0.036665381225428471 0.018304279383541608 0.052787538078860038 -0.086741811066083072 0.056816185021162417 -0.035162914286808788 0.059135057376956346 -0.095319696600328185 -0.07756093229138844 -0.018977548783954544 0.011293964902220415 -0.013396931313326208 0.043053139172030803 -0.033321305564297257
leaf_weight=36.783185504376888 44.049472074955702 47.922512646764517 62.140455435961485 28.467147909104824 27.371003948152065 27.575982082635164 34.798727806657553 26.707601264119148 56.432260885834694 36.111469881609082 31.650193806737661 40.109159991145134 50.575571212917566 37.875258520245552 32.981995519250631 26.282992620021105
leaf_count=225 289 321 319 160 155 178 218 213 336 286 197 259 271 189 181 155
internal_value=0 -0.00349141 0.0016371 -0.00307393 -0.0173616 -0.0262767 -0.0173458 0.0167517 0.0130384 -0.033708 -0.0372745 0.030968 -0.0134559 -0.0485753 0.00894898 -0.0696237
internal_weight=0 603.786 524.213 462.072 245.19 217.819 190.243 61.5063 216.882 128.737 79.5727 129.523 87.3588 100.27 73.0912 62.3945
internal_count=3952 3663 3145 2826 1554 1399 1221 431 1272 790 518 776 496 630 440 441
is_linear=0
shrinkage=0.13


Tree=29
num_leaves=18
num_cat=0
split_feature=2 2 29 24 2 11 3 3 10 17 5 23 6 29 13 9 30
split_gain=3.58892 5.13095 8.28123 9.02206 8.56368 7.72661 8.75295 14.8933 8.11595 6.90057 5.45871 4.5069 3.91739 3.40815 5.45056 3.15203 3.11408
threshold=0.40833333333333344 0.89666666666666672 87.317797733333336 36.648403575989796 0.6083333333333335 109.50000000000001 108.52777777777779 131.7416666666667 45.500000000000007 152.50000000000003 159.50000000000003 31.500000000000004 88.398113207547183 83.861900800000029 44.500000000000007 71.919165580182536 7.3499074074074082
decision_type=2 2 2 2 2 2 2 2 2 2 2 2 2 2 2 2 2
left_child=-1 2 4 -4 10 6 -3 15 -7 -6 -2 -5 -9 -10 -15 -8 -12
right_child=1 5 3 11 9 8 7 12 13 -11 16 -13 -14 14 -16 -17 -18
leaf_value=0.030290217208300125 -0.038999749175709204 0.056425760871235686 0.081978397715922732 0.020786218689491247 -0.031083972126870339 0.088148543951646938 -0.050100048914073048 -0.020307159693161773 0.039650425421192854 -0.10610791902532572 0.045851913993899436 -0.043126280416344871 0.036585341138208015 0.031982141615176679 -0.050877811884670499 -0.11992087020508557 -0.010340147033648273
leaf_weight=57.329593159258366 51.2646429464221 26.663983635604382 25.201081868261099 41.695327758789062 53.095422253012657 32.524387400597334 24.401368789374828 40.001877546310425 44.461685944348574 34.619361814111471 32.556457340717316 33.158344563096762 41.082603737711906 26.76199066825211 26.247191624715924 21.775596756488085 33.249978426843882
leaf_count=324 298 145 141 317 318 158 181 268 254 232 164 212 218 168 177 189 188
internal_value=0 -0.00370065 -0.0154167 0.0151471 -0.0303943 0.00884957 -0.0108086 -0.0250632 0.0321686 -0.06105 -0.00725414 -0.00746153 0.00843406 0.0131898 -0.00892835 -0.0837641 0.0174013
internal_weight=0 588.761 304.841 100.055 204.786 283.921 153.925 127.261 129.995 87.7148 117.071 74.8537 81.0845 97.4709 53.0092 46.177 65.8064
internal_count=3952 3628 1870 670 1200 1758 1001 856 757 550 650 529 486 599 345 370 352
is_linear=0
shrinkage=0.13


Tree=30
num_leaves=18
num_cat=0
split_feature=16 16 4 16 26 28 30 27 8 24 29 24 19 0 25 28 7
split_gain=3.49452 5.39148 4.59938 4.99506 6.94401 7.79177 13.3798 4.97554 4.15635 3.79551 6.44352 4.89744 4.97366 5.33337 3.24571 3.37264 2.8782
threshold=105.50000000000001 97.500000000000014 58.500000000000007 92.500000000000014 37.227777777777789 87.712346400000015 7.289496336996339 69.270827800000021 148.50000000000003 37.591969128076776 91.820177066666687 37.196210163652033 86.500000000000014 0.54405015062909812 36.44444444444445 101.05282840000002 67.500000000000014
decision_type=2 2 2 2 2 2 2 2 2 2 2 2 2 2 2 2 2
left_child=1 2 -1 4 5 6 -4 -8 9 10 11 12 -6 16 15 -12 -14
right_child=-2 -3 3 -5 8 -7 7 -9 -10 -11 14 -13 13 -15 -16 -17 -18
leaf_value=0.038474763590697354 0.034387776790114892 -0.04775610455883559 0.062191072205882846 0.035480390981111845 0.028673430009033916 0.063934458543950037 -0.0017430294394897288 -0.073391360863829178 0.029006214394131459 -0.058581425385649179 -0.062820678101169133 0.033921651917154398 0.01871203725205562 -0.075513077329980735 -0.087431253286467156 0.0042687121540835081 -0.035474137448956305
leaf_weight=48.006032142788172 44.422764748334885 42.489858761429787 34.272551435977221 49.717060219496489 31.385239005088806 40.725401047617197 33.129226639866829 32.66263441555202 28.034188330173492 43.227024253457785 24.771612269803882 44.773707646876574 31.282833473756909 30.307588823139668 24.461364310234785 25.051014356315136 34.343226138502359
leaf_count=233 289 305 172 339 151 247 192 225 136 257 183 252 195 211 201 167 197
internal_value=0 -0.00328363 0.000120827 -0.00350457 -0.00777213 0.0162035 -0.00326052 -0.0376168 -0.0184328 -0.0230808 -0.0167538 -0.00286129 -0.0159156 -0.0306402 -0.0486799 -0.0290768 -0.00953776
internal_weight=0 598.641 556.151 508.145 458.428 140.79 100.064 65.7919 317.638 289.604 246.377 172.093 127.319 95.9336 74.284 49.8226 65.6261
internal_count=3952 3663 3358 3125 2786 836 589 417 1950 1814 1557 1006 754 603 551 350 392
is_linear=0
shrinkage=0.13


Tree=31
num_leaves=18
num_cat=0
split_feature=1 14 26 16 3 15 1 6 2 14 3 3 0 6 26 29 30
split_gain=3.43281 3.76327 3.56319 10.3627 5.96507 4.94548 4.57759 4.04557 7.78961 5.98996 6.49626 9.1848 6.12547 5.61062 5.38514 6.61753 2.64833
threshold=0.29666666666666669 63.500000000000007 38.701851851851863 84.500000000000014 96.052631578947384 100.8887755102041 0.30100000000000005 99.000000000000014 0.94166666666666676 83.500000000000014 137.57310344827587 181.71818181818185 0.51881944444444461 85.279235382308855 37.30740740740741 81.928365466666676 7.346000000000001
decision_type=2 2 2 2 2 2 2 2 2 2 2 2 2 2 2 2 2
left_child=-1 -2 4 -4 -3 -6 -7 9 -9 13 14 12 -12 16 -11 -16 -8
right_child=1 2 3 -5 5 6 7 8 -10 10 11 -13 -14 -15 15 -17 -18
leaf_value=-0.044744576897959097 0.047308910195995799 0.040092417430082718 -0.012888221705091353 0.075947041709420501 0.024074725530308365 0.030089808899651758 -0.032899714466418505 -0.082418865979305367 -0.0014473300461096152 -0.061556439440518793 0.013100120049182323 -0.027324866527820412 0.0982166256475316 0.0015164555073977036 0.037314211447562459 -0.051958330115191395 -0.093534111332827963
leaf_weight=28.216089505702257 28.477424003183842 44.248112685978413 55.109663046896458 36.638856705278158 62.325915651395917 33.861883599311113 22.750570770353079 43.500848807394505 37.529979877173901 36.826012568548322 28.126706581562757 34.409678857773542 29.57609274610877 32.195950508117676 35.021820362657309 22.986354624852538 28.812858434394002
leaf_count=172 152 260 294 227 330 189 141 261 194 269 177 200 180 205 228 210 263
internal_value=0 0.00140113 -0.000844553 0.0226159 -0.00524716 -0.00976936 -0.0152773 -0.0196918 -0.0451672 -0.0119925 0.00091781 0.0255128 0.0571573 -0.0408198 -0.0228806 0.00170043 -0.0672904
internal_weight=0 612.399 583.921 91.7485 492.173 447.925 385.599 351.737 81.0308 270.706 186.947 92.1125 57.7028 83.7594 94.8342 58.0082 51.5634
internal_count=3952 3780 3628 521 3107 2847 2517 2328 455 1873 1264 557 357 609 707 438 404
is_linear=0
shrinkage=0.13


Tree=32
num_leaves=19
num_cat=0
split_feature=30 31 31 9 3 4 32 22 29 17 4 14 26 16 10 26 15 9
split_gain=3.03746 3.87626 5.66731 5.90205 5.64642 8.97122 6.1324 4.83204 7.38623 6.75328 8.32413 5.70274 4.21241 3.89271 3.75409 3.73594 3.65566 2.89947
threshold=7.0429166666666676 6.5516666666666676 7.0016666666666678 65.522711864406787 162.70833333333334 141.50000000000003 7.4383333333333352 13.500000000000002 57.580412400000007 153.50000000000003 73.500000000000014 91.500000000000014 37.431481481481491 86.500000000000014 54.500000000000007 37.650000000000013 106.70615384615387 79.595491388044579
decision_type=2 2 2 2 2 2 2 2 2 2 2 2 2 2 2 2 2 2
left_child=15 16 -3 -4 7 6 -6 8 -5 10 -10 14 -11 -9 -12 -1 -2 -14
right_child=1 2 3 4 5 -7 -8 13 9 12 11 -13 17 -15 -16 -17 -18 -19
leaf_value=0.0045670555235485903 -0.0071349163822569213 -0.050058340773992849 0.041548994049072752 0.040865633701394434 0.012834158576117674 -0.03497111137105096 0.085550059366122658 -0.010552414634170939 0.05811553727859322 -0.095317402277366056 -0.090957563897874752 0.021364109750547883 -0.064794037517339559 0.0527496383631871 -0.018737296080379034 -0.060321516128650693 0.048341503659510961 -0.0091942025806763597
leaf_weight=28.879359476268291 31.430297575891018 38.246499314904213 55.318880442529917 26.817337900400162 45.898024518042803 33.9507323987782 34.549968391656876 36.671300638467073 24.242939800024033 31.225432828068733 24.215382637456059 24.761828744783998 31.243105771020055 29.062402438372374 25.297959981486201 30.285093143582344 53.710682962089777 32.982142888009548
leaf_count=178 152 216 300 150 257 189 178 208 152 249 180 183 220 201 217 196 298 228
internal_value=0 0.00222249 -0.00217695 0.00184628 -0.00363531 0.0207162 0.0443713 -0.013401 -0.0226249 -0.0314976 -0.0074725 -0.0291448 -0.0561019 0.0174058 -0.0545646 -0.0286273 0.0278008 -0.0365521
internal_weight=0 579.625 494.484 456.237 400.919 114.399 80.448 286.52 220.786 193.969 98.5181 74.2752 95.4507 65.7337 49.5133 59.1645 85.141 64.2252
internal_count=3952 3578 3128 2912 2612 624 435 1988 1579 1429 732 580 697 409 397 374 450 448
is_linear=0
shrinkage=0.13


Tree=33
num_leaves=17
num_cat=0
split_feature=30 22 31 8 13 14 24 0 4 27 21 21 3 11 2 13
split_gain=2.87782 3.38979 5.46287 4.01865 5.04815 4.11958 6.10774 6.28315 3.52159 3.49209 3.22404 5.24845 3.76684 3.42634 3.45812 2.44324
threshold=7.4496428571428579 6.5000000000000009 7.161666666666668 95.500000000000014 41.500000000000007 87.500000000000014 36.630291005291021 0.51670329670329684 87.500000000000014 81.425738933333349 25.566962634110254 20.910256410256416 130.33908045977014 106.50000000000001 0.89666666666666672 42.500000000000007
decision_type=2 2 2 2 2 2 2 2 2 2 2 2 2 2 2 2
left_child=1 2 9 4 -3 6 -5 -8 -4 -1 11 13 -13 -7 -15 -10
right_child=-2 3 8 5 -6 10 7 -9 15 -11 -12 12 -14 14 -16 -17
leaf_value=0.065941664176158973 0.027178637501253607 -0.011449174123458843 -0.032618142454358533 0.062376960954900557 -0.082866779458313666 -0.069329572111587523 0.025978478762067242 -0.043109070378310931 -0.0096606325326565618 0.0084140498338883644 -0.056831636353583202 -0.016567596231437037 0.042203714680231638 -0.03490027468494207 0.024763749058567257 0.041377307827509008
leaf_weight=38.029702946543694 56.906205609440804 46.115584449842572 49.565790593624115 32.888760149478912 26.393018426373601 25.652723221108317 53.120830874890089 37.808110920712352 34.307376971468329 34.293699894100428 27.330656826496124 31.796203158795834 42.655035205185413 46.144993875175714 24.974523898214102 28.712791040539742
leaf_count=176 320 335 321 170 232 191 308 255 214 186 151 191 218 333 164 187
internal_value=0 -0.00338185 0.0111095 -0.0101939 -0.0377966 -0.00392881 0.0146224 -0.00269398 -0.00673641 0.0389316 -0.0155475 -0.00881971 0.0170154 -0.028781 -0.0138056 0.0135322
internal_weight=0 579.79 184.909 394.88 72.5086 322.372 123.818 90.9289 112.586 72.3234 198.554 171.223 74.4512 96.7722 71.1195 63.0202
internal_count=3952 3632 1084 2548 567 1981 733 563 722 362 1248 1097 409 688 497 401
is_linear=0
shrinkage=0.13


Tree=34
num_leaves=17
num_cat=0
split_feature=21 11 25 16 22 25 25 31 24 23 7 24 15 30 12 3
split_gain=2.77525 4.82948 4.55819 3.5922 3.48653 5.82747 4.89374 4.63937 7.14576 6.04851 4.73082 4.3263 5.30952 4.04028 2.9312 2.23634
threshold=17.059411764705889 91.500000000000014 34.861111111111121 86.500000000000014 8.3333333333333339 35.711111111111116 36.305555555555557 6.9316666666666675 36.639722222222233 36.166666666666679 69.500000000000014 37.094627594627603 119.72380952380954 7.3377350427350434 61.126329787234049 147.61250000000004
decision_type=2 2 2 2 2 2 2 2 2 2 2 2 2 2 2 2
left_child=1 -1 -2 14 6 -6 13 10 -9 11 -7 12 -10 -4 -3 -8
right_child=2 3 4 -5 5 7 15 8 9 -11 -12 -13 -14 -15 -16 -17
leaf_value=0.029924514051826581 0.049321819149464256 -0.073260810579635932 0.069583069687741153 0.00036038276881738038 -0.049880091984590709 -0.066139485831040665 0.012380095954614371 0.070692505436198649 -0.0095401763995116105 0.039167847802715296 0 0.012087069153430281 -0.088266474194213324 0.0090023164177977649 -0.015614754370810119 -0.029556410630496164
leaf_weight=27.890963088721037 34.258042491972446 37.02637187205255 38.18666510283947 38.305086683481932 46.704265650361776 30.920356865972281 51.128319108858705 28.243825268000364 39.044080909341574 46.681655438616872 43.790827825665474 49.491180570796132 23.089901270344853 36.968218546360731 25.914772346615791 36.489381473511457
leaf_count=175 165 272 180 318 264 202 318 163 273 269 254 321 183 228 176 191
internal_value=0 -0.0175906 0.00374242 -0.0308176 0.000377731 -0.00773483 0.015769 -0.000119026 0.0108097 0 -0.0274653 -0.0164161 -0.0392159 0.0400535 -0.0498506 -0.00502121
internal_weight=0 129.137 504.997 101.246 470.739 307.966 162.773 261.262 186.551 158.307 74.7112 111.625 62.134 75.1549 62.9411 87.6177
internal_count=3952 941 3011 766 2846 1929 917 1665 1209 1046 456 777 456 408 448 509
is_linear=0
shrinkage=0.13


Tree=35
num_leaves=17
num_cat=0
split_feature=16 15 7 24 16 0 27 12 29 3 18 27 5 1 8 12
split_gain=2.87217 4.57247 4.2018 3.59437 5.2496 5.17752 6.07824 6.73541 4.5221 6.27174 4.0044 5.94763 4.32476 3.82422 3.43001 2.7739
threshold=105.50000000000001 128.09286898839142 68.500000000000014 36.816849816849832 92.500000000000014 0.66746031746031753 84.915571600000007 55.6186224489796 71.550000000000026 124.69047619047622 97.580909090909103 75.763224000000022 236.50000000000003 0.39666666666666678 123.50000000000001 59.704793028322442
decision_type=2 2 2 2 2 2 2 2 2 2 2 2 2 2 2 2
left_child=1 3 -3 5 10 6 8 -8 9 -1 11 -5 14 -12 -13 -15
right_child=-2 2 -4 4 -6 -7 7 -9 -10 -11 13 12 -14 15 -16 -17
leaf_value=-0.026961152991708245 0.031161063811715798 -0.0078547521048337749 -0.070533734454024638 0.029650305865778138 0.04011527009859623 0.064292418942712842 0.086133857852081094 0.0031538736218962135 -0.039522185437329403 0.046385095819193568 -0.074594036044722006 -0.065496468643683012 0.0170929631354797 0.0050025791951980115 -0.0032108686277890529 -0.049581646641762969
leaf_weight=39.261976536363363 44.485044408589602 46.478044902905822 29.783411659300327 60.596507661044598 32.909968996420503 29.318987343460321 27.889507660642266 40.629063900560141 53.22656380943954 38.86069317907095 29.61815508082509 39.166458494961262 31.059271603822708 37.027100838720798 24.610158395022154 26.681981878355145
leaf_count=223 289 321 197 330 229 156 169 263 332 205 175 329 180 235 143 176
internal_value=0 -0.00299251 -0.032627 0.00142956 -0.00838323 0.0135244 0.00594937 0.0372826 -0.0103727 0.00944416 -0.0148752 -0.00201612 -0.0223741 -0.0361216 -0.041727 -0.0178367
internal_weight=0 587.118 76.2615 510.856 281.67 229.187 199.868 68.5186 131.349 78.1227 248.76 155.432 94.8359 93.3272 63.7766 63.7091
internal_count=3952 3663 518 3145 1797 1348 1192 432 760 428 1568 982 652 586 472 411
is_linear=0
shrinkage=0.13


Tree=36
num_leaves=18
num_cat=0
split_feature=2 3 8 26 15 6 14 5 3 14 28 17 15 10 2 32 3
split_gain=2.76577 3.15552 7.42052 5.41033 3.797 4.13683 7.60611 6.12896 5.19357 4.7693 5.30056 5.88607 4.44308 3.88815 3.05356 2.58827 2.35973
threshold=0.40833333333333344 100.7596153846154 112.33333333333336 39.138888888888893 100.8887755102041 96.575031328320833 83.500000000000014 190.50000000000003 155.60952380952384 90.500000000000014 73.967748000000014 176.50000000000003 111.22091013824887 54.500000000000007 0.8583333333333335 7.4150000000000018 162.70833333333334
decision_type=2 2 2 2 2 2 2 2 2 2 2 2 2 2 2 2 2
left_child=-1 2 -2 4 15 6 7 -6 13 -8 14 12 -12 -7 -11 -3 -9
right_child=1 3 -4 -5 5 8 9 16 -10 10 11 -13 -14 -15 -16 -17 -18
leaf_value=0.026630840878915905 -0.020020250092965181 0.042610023888700582 0.064341580545186225 0.034568281527584656 0.0013374302853883995 -0.029143824915921629 0.045689165925122864 -0.090499469521249515 -0.0017766110721170025 -0.060187577510589022 0.037943098723747709 0.066371735219220074 -0.036623230490786245 -0.093330296172275951 -0.0008489532470659268 -0.0086495088979533525 -0.036215348927774504
leaf_weight=57.19862436875701 34.531570034101605 33.605007790029049 35.231338743120432 47.736663486808538 40.245969211682677 33.649787545204163 42.4219113830477 29.290697824209929 41.65153031796217 32.322936933487654 22.106148887425661 27.389103133231401 33.599269287660718 31.723529685288668 27.20654046908021 32.089276492595673 27.541351821273565
leaf_count=324 225 173 194 258 326 183 292 231 217 215 144 176 286 214 160 176 158
internal_value=0 -0.00327727 0.0225439 -0.00689052 -0.011281 -0.0161734 -0.00785994 -0.0372889 -0.0379228 0.00756405 -0.00378187 0.0173384 -0.00682654 -0.0607046 -0.033356 0.0175057 -0.0646696
internal_weight=0 572.343 69.7629 502.58 454.843 389.149 282.124 97.078 107.025 185.046 142.624 83.0945 55.7054 65.3733 59.5295 65.6943 56.832
internal_count=3952 3628 419 3209 2951 2602 1988 715 614 1273 981 606 430 397 375 349 389
is_linear=0
shrinkage=0.13


end of trees

feature_importances:
Glucose_mean=39
Glucose_min=32
pH_mean=31
Systolic_blood_pressure_min=29
Respiratory_rate_mean=28
Temperature_mean=27
Weight_max=27
Fraction_inspired_oxygen_max=26
Heart_Rate_max=25
Temperature_min=25
Glucose_max=24
Oxygen_saturation_min=23
Diastolic_blood_pressure_mean=22
Systolic_blood_pressure_mean=22
Respiratory_rate_min=22
Diastolic_blood_pressure_max=21
Fraction_inspired_oxygen_mean=20
Systolic_blood_pressure_max=17
Heart_Rate_mean=16
Temperature_max=16
pH_min=16
Oxygen_saturation_mean=14
pH_max=13
Mean_blood_pressure_mean=12
Mean_blood_pressure_min=12
Mean_blood_pressure_max=12
Heart_Rate_min=11
Diastolic_blood_pressure_min=9
Weight_mean=9
Respiratory_rate_max=6
Weight_min=6
Fraction_inspired_oxygen_min=4

parameters:
[boosting: gbdt]
[objective: cross_entropy]
[metric: cross_entropy]
[tree_learner: serial]
[device_type: cpu]
[data_sample_strategy: bagging]
[data: ]
[valid: ]
[num_iterations: 37]
[learning_rate: 0.13]
[num_leaves: 29]
[num_threads: 0]
[seed: 0]
[deterministic: 0]
[force_col_wise: 1]
[force_row_wise: 0]
[histogram_pool_size: -1]
[max_depth: 249]
[min_data_in_leaf: 171]
[min_sum_hessian_in_leaf: 0.001]
[bagging_fraction: 1]
[pos_bagging_fraction: 1]
[neg_bagging_fraction: 1]
[bagging_freq: 0]
[bagging_seed: 7719]
[feature_fraction: 1]
[feature_fraction_bynode: 1]
[feature_fraction_seed: 2437]
[extra_trees: 0]
[extra_seed: 11797]
[early_stopping_round: 100]
[early_stopping_min_delta: 0]
[first_metric_only: 0]
[max_delta_step: 0]
[lambda_l1: 0.07]
[lambda_l2: 0.29]
[linear_lambda: 0]
[min_gain_to_split: 0]
[drop_rate: 0.1]
[max_drop: 50]
[skip_drop: 0.5]
[xgboost_dart_mode: 0]
[uniform_drop: 0]
[drop_seed: 21238]
[top_rate: 0.2]
[other_rate: 0.1]
[min_data_per_group: 100]
[max_cat_threshold: 32]
[cat_l2: 10]
[cat_smooth: 10]
[max_cat_to_onehot: 4]
[top_k: 20]
[monotone_constraints: ]
[monotone_constraints_method: basic]
[monotone_penalty: 0]
[feature_contri: ]
[forcedsplits_filename: ]
[refit_decay_rate: 0.9]
[cegb_tradeoff: 1]
[cegb_penalty_split: 0]
[cegb_penalty_feature_lazy: ]
[cegb_penalty_feature_coupled: ]
[path_smooth: 0]
[interaction_constraints: ]
[verbosity: 1]
[saved_feature_importance_type: 0]
[use_quantized_grad: 0]
[num_grad_quant_bins: 4]
[quant_train_renew_leaf: 0]
[stochastic_rounding: 1]
[linear_tree: 0]
[max_bin: 255]
[max_bin_by_feature: ]
[min_data_in_bin: 3]
[bin_construct_sample_cnt: 200000]
[data_random_seed: 38]
[is_enable_sparse: 1]
[enable_bundle: 1]
[use_missing: 1]
[zero_as_missing: 0]
[feature_pre_filter: 0]
[pre_partition: 0]
[two_round: 0]
[header: 0]
[label_column: ]
[weight_column: ]
[group_column: ]
[ignore_column: ]
[categorical_feature: ]
[forcedbins_filename: ]
[precise_float_parser: 0]
[parser_config_file: ]
[objective_seed: 8855]
[num_class: 1]
[is_unbalance: 1]
[scale_pos_weight: 1]
[sigmoid: 1]
[boost_from_average: 1]
[reg_sqrt: 0]
[alpha: 0.9]
[fair_c: 1]
[poisson_max_delta_step: 0.7]
[tweedie_variance_power: 1.5]
[lambdarank_truncation_level: 30]
[lambdarank_norm: 1]
[label_gain: ]
[lambdarank_position_bias_regularization: 0]
[eval_at: ]
[multi_error_top_k: 1]
[auc_mu_weights: ]
[num_machines: 1]
[local_listen_port: 12400]
[time_out: 120]
[machine_list_filename: ]
[machines: ]
[gpu_platform_id: -1]
[gpu_device_id: -1]
[gpu_use_dp: 0]
[num_gpu: 1]

end of parameters

pandas_categorical:[]
